digraph Tree {
node [shape=box, style="filled, rounded", color="black", fontname="helvetica"] ;
edge [fontname="helvetica"] ;
0 [label="transaction_type_C <= 0.5\ngini = 0.5\nsamples = 7141\nvalue = [5650, 5692]", fillcolor="#fefeff"] ;
1 [label="cvv_H <= 0.5\ngini = 0.5\nsamples = 6840\nvalue = [5244, 5620]", fillcolor="#f2f8fd"] ;
0 -> 1 [labeldistance=2.5, labelangle=45, headlabel="True"] ;
2 [label="transaction_env_V <= 0.5\ngini = 0.5\nsamples = 6512\nvalue = [5167, 5182]", fillcolor="#feffff"] ;
1 -> 2 ;
3 [label="signature_image_C <= 0.5\ngini = 0.5\nsamples = 6348\nvalue = [5148, 4928]", fillcolor="#fefaf7"] ;
2 -> 3 ;
4 [label="transaction_env_H <= 0.5\ngini = 0.5\nsamples = 6214\nvalue = [4957, 4898]", fillcolor="#fffefd"] ;
3 -> 4 ;
5 [label="cvv_X <= 0.5\ngini = 0.5\nsamples = 5912\nvalue = [4846, 4537]", fillcolor="#fdf7f2"] ;
4 -> 5 ;
6 [label="transaction_adj_amt <= -0.2\ngini = 0.5\nsamples = 5284\nvalue = [4231, 4163]", fillcolor="#fffdfc"] ;
5 -> 6 ;
7 [label="signature_image_N <= 0.5\ngini = 0.27\nsamples = 2198\nvalue = [559, 2947]", fillcolor="#5fb0ea"] ;
6 -> 7 ;
8 [label="signature_image_W <= 0.5\ngini = 0.28\nsamples = 2051\nvalue = [554, 2717]", fillcolor="#61b1ea"] ;
7 -> 8 ;
9 [label="transaction_env_Q <= 0.5\ngini = 0.27\nsamples = 2001\nvalue = [521, 2675]", fillcolor="#60b0ea"] ;
8 -> 9 ;
10 [label="transaction_adj_amt <= -0.58\ngini = 0.28\nsamples = 1963\nvalue = [521, 2614]", fillcolor="#60b1ea"] ;
9 -> 10 ;
11 [label="transaction_type_R <= 0.5\ngini = 0.17\nsamples = 1357\nvalue = [204, 1966]", fillcolor="#4ea7e8"] ;
10 -> 11 ;
12 [label="transaction_adj_amt <= -1.05\ngini = 0.16\nsamples = 1350\nvalue = [194, 1962]", fillcolor="#4da7e8"] ;
11 -> 12 ;
13 [label="inital_amount <= -1.1\ngini = 0.08\nsamples = 766\nvalue = [47, 1150]", fillcolor="#41a1e6"] ;
12 -> 13 ;
14 [label="transaction_env_I <= 0.5\ngini = 0.15\nsamples = 145\nvalue = [19, 216]", fillcolor="#4aa6e7"] ;
13 -> 14 ;
15 [label="gini = 0.08\nsamples = 118\nvalue = [8, 185]", fillcolor="#42a1e6"] ;
14 -> 15 ;
16 [label="gini = 0.39\nsamples = 27\nvalue = [11, 31]", fillcolor="#7fc0ee"] ;
14 -> 16 ;
17 [label="acc_age <= -1.77\ngini = 0.06\nsamples = 621\nvalue = [28, 934]", fillcolor="#3fa0e6"] ;
13 -> 17 ;
18 [label="gini = 0.44\nsamples = 6\nvalue = [4, 2]", fillcolor="#f2c09c"] ;
17 -> 18 ;
19 [label="gini = 0.05\nsamples = 615\nvalue = [24, 932]", fillcolor="#3ea0e6"] ;
17 -> 19 ;
20 [label="signature_image_V <= 0.5\ngini = 0.26\nsamples = 584\nvalue = [147, 812]", fillcolor="#5dafea"] ;
12 -> 20 ;
21 [label="inital_amount <= -0.48\ngini = 0.28\nsamples = 507\nvalue = [138, 688]", fillcolor="#61b1ea"] ;
20 -> 21 ;
22 [label="gini = 0.36\nsamples = 172\nvalue = [62, 205]", fillcolor="#75bbed"] ;
21 -> 22 ;
23 [label="gini = 0.23\nsamples = 335\nvalue = [76, 483]", fillcolor="#58ace9"] ;
21 -> 23 ;
24 [label="transaction_adj_amt <= -0.81\ngini = 0.13\nsamples = 77\nvalue = [9, 124]", fillcolor="#47a4e7"] ;
20 -> 24 ;
25 [label="gini = 0.2\nsamples = 39\nvalue = [8, 61]", fillcolor="#53aae8"] ;
24 -> 25 ;
26 [label="gini = 0.03\nsamples = 38\nvalue = [1, 63]", fillcolor="#3c9fe5"] ;
24 -> 26 ;
27 [label="currency_cad <= 0.5\ngini = 0.41\nsamples = 7\nvalue = [10, 4]", fillcolor="#efb388"] ;
11 -> 27 ;
28 [label="signature_image_U <= 0.5\ngini = 0.48\nsamples = 5\nvalue = [6, 4]", fillcolor="#f6d5bd"] ;
27 -> 28 ;
29 [label="gini = 0.44\nsamples = 3\nvalue = [2, 4]", fillcolor="#9ccef2"] ;
28 -> 29 ;
30 [label="gini = 0.0\nsamples = 2\nvalue = [4, 0]", fillcolor="#e58139"] ;
28 -> 30 ;
31 [label="gini = 0.0\nsamples = 2\nvalue = [4, 0]", fillcolor="#e58139"] ;
27 -> 31 ;
32 [label="currency_usd <= 0.5\ngini = 0.44\nsamples = 606\nvalue = [317, 648]", fillcolor="#9acdf2"] ;
10 -> 32 ;
33 [label="transaction_amt <= -0.28\ngini = 0.41\nsamples = 475\nvalue = [222, 544]", fillcolor="#8ac5f0"] ;
32 -> 33 ;
34 [label="transaction_type_F <= 0.5\ngini = 0.48\nsamples = 122\nvalue = [111, 78]", fillcolor="#f7dac4"] ;
33 -> 34 ;
35 [label="tranaction_initiate_E <= 0.5\ngini = 0.5\nsamples = 108\nvalue = [89, 74]", fillcolor="#fbeade"] ;
34 -> 35 ;
36 [label="gini = 0.49\nsamples = 102\nvalue = [87, 66]", fillcolor="#f9e1cf"] ;
35 -> 36 ;
37 [label="gini = 0.32\nsamples = 6\nvalue = [2, 8]", fillcolor="#6ab6ec"] ;
35 -> 37 ;
38 [label="transaction_env_C <= 0.5\ngini = 0.26\nsamples = 14\nvalue = [22, 4]", fillcolor="#ea985d"] ;
34 -> 38 ;
39 [label="gini = 0.3\nsamples = 12\nvalue = [18, 4]", fillcolor="#eb9d65"] ;
38 -> 39 ;
40 [label="gini = 0.0\nsamples = 2\nvalue = [4, 0]", fillcolor="#e58139"] ;
38 -> 40 ;
41 [label="transaction_type_X <= 0.5\ngini = 0.31\nsamples = 353\nvalue = [111, 466]", fillcolor="#68b4eb"] ;
33 -> 41 ;
42 [label="transaction_amt <= 0.24\ngini = 0.29\nsamples = 338\nvalue = [94, 451]", fillcolor="#62b1ea"] ;
41 -> 42 ;
43 [label="gini = 0.43\nsamples = 97\nvalue = [48, 106]", fillcolor="#93c9f1"] ;
42 -> 43 ;
44 [label="gini = 0.21\nsamples = 241\nvalue = [46, 345]", fillcolor="#53aae8"] ;
42 -> 44 ;
45 [label="tranaction_initiate_Y <= 0.5\ngini = 0.5\nsamples = 15\nvalue = [17, 15]", fillcolor="#fcf0e8"] ;
41 -> 45 ;
46 [label="gini = 0.45\nsamples = 12\nvalue = [17, 9]", fillcolor="#f3c4a2"] ;
45 -> 46 ;
47 [label="gini = 0.0\nsamples = 3\nvalue = [0, 6]", fillcolor="#399de5"] ;
45 -> 47 ;
48 [label="os_iPad <= 0.5\ngini = 0.5\nsamples = 131\nvalue = [95, 104]", fillcolor="#eef7fd"] ;
32 -> 48 ;
49 [label="transaction_env_N <= 0.5\ngini = 0.5\nsamples = 123\nvalue = [93, 95]", fillcolor="#fbfdfe"] ;
48 -> 49 ;
50 [label="transaction_type_X <= 0.5\ngini = 0.49\nsamples = 112\nvalue = [93, 75]", fillcolor="#fae7d9"] ;
49 -> 50 ;
51 [label="gini = 0.5\nsamples = 95\nvalue = [72, 74]", fillcolor="#fafcfe"] ;
50 -> 51 ;
52 [label="gini = 0.09\nsamples = 17\nvalue = [21, 1]", fillcolor="#e68742"] ;
50 -> 52 ;
53 [label="gini = 0.0\nsamples = 11\nvalue = [0, 20]", fillcolor="#399de5"] ;
49 -> 53 ;
54 [label="historic_velocity <= 0.95\ngini = 0.3\nsamples = 8\nvalue = [2, 9]", fillcolor="#65b3eb"] ;
48 -> 54 ;
55 [label="gini = 0.0\nsamples = 6\nvalue = [0, 8]", fillcolor="#399de5"] ;
54 -> 55 ;
56 [label="gini = 0.44\nsamples = 2\nvalue = [2, 1]", fillcolor="#f2c09c"] ;
54 -> 56 ;
57 [label="gini = 0.0\nsamples = 38\nvalue = [0, 61]", fillcolor="#399de5"] ;
9 -> 57 ;
58 [label="d_last_logon <= -1.04\ngini = 0.49\nsamples = 50\nvalue = [33, 42]", fillcolor="#d5eaf9"] ;
8 -> 58 ;
59 [label="transaction_amt <= -0.54\ngini = 0.36\nsamples = 10\nvalue = [10, 3]", fillcolor="#eda774"] ;
58 -> 59 ;
60 [label="gini = 0.0\nsamples = 5\nvalue = [8, 0]", fillcolor="#e58139"] ;
59 -> 60 ;
61 [label="gini = 0.48\nsamples = 5\nvalue = [2, 3]", fillcolor="#bddef6"] ;
59 -> 61 ;
62 [label="transaction_amt <= -0.84\ngini = 0.47\nsamples = 40\nvalue = [23, 39]", fillcolor="#aed7f4"] ;
58 -> 62 ;
63 [label="transaction_type_Q <= 0.5\ngini = 0.23\nsamples = 9\nvalue = [13, 2]", fillcolor="#e99457"] ;
62 -> 63 ;
64 [label="gini = 0.15\nsamples = 7\nvalue = [11, 1]", fillcolor="#e78c4b"] ;
63 -> 64 ;
65 [label="gini = 0.44\nsamples = 2\nvalue = [2, 1]", fillcolor="#f2c09c"] ;
63 -> 65 ;
66 [label="cvv_G <= 0.5\ngini = 0.33\nsamples = 31\nvalue = [10, 37]", fillcolor="#6fb7ec"] ;
62 -> 66 ;
67 [label="day_Thu <= 0.5\ngini = 0.37\nsamples = 27\nvalue = [10, 31]", fillcolor="#79bded"] ;
66 -> 67 ;
68 [label="browser_Opera <= 0.5\ngini = 0.39\nsamples = 24\nvalue = [10, 27]", fillcolor="#82c1ef"] ;
67 -> 68 ;
69 [label="transaction_amt <= 0.78\ngini = 0.16\nsamples = 17\nvalue = [2, 21]", fillcolor="#4ca6e7"] ;
68 -> 69 ;
70 [label="gini = 0.1\nsamples = 13\nvalue = [1, 18]", fillcolor="#44a2e6"] ;
69 -> 70 ;
71 [label="gini = 0.38\nsamples = 4\nvalue = [1, 3]", fillcolor="#7bbeee"] ;
69 -> 71 ;
72 [label="gini = 0.49\nsamples = 7\nvalue = [8, 6]", fillcolor="#f8e0ce"] ;
68 -> 72 ;
73 [label="gini = 0.0\nsamples = 3\nvalue = [0, 4]", fillcolor="#399de5"] ;
67 -> 73 ;
74 [label="gini = 0.0\nsamples = 4\nvalue = [0, 6]", fillcolor="#399de5"] ;
66 -> 74 ;
75 [label="transaction_adj_amt <= -0.27\ngini = 0.04\nsamples = 147\nvalue = [5, 230]", fillcolor="#3d9fe6"] ;
7 -> 75 ;
76 [label="cvv_D <= 0.5\ngini = 0.02\nsamples = 139\nvalue = [2, 218]", fillcolor="#3b9ee5"] ;
75 -> 76 ;
77 [label="gini = 0.0\nsamples = 117\nvalue = [0, 185]", fillcolor="#399de5"] ;
76 -> 77 ;
78 [label="day_Sun <= 0.5\ngini = 0.11\nsamples = 22\nvalue = [2, 33]", fillcolor="#45a3e7"] ;
76 -> 78 ;
79 [label="day_Thu <= 0.5\ngini = 0.06\nsamples = 19\nvalue = [1, 31]", fillcolor="#3fa0e6"] ;
78 -> 79 ;
80 [label="transaction_adj_amt <= -0.97\ngini = 0.09\nsamples = 15\nvalue = [1, 21]", fillcolor="#42a2e6"] ;
79 -> 80 ;
81 [label="gini = 0.0\nsamples = 8\nvalue = [0, 14]", fillcolor="#399de5"] ;
80 -> 81 ;
82 [label="os_Linux <= 0.5\ngini = 0.22\nsamples = 7\nvalue = [1, 7]", fillcolor="#55abe9"] ;
80 -> 82 ;
83 [label="gini = 0.38\nsamples = 3\nvalue = [1, 3]", fillcolor="#7bbeee"] ;
82 -> 83 ;
84 [label="gini = 0.0\nsamples = 4\nvalue = [0, 4]", fillcolor="#399de5"] ;
82 -> 84 ;
85 [label="gini = 0.0\nsamples = 4\nvalue = [0, 10]", fillcolor="#399de5"] ;
79 -> 85 ;
86 [label="gini = 0.44\nsamples = 3\nvalue = [1, 2]", fillcolor="#9ccef2"] ;
78 -> 86 ;
87 [label="gini = 0.32\nsamples = 8\nvalue = [3, 12]", fillcolor="#6ab6ec"] ;
75 -> 87 ;
88 [label="transaction_env_U <= 0.5\ngini = 0.37\nsamples = 3086\nvalue = [3672, 1216]", fillcolor="#eeab7b"] ;
6 -> 88 ;
89 [label="transaction_env_B <= 0.5\ngini = 0.37\nsamples = 2923\nvalue = [3496, 1124]", fillcolor="#edaa79"] ;
88 -> 89 ;
90 [label="transaction_amt <= -0.06\ngini = 0.36\nsamples = 2907\nvalue = [3496, 1102]", fillcolor="#eda977"] ;
89 -> 90 ;
91 [label="cvv_S <= 0.5\ngini = 0.21\nsamples = 1455\nvalue = [2042, 280]", fillcolor="#e99254"] ;
90 -> 91 ;
92 [label="transaction_adj_amt <= 0.35\ngini = 0.21\nsamples = 1447\nvalue = [2035, 276]", fillcolor="#e99254"] ;
91 -> 92 ;
93 [label="signature_image_V <= 0.5\ngini = 0.34\nsamples = 412\nvalue = [518, 145]", fillcolor="#eca470"] ;
92 -> 93 ;
94 [label="cvv_O <= 0.5\ngini = 0.33\nsamples = 403\nvalue = [509, 137]", fillcolor="#eca36e"] ;
93 -> 94 ;
95 [label="tranaction_initiate_B <= 0.5\ngini = 0.32\nsamples = 394\nvalue = [504, 127]", fillcolor="#eca16b"] ;
94 -> 95 ;
96 [label="gini = 0.31\nsamples = 378\nvalue = [494, 119]", fillcolor="#eb9f69"] ;
95 -> 96 ;
97 [label="gini = 0.49\nsamples = 16\nvalue = [10, 8]", fillcolor="#fae6d7"] ;
95 -> 97 ;
98 [label="tranaction_initiate_K <= 0.5\ngini = 0.44\nsamples = 9\nvalue = [5, 10]", fillcolor="#9ccef2"] ;
94 -> 98 ;
99 [label="gini = 0.28\nsamples = 7\nvalue = [2, 10]", fillcolor="#61b1ea"] ;
98 -> 99 ;
100 [label="gini = 0.0\nsamples = 2\nvalue = [3, 0]", fillcolor="#e58139"] ;
98 -> 100 ;
101 [label="transaction_env_X <= 0.5\ngini = 0.5\nsamples = 9\nvalue = [9, 8]", fillcolor="#fcf1e9"] ;
93 -> 101 ;
102 [label="browser_Opera <= 0.5\ngini = 0.38\nsamples = 7\nvalue = [9, 3]", fillcolor="#eeab7b"] ;
101 -> 102 ;
103 [label="gini = 0.48\nsamples = 4\nvalue = [2, 3]", fillcolor="#bddef6"] ;
102 -> 103 ;
104 [label="gini = 0.0\nsamples = 3\nvalue = [7, 0]", fillcolor="#e58139"] ;
102 -> 104 ;
105 [label="gini = 0.0\nsamples = 2\nvalue = [0, 5]", fillcolor="#399de5"] ;
101 -> 105 ;
106 [label="month_Aug <= 0.5\ngini = 0.15\nsamples = 1035\nvalue = [1517, 131]", fillcolor="#e78c4a"] ;
92 -> 106 ;
107 [label="acc_age <= -0.87\ngini = 0.13\nsamples = 952\nvalue = [1411, 109]", fillcolor="#e78b48"] ;
106 -> 107 ;
108 [label="cvv_E <= 0.5\ngini = 0.09\nsamples = 328\nvalue = [483, 25]", fillcolor="#e68843"] ;
107 -> 108 ;
109 [label="gini = 0.09\nsamples = 326\nvalue = [482, 24]", fillcolor="#e68743"] ;
108 -> 109 ;
110 [label="gini = 0.5\nsamples = 2\nvalue = [1, 1]", fillcolor="#ffffff"] ;
108 -> 110 ;
111 [label="transaction_env_E <= 0.5\ngini = 0.15\nsamples = 624\nvalue = [928, 84]", fillcolor="#e78c4b"] ;
107 -> 111 ;
112 [label="gini = 0.15\nsamples = 619\nvalue = [918, 81]", fillcolor="#e78c4a"] ;
111 -> 112 ;
113 [label="gini = 0.36\nsamples = 5\nvalue = [10, 3]", fillcolor="#eda774"] ;
111 -> 113 ;
114 [label="d_last_logon <= -1.04\ngini = 0.28\nsamples = 83\nvalue = [106, 22]", fillcolor="#ea9b62"] ;
106 -> 114 ;
115 [label="gini = 0.0\nsamples = 12\nvalue = [21, 0]", fillcolor="#e58139"] ;
114 -> 115 ;
116 [label="transaction_env_F <= 0.5\ngini = 0.33\nsamples = 71\nvalue = [85, 22]", fillcolor="#eca26c"] ;
114 -> 116 ;
117 [label="gini = 0.24\nsamples = 63\nvalue = [81, 13]", fillcolor="#e99559"] ;
116 -> 117 ;
118 [label="gini = 0.43\nsamples = 8\nvalue = [4, 9]", fillcolor="#91c9f1"] ;
116 -> 118 ;
119 [label="gini = 0.46\nsamples = 8\nvalue = [7, 4]", fillcolor="#f4c9aa"] ;
91 -> 119 ;
120 [label="transaction_type_X <= 0.5\ngini = 0.46\nsamples = 1452\nvalue = [1454, 822]", fillcolor="#f4c8a9"] ;
90 -> 120 ;
121 [label="cvv_S <= 0.5\ngini = 0.47\nsamples = 1291\nvalue = [1249, 788]", fillcolor="#f5d0b6"] ;
120 -> 121 ;
122 [label="cvv_C <= 0.5\ngini = 0.46\nsamples = 1239\nvalue = [1242, 716]", fillcolor="#f4caab"] ;
121 -> 122 ;
123 [label="transaction_env_D <= 0.5\ngini = 0.47\nsamples = 1136\nvalue = [1115, 691]", fillcolor="#f5cfb4"] ;
122 -> 123 ;
124 [label="transaction_amt <= 0.37\ngini = 0.48\nsamples = 970\nvalue = [931, 625]", fillcolor="#f6d6be"] ;
123 -> 124 ;
125 [label="gini = 0.41\nsamples = 265\nvalue = [305, 126]", fillcolor="#f0b58b"] ;
124 -> 125 ;
126 [label="gini = 0.49\nsamples = 705\nvalue = [626, 499]", fillcolor="#fae5d7"] ;
124 -> 126 ;
127 [label="month_Sep <= 0.5\ngini = 0.39\nsamples = 166\nvalue = [184, 66]", fillcolor="#eeae80"] ;
123 -> 127 ;
128 [label="gini = 0.37\nsamples = 155\nvalue = [175, 56]", fillcolor="#eda978"] ;
127 -> 128 ;
129 [label="gini = 0.5\nsamples = 11\nvalue = [9, 10]", fillcolor="#ebf5fc"] ;
127 -> 129 ;
130 [label="transaction_type_U <= 0.5\ngini = 0.27\nsamples = 103\nvalue = [127, 25]", fillcolor="#ea9a60"] ;
122 -> 130 ;
131 [label="signature_image_W <= 0.5\ngini = 0.23\nsamples = 98\nvalue = [125, 19]", fillcolor="#e99457"] ;
130 -> 131 ;
132 [label="gini = 0.2\nsamples = 93\nvalue = [122, 16]", fillcolor="#e89253"] ;
131 -> 132 ;
133 [label="gini = 0.5\nsamples = 5\nvalue = [3, 3]", fillcolor="#ffffff"] ;
131 -> 133 ;
134 [label="day_Thu <= 0.5\ngini = 0.38\nsamples = 5\nvalue = [2, 6]", fillcolor="#7bbeee"] ;
130 -> 134 ;
135 [label="gini = 0.28\nsamples = 3\nvalue = [1, 5]", fillcolor="#61b1ea"] ;
134 -> 135 ;
136 [label="gini = 0.5\nsamples = 2\nvalue = [1, 1]", fillcolor="#ffffff"] ;
134 -> 136 ;
137 [label="currency_cad <= 0.5\ngini = 0.16\nsamples = 52\nvalue = [7, 72]", fillcolor="#4ca7e8"] ;
121 -> 137 ;
138 [label="gini = 0.0\nsamples = 18\nvalue = [0, 28]", fillcolor="#399de5"] ;
137 -> 138 ;
139 [label="transaction_adj_amt <= 0.42\ngini = 0.24\nsamples = 34\nvalue = [7, 44]", fillcolor="#58ade9"] ;
137 -> 139 ;
140 [label="transaction_env_Z <= 0.5\ngini = 0.05\nsamples = 26\nvalue = [1, 39]", fillcolor="#3ea0e6"] ;
139 -> 140 ;
141 [label="gini = 0.0\nsamples = 23\nvalue = [0, 37]", fillcolor="#399de5"] ;
140 -> 141 ;
142 [label="gini = 0.44\nsamples = 3\nvalue = [1, 2]", fillcolor="#9ccef2"] ;
140 -> 142 ;
143 [label="gini = 0.5\nsamples = 8\nvalue = [6, 5]", fillcolor="#fbeade"] ;
139 -> 143 ;
144 [label="historic_velocity <= 1.3\ngini = 0.24\nsamples = 161\nvalue = [205, 34]", fillcolor="#e9965a"] ;
120 -> 144 ;
145 [label="inital_amount <= -0.52\ngini = 0.29\nsamples = 133\nvalue = [161, 34]", fillcolor="#ea9c63"] ;
144 -> 145 ;
146 [label="os_Macintosh <= 0.5\ngini = 0.12\nsamples = 42\nvalue = [60, 4]", fillcolor="#e78946"] ;
145 -> 146 ;
147 [label="os_iPhone <= 0.5\ngini = 0.14\nsamples = 31\nvalue = [47, 4]", fillcolor="#e78c4a"] ;
146 -> 147 ;
148 [label="gini = 0.24\nsamples = 21\nvalue = [25, 4]", fillcolor="#e99559"] ;
147 -> 148 ;
149 [label="gini = 0.0\nsamples = 10\nvalue = [22, 0]", fillcolor="#e58139"] ;
147 -> 149 ;
150 [label="gini = 0.0\nsamples = 11\nvalue = [13, 0]", fillcolor="#e58139"] ;
146 -> 150 ;
151 [label="tranaction_initiate_F <= 0.5\ngini = 0.35\nsamples = 91\nvalue = [101, 30]", fillcolor="#eda674"] ;
145 -> 151 ;
152 [label="inital_amount <= -0.27\ngini = 0.37\nsamples = 87\nvalue = [94, 30]", fillcolor="#eda978"] ;
151 -> 152 ;
153 [label="gini = 0.44\nsamples = 9\nvalue = [5, 10]", fillcolor="#9ccef2"] ;
152 -> 153 ;
154 [label="gini = 0.3\nsamples = 78\nvalue = [89, 20]", fillcolor="#eb9d65"] ;
152 -> 154 ;
155 [label="gini = 0.0\nsamples = 4\nvalue = [7, 0]", fillcolor="#e58139"] ;
151 -> 155 ;
156 [label="gini = 0.0\nsamples = 28\nvalue = [44, 0]", fillcolor="#e58139"] ;
144 -> 156 ;
157 [label="gini = 0.0\nsamples = 16\nvalue = [0, 22]", fillcolor="#399de5"] ;
89 -> 157 ;
158 [label="cvv_V <= 0.5\ngini = 0.45\nsamples = 163\nvalue = [176, 92]", fillcolor="#f3c3a0"] ;
88 -> 158 ;
159 [label="cvv_Z <= 0.5\ngini = 0.43\nsamples = 155\nvalue = [176, 80]", fillcolor="#f1ba93"] ;
158 -> 159 ;
160 [label="tranaction_initiate_W <= 0.5\ngini = 0.46\nsamples = 134\nvalue = [142, 79]", fillcolor="#f3c7a7"] ;
159 -> 160 ;
161 [label="acc_age <= 0.04\ngini = 0.43\nsamples = 125\nvalue = [140, 64]", fillcolor="#f1bb94"] ;
160 -> 161 ;
162 [label="cvv_S <= 0.5\ngini = 0.31\nsamples = 67\nvalue = [96, 23]", fillcolor="#eb9f68"] ;
161 -> 162 ;
163 [label="tranaction_initiate_B <= 0.5\ngini = 0.26\nsamples = 64\nvalue = [96, 17]", fillcolor="#ea975c"] ;
162 -> 163 ;
164 [label="cvv_N <= 0.5\ngini = 0.22\nsamples = 61\nvalue = [95, 14]", fillcolor="#e99456"] ;
163 -> 164 ;
165 [label="gini = 0.19\nsamples = 59\nvalue = [95, 11]", fillcolor="#e89050"] ;
164 -> 165 ;
166 [label="gini = 0.0\nsamples = 2\nvalue = [0, 3]", fillcolor="#399de5"] ;
164 -> 166 ;
167 [label="gini = 0.38\nsamples = 3\nvalue = [1, 3]", fillcolor="#7bbeee"] ;
163 -> 167 ;
168 [label="gini = 0.0\nsamples = 3\nvalue = [0, 6]", fillcolor="#399de5"] ;
162 -> 168 ;
169 [label="month_Nov <= 0.5\ngini = 0.5\nsamples = 58\nvalue = [44, 41]", fillcolor="#fdf6f2"] ;
161 -> 169 ;
170 [label="inital_amount <= -0.27\ngini = 0.49\nsamples = 53\nvalue = [44, 34]", fillcolor="#f9e2d2"] ;
169 -> 170 ;
171 [label="historic_velocity <= -1.51\ngini = 0.4\nsamples = 27\nvalue = [29, 11]", fillcolor="#efb184"] ;
170 -> 171 ;
172 [label="gini = 0.0\nsamples = 2\nvalue = [0, 2]", fillcolor="#399de5"] ;
171 -> 172 ;
173 [label="gini = 0.36\nsamples = 25\nvalue = [29, 9]", fillcolor="#eda876"] ;
171 -> 173 ;
174 [label="transaction_adj_amt <= 0.66\ngini = 0.48\nsamples = 26\nvalue = [15, 23]", fillcolor="#baddf6"] ;
170 -> 174 ;
175 [label="gini = 0.36\nsamples = 22\nvalue = [7, 23]", fillcolor="#75bbed"] ;
174 -> 175 ;
176 [label="gini = 0.0\nsamples = 4\nvalue = [8, 0]", fillcolor="#e58139"] ;
174 -> 176 ;
177 [label="gini = 0.0\nsamples = 5\nvalue = [0, 7]", fillcolor="#399de5"] ;
169 -> 177 ;
178 [label="os_Macintosh <= 0.5\ngini = 0.21\nsamples = 9\nvalue = [2, 15]", fillcolor="#53aae8"] ;
160 -> 178 ;
179 [label="gini = 0.35\nsamples = 5\nvalue = [2, 7]", fillcolor="#72b9ec"] ;
178 -> 179 ;
180 [label="gini = 0.0\nsamples = 4\nvalue = [0, 8]", fillcolor="#399de5"] ;
178 -> 180 ;
181 [label="month_Nov <= 0.5\ngini = 0.06\nsamples = 21\nvalue = [34, 1]", fillcolor="#e6853f"] ;
159 -> 181 ;
182 [label="gini = 0.0\nsamples = 19\nvalue = [33, 0]", fillcolor="#e58139"] ;
181 -> 182 ;
183 [label="gini = 0.5\nsamples = 2\nvalue = [1, 1]", fillcolor="#ffffff"] ;
181 -> 183 ;
184 [label="gini = 0.0\nsamples = 8\nvalue = [0, 12]", fillcolor="#399de5"] ;
158 -> 184 ;
185 [label="currency_eur <= 0.5\ngini = 0.47\nsamples = 628\nvalue = [615, 374]", fillcolor="#f5ceb1"] ;
5 -> 185 ;
186 [label="signature_image_J <= 0.5\ngini = 0.46\nsamples = 587\nvalue = [598, 325]", fillcolor="#f3c5a5"] ;
185 -> 186 ;
187 [label="currency_cad <= 0.5\ngini = 0.45\nsamples = 583\nvalue = [598, 318]", fillcolor="#f3c4a2"] ;
186 -> 187 ;
188 [label="signature_image_V <= 0.5\ngini = 0.34\nsamples = 112\nvalue = [133, 37]", fillcolor="#eca470"] ;
187 -> 188 ;
189 [label="inital_amount <= -0.4\ngini = 0.36\nsamples = 101\nvalue = [120, 36]", fillcolor="#eda774"] ;
188 -> 189 ;
190 [label="month_Sep <= 0.5\ngini = 0.46\nsamples = 38\nvalue = [33, 18]", fillcolor="#f3c6a5"] ;
189 -> 190 ;
191 [label="historic_velocity <= -1.24\ngini = 0.42\nsamples = 33\nvalue = [31, 13]", fillcolor="#f0b68c"] ;
190 -> 191 ;
192 [label="gini = 0.0\nsamples = 2\nvalue = [0, 4]", fillcolor="#399de5"] ;
191 -> 192 ;
193 [label="transaction_env_C <= 0.5\ngini = 0.35\nsamples = 31\nvalue = [31, 9]", fillcolor="#eda672"] ;
191 -> 193 ;
194 [label="day_Sun <= 0.5\ngini = 0.3\nsamples = 29\nvalue = [31, 7]", fillcolor="#eb9d66"] ;
193 -> 194 ;
195 [label="gini = 0.33\nsamples = 25\nvalue = [27, 7]", fillcolor="#eca26c"] ;
194 -> 195 ;
196 [label="gini = 0.0\nsamples = 4\nvalue = [4, 0]", fillcolor="#e58139"] ;
194 -> 196 ;
197 [label="gini = 0.0\nsamples = 2\nvalue = [0, 2]", fillcolor="#399de5"] ;
193 -> 197 ;
198 [label="d_last_logon <= -0.33\ngini = 0.41\nsamples = 5\nvalue = [2, 5]", fillcolor="#88c4ef"] ;
190 -> 198 ;
199 [label="gini = 0.5\nsamples = 2\nvalue = [1, 1]", fillcolor="#ffffff"] ;
198 -> 199 ;
200 [label="gini = 0.32\nsamples = 3\nvalue = [1, 4]", fillcolor="#6ab6ec"] ;
198 -> 200 ;
201 [label="tranaction_initiate_P <= 0.5\ngini = 0.28\nsamples = 63\nvalue = [87, 18]", fillcolor="#ea9b62"] ;
189 -> 201 ;
202 [label="transaction_type_X <= 0.5\ngini = 0.24\nsamples = 58\nvalue = [85, 14]", fillcolor="#e9965a"] ;
201 -> 202 ;
203 [label="transaction_env_X <= 0.5\ngini = 0.31\nsamples = 45\nvalue = [58, 14]", fillcolor="#eb9f69"] ;
202 -> 203 ;
204 [label="os_Linux <= 0.5\ngini = 0.33\nsamples = 42\nvalue = [52, 14]", fillcolor="#eca36e"] ;
203 -> 204 ;
205 [label="gini = 0.28\nsamples = 34\nvalue = [44, 9]", fillcolor="#ea9b61"] ;
204 -> 205 ;
206 [label="gini = 0.47\nsamples = 8\nvalue = [8, 5]", fillcolor="#f5d0b5"] ;
204 -> 206 ;
207 [label="gini = 0.0\nsamples = 3\nvalue = [6, 0]", fillcolor="#e58139"] ;
203 -> 207 ;
208 [label="gini = 0.0\nsamples = 13\nvalue = [27, 0]", fillcolor="#e58139"] ;
202 -> 208 ;
209 [label="inital_amount <= 0.74\ngini = 0.44\nsamples = 5\nvalue = [2, 4]", fillcolor="#9ccef2"] ;
201 -> 209 ;
210 [label="gini = 0.38\nsamples = 3\nvalue = [1, 3]", fillcolor="#7bbeee"] ;
209 -> 210 ;
211 [label="gini = 0.5\nsamples = 2\nvalue = [1, 1]", fillcolor="#ffffff"] ;
209 -> 211 ;
212 [label="transaction_env_D <= 0.5\ngini = 0.13\nsamples = 11\nvalue = [13, 1]", fillcolor="#e78b48"] ;
188 -> 212 ;
213 [label="day_Sat <= 0.5\ngini = 0.17\nsamples = 8\nvalue = [10, 1]", fillcolor="#e88e4d"] ;
212 -> 213 ;
214 [label="gini = 0.32\nsamples = 4\nvalue = [4, 1]", fillcolor="#eca06a"] ;
213 -> 214 ;
215 [label="gini = 0.0\nsamples = 4\nvalue = [6, 0]", fillcolor="#e58139"] ;
213 -> 215 ;
216 [label="gini = 0.0\nsamples = 3\nvalue = [3, 0]", fillcolor="#e58139"] ;
212 -> 216 ;
217 [label="signature_image_F <= 0.5\ngini = 0.47\nsamples = 471\nvalue = [465, 281]", fillcolor="#f5cdb1"] ;
187 -> 217 ;
218 [label="signature_image_H <= 0.5\ngini = 0.46\nsamples = 425\nvalue = [430, 239]", fillcolor="#f3c7a7"] ;
217 -> 218 ;
219 [label="signature_image_G <= 0.5\ngini = 0.45\nsamples = 390\nvalue = [396, 207]", fillcolor="#f3c3a0"] ;
218 -> 219 ;
220 [label="signature_image_X <= 0.5\ngini = 0.47\nsamples = 337\nvalue = [327, 191]", fillcolor="#f4cbad"] ;
219 -> 220 ;
221 [label="transaction_adj_amt <= -0.43\ngini = 0.47\nsamples = 311\nvalue = [293, 184]", fillcolor="#f5d0b5"] ;
220 -> 221 ;
222 [label="os_iPad <= 0.5\ngini = 0.17\nsamples = 98\nvalue = [14, 134]", fillcolor="#4ea7e8"] ;
221 -> 222 ;
223 [label="gini = 0.17\nsamples = 95\nvalue = [14, 131]", fillcolor="#4ea7e8"] ;
222 -> 223 ;
224 [label="gini = 0.0\nsamples = 3\nvalue = [0, 3]", fillcolor="#399de5"] ;
222 -> 224 ;
225 [label="transaction_amt <= -0.65\ngini = 0.26\nsamples = 213\nvalue = [279, 50]", fillcolor="#ea985c"] ;
221 -> 225 ;
226 [label="gini = 0.1\nsamples = 79\nvalue = [119, 7]", fillcolor="#e78845"] ;
225 -> 226 ;
227 [label="gini = 0.33\nsamples = 134\nvalue = [160, 43]", fillcolor="#eca36e"] ;
225 -> 227 ;
228 [label="transaction_type_U <= 0.5\ngini = 0.28\nsamples = 26\nvalue = [34, 7]", fillcolor="#ea9b62"] ;
220 -> 228 ;
229 [label="transaction_type_S <= 0.5\ngini = 0.3\nsamples = 19\nvalue = [26, 6]", fillcolor="#eb9e67"] ;
228 -> 229 ;
230 [label="gini = 0.19\nsamples = 17\nvalue = [25, 3]", fillcolor="#e89051"] ;
229 -> 230 ;
231 [label="gini = 0.38\nsamples = 2\nvalue = [1, 3]", fillcolor="#7bbeee"] ;
229 -> 231 ;
232 [label="gini = 0.2\nsamples = 7\nvalue = [8, 1]", fillcolor="#e89152"] ;
228 -> 232 ;
233 [label="tranaction_initiate_E <= 0.5\ngini = 0.31\nsamples = 53\nvalue = [69, 16]", fillcolor="#eb9e67"] ;
219 -> 233 ;
234 [label="transaction_type_I <= 0.5\ngini = 0.24\nsamples = 51\nvalue = [68, 11]", fillcolor="#e99559"] ;
233 -> 234 ;
235 [label="tranaction_initiate_W <= 0.5\ngini = 0.16\nsamples = 42\nvalue = [53, 5]", fillcolor="#e78d4c"] ;
234 -> 235 ;
236 [label="gini = 0.17\nsamples = 38\nvalue = [48, 5]", fillcolor="#e88e4e"] ;
235 -> 236 ;
237 [label="gini = 0.0\nsamples = 4\nvalue = [5, 0]", fillcolor="#e58139"] ;
235 -> 237 ;
238 [label="transaction_env_G <= 0.5\ngini = 0.41\nsamples = 9\nvalue = [15, 6]", fillcolor="#efb388"] ;
234 -> 238 ;
239 [label="gini = 0.44\nsamples = 7\nvalue = [12, 6]", fillcolor="#f2c09c"] ;
238 -> 239 ;
240 [label="gini = 0.0\nsamples = 2\nvalue = [3, 0]", fillcolor="#e58139"] ;
238 -> 240 ;
241 [label="gini = 0.28\nsamples = 2\nvalue = [1, 5]", fillcolor="#61b1ea"] ;
233 -> 241 ;
242 [label="day_Thu <= 0.5\ngini = 0.5\nsamples = 35\nvalue = [34, 32]", fillcolor="#fdf8f3"] ;
218 -> 242 ;
243 [label="os_Windows <= 0.5\ngini = 0.5\nsamples = 28\nvalue = [24, 28]", fillcolor="#e3f1fb"] ;
242 -> 243 ;
244 [label="transaction_adj_amt <= -0.2\ngini = 0.48\nsamples = 22\nvalue = [16, 25]", fillcolor="#b8dcf6"] ;
243 -> 244 ;
245 [label="d_last_logon <= 0.37\ngini = 0.17\nsamples = 13\nvalue = [2, 20]", fillcolor="#4da7e8"] ;
244 -> 245 ;
246 [label="gini = 0.0\nsamples = 6\nvalue = [0, 13]", fillcolor="#399de5"] ;
245 -> 246 ;
247 [label="gini = 0.35\nsamples = 7\nvalue = [2, 7]", fillcolor="#72b9ec"] ;
245 -> 247 ;
248 [label="gini = 0.39\nsamples = 9\nvalue = [14, 5]", fillcolor="#eeae80"] ;
244 -> 248 ;
249 [label="transaction_amt <= -1.05\ngini = 0.4\nsamples = 6\nvalue = [8, 3]", fillcolor="#efb083"] ;
243 -> 249 ;
250 [label="gini = 0.5\nsamples = 2\nvalue = [2, 2]", fillcolor="#ffffff"] ;
249 -> 250 ;
251 [label="d_last_logon <= 1.08\ngini = 0.24\nsamples = 4\nvalue = [6, 1]", fillcolor="#e9965a"] ;
249 -> 251 ;
252 [label="gini = 0.5\nsamples = 2\nvalue = [1, 1]", fillcolor="#ffffff"] ;
251 -> 252 ;
253 [label="gini = 0.0\nsamples = 2\nvalue = [5, 0]", fillcolor="#e58139"] ;
251 -> 253 ;
254 [label="os_Macintosh <= 0.5\ngini = 0.41\nsamples = 7\nvalue = [10, 4]", fillcolor="#efb388"] ;
242 -> 254 ;
255 [label="transaction_env_D <= 0.5\ngini = 0.46\nsamples = 5\nvalue = [7, 4]", fillcolor="#f4c9aa"] ;
254 -> 255 ;
256 [label="gini = 0.28\nsamples = 3\nvalue = [5, 1]", fillcolor="#ea9a61"] ;
255 -> 256 ;
257 [label="gini = 0.48\nsamples = 2\nvalue = [2, 3]", fillcolor="#bddef6"] ;
255 -> 257 ;
258 [label="gini = 0.0\nsamples = 2\nvalue = [3, 0]", fillcolor="#e58139"] ;
254 -> 258 ;
259 [label="transaction_type_W <= 0.5\ngini = 0.5\nsamples = 46\nvalue = [35, 42]", fillcolor="#deeffb"] ;
217 -> 259 ;
260 [label="transaction_amt <= -0.96\ngini = 0.48\nsamples = 40\nvalue = [28, 41]", fillcolor="#c0e0f7"] ;
259 -> 260 ;
261 [label="historic_velocity <= -0.21\ngini = 0.24\nsamples = 5\nvalue = [6, 1]", fillcolor="#e9965a"] ;
260 -> 261 ;
262 [label="gini = 0.0\nsamples = 3\nvalue = [4, 0]", fillcolor="#e58139"] ;
261 -> 262 ;
263 [label="gini = 0.44\nsamples = 2\nvalue = [2, 1]", fillcolor="#f2c09c"] ;
261 -> 263 ;
264 [label="transaction_type_D <= 0.5\ngini = 0.46\nsamples = 35\nvalue = [22, 40]", fillcolor="#a6d3f3"] ;
260 -> 264 ;
265 [label="gini = 0.48\nsamples = 31\nvalue = [22, 33]", fillcolor="#bddef6"] ;
264 -> 265 ;
266 [label="gini = 0.0\nsamples = 4\nvalue = [0, 7]", fillcolor="#399de5"] ;
264 -> 266 ;
267 [label="transaction_env_W <= 0.5\ngini = 0.22\nsamples = 6\nvalue = [7, 1]", fillcolor="#e99355"] ;
259 -> 267 ;
268 [label="transaction_adj_amt <= 0.54\ngini = 0.28\nsamples = 4\nvalue = [5, 1]", fillcolor="#ea9a61"] ;
267 -> 268 ;
269 [label="gini = 0.44\nsamples = 2\nvalue = [2, 1]", fillcolor="#f2c09c"] ;
268 -> 269 ;
270 [label="gini = 0.0\nsamples = 2\nvalue = [3, 0]", fillcolor="#e58139"] ;
268 -> 270 ;
271 [label="gini = 0.0\nsamples = 2\nvalue = [2, 0]", fillcolor="#e58139"] ;
267 -> 271 ;
272 [label="gini = 0.0\nsamples = 4\nvalue = [0, 7]", fillcolor="#399de5"] ;
186 -> 272 ;
273 [label="transaction_adj_amt <= 0.23\ngini = 0.38\nsamples = 41\nvalue = [17, 49]", fillcolor="#7ebfee"] ;
185 -> 273 ;
274 [label="os_Windows <= 0.5\ngini = 0.08\nsamples = 31\nvalue = [2, 48]", fillcolor="#41a1e6"] ;
273 -> 274 ;
275 [label="gini = 0.09\nsamples = 23\nvalue = [2, 39]", fillcolor="#43a2e6"] ;
274 -> 275 ;
276 [label="gini = 0.0\nsamples = 8\nvalue = [0, 9]", fillcolor="#399de5"] ;
274 -> 276 ;
277 [label="gini = 0.12\nsamples = 10\nvalue = [15, 1]", fillcolor="#e78946"] ;
273 -> 277 ;
278 [label="cvv_O <= 0.5\ngini = 0.36\nsamples = 302\nvalue = [111, 361]", fillcolor="#76bbed"] ;
4 -> 278 ;
279 [label="cvv_Z <= 0.5\ngini = 0.35\nsamples = 299\nvalue = [106, 361]", fillcolor="#73baed"] ;
278 -> 279 ;
280 [label="historic_velocity <= -1.68\ngini = 0.31\nsamples = 280\nvalue = [85, 351]", fillcolor="#69b5eb"] ;
279 -> 280 ;
281 [label="transaction_type_H <= 0.5\ngini = 0.5\nsamples = 25\nvalue = [18, 20]", fillcolor="#ebf5fc"] ;
280 -> 281 ;
282 [label="tranaction_initiate_E <= 0.5\ngini = 0.48\nsamples = 20\nvalue = [13, 19]", fillcolor="#c0e0f7"] ;
281 -> 282 ;
283 [label="month_Jan <= 0.5\ngini = 0.46\nsamples = 18\nvalue = [11, 19]", fillcolor="#acd6f4"] ;
282 -> 283 ;
284 [label="month_Jul <= 0.5\ngini = 0.49\nsamples = 15\nvalue = [11, 14]", fillcolor="#d5eaf9"] ;
283 -> 284 ;
285 [label="transaction_type_F <= 0.5\ngini = 0.45\nsamples = 11\nvalue = [7, 13]", fillcolor="#a4d2f3"] ;
284 -> 285 ;
286 [label="transaction_adj_amt <= -0.85\ngini = 0.44\nsamples = 9\nvalue = [6, 12]", fillcolor="#9ccef2"] ;
285 -> 286 ;
287 [label="gini = 0.0\nsamples = 4\nvalue = [0, 11]", fillcolor="#399de5"] ;
286 -> 287 ;
288 [label="inital_amount <= 0.1\ngini = 0.24\nsamples = 5\nvalue = [6, 1]", fillcolor="#e9965a"] ;
286 -> 288 ;
289 [label="gini = 0.0\nsamples = 3\nvalue = [5, 0]", fillcolor="#e58139"] ;
288 -> 289 ;
290 [label="gini = 0.5\nsamples = 2\nvalue = [1, 1]", fillcolor="#ffffff"] ;
288 -> 290 ;
291 [label="gini = 0.5\nsamples = 2\nvalue = [1, 1]", fillcolor="#ffffff"] ;
285 -> 291 ;
292 [label="tranaction_initiate_Q <= 0.5\ngini = 0.32\nsamples = 4\nvalue = [4, 1]", fillcolor="#eca06a"] ;
284 -> 292 ;
293 [label="gini = 0.5\nsamples = 2\nvalue = [1, 1]", fillcolor="#ffffff"] ;
292 -> 293 ;
294 [label="gini = 0.0\nsamples = 2\nvalue = [3, 0]", fillcolor="#e58139"] ;
292 -> 294 ;
295 [label="gini = 0.0\nsamples = 3\nvalue = [0, 5]", fillcolor="#399de5"] ;
283 -> 295 ;
296 [label="gini = 0.0\nsamples = 2\nvalue = [2, 0]", fillcolor="#e58139"] ;
282 -> 296 ;
297 [label="os_Macintosh <= 0.5\ngini = 0.28\nsamples = 5\nvalue = [5, 1]", fillcolor="#ea9a61"] ;
281 -> 297 ;
298 [label="gini = 0.0\nsamples = 3\nvalue = [3, 0]", fillcolor="#e58139"] ;
297 -> 298 ;
299 [label="gini = 0.44\nsamples = 2\nvalue = [2, 1]", fillcolor="#f2c09c"] ;
297 -> 299 ;
300 [label="cvv_G <= 0.5\ngini = 0.28\nsamples = 255\nvalue = [67, 331]", fillcolor="#61b1ea"] ;
280 -> 300 ;
301 [label="transaction_type_X <= 0.5\ngini = 0.26\nsamples = 226\nvalue = [54, 298]", fillcolor="#5dafea"] ;
300 -> 301 ;
302 [label="acc_age <= -0.87\ngini = 0.24\nsamples = 215\nvalue = [47, 289]", fillcolor="#59ade9"] ;
301 -> 302 ;
303 [label="day_Sun <= 0.5\ngini = 0.44\nsamples = 18\nvalue = [20, 10]", fillcolor="#f2c09c"] ;
302 -> 303 ;
304 [label="browser_Opera <= 0.5\ngini = 0.35\nsamples = 14\nvalue = [17, 5]", fillcolor="#eda673"] ;
303 -> 304 ;
305 [label="transaction_amt <= -0.07\ngini = 0.43\nsamples = 11\nvalue = [11, 5]", fillcolor="#f1ba93"] ;
304 -> 305 ;
306 [label="gini = 0.0\nsamples = 8\nvalue = [11, 0]", fillcolor="#e58139"] ;
305 -> 306 ;
307 [label="gini = 0.0\nsamples = 3\nvalue = [0, 5]", fillcolor="#399de5"] ;
305 -> 307 ;
308 [label="gini = 0.0\nsamples = 3\nvalue = [6, 0]", fillcolor="#e58139"] ;
304 -> 308 ;
309 [label="inital_amount <= -0.1\ngini = 0.47\nsamples = 4\nvalue = [3, 5]", fillcolor="#b0d8f5"] ;
303 -> 309 ;
310 [label="gini = 0.0\nsamples = 2\nvalue = [0, 5]", fillcolor="#399de5"] ;
309 -> 310 ;
311 [label="gini = 0.0\nsamples = 2\nvalue = [3, 0]", fillcolor="#e58139"] ;
309 -> 311 ;
312 [label="transaction_amt <= -1.44\ngini = 0.16\nsamples = 197\nvalue = [27, 279]", fillcolor="#4ca6e8"] ;
302 -> 312 ;
313 [label="gini = 0.48\nsamples = 3\nvalue = [3, 2]", fillcolor="#f6d5bd"] ;
312 -> 313 ;
314 [label="day_Sun <= 0.5\ngini = 0.15\nsamples = 194\nvalue = [24, 277]", fillcolor="#4aa5e7"] ;
312 -> 314 ;
315 [label="cvv_S <= 0.5\ngini = 0.13\nsamples = 171\nvalue = [18, 248]", fillcolor="#47a4e7"] ;
314 -> 315 ;
316 [label="cvv_F <= 0.5\ngini = 0.14\nsamples = 153\nvalue = [18, 215]", fillcolor="#4aa5e7"] ;
315 -> 316 ;
317 [label="gini = 0.17\nsamples = 127\nvalue = [18, 178]", fillcolor="#4da7e8"] ;
316 -> 317 ;
318 [label="gini = 0.0\nsamples = 26\nvalue = [0, 37]", fillcolor="#399de5"] ;
316 -> 318 ;
319 [label="gini = 0.0\nsamples = 18\nvalue = [0, 33]", fillcolor="#399de5"] ;
315 -> 319 ;
320 [label="d_last_logon <= -0.33\ngini = 0.28\nsamples = 23\nvalue = [6, 29]", fillcolor="#62b1ea"] ;
314 -> 320 ;
321 [label="inital_amount <= -0.27\ngini = 0.39\nsamples = 12\nvalue = [5, 14]", fillcolor="#80c0ee"] ;
320 -> 321 ;
322 [label="gini = 0.22\nsamples = 5\nvalue = [1, 7]", fillcolor="#55abe9"] ;
321 -> 322 ;
323 [label="gini = 0.46\nsamples = 7\nvalue = [4, 7]", fillcolor="#aad5f4"] ;
321 -> 323 ;
324 [label="transaction_amt <= -0.33\ngini = 0.12\nsamples = 11\nvalue = [1, 15]", fillcolor="#46a4e7"] ;
320 -> 324 ;
325 [label="gini = 0.32\nsamples = 3\nvalue = [1, 4]", fillcolor="#6ab6ec"] ;
324 -> 325 ;
326 [label="gini = 0.0\nsamples = 8\nvalue = [0, 11]", fillcolor="#399de5"] ;
324 -> 326 ;
327 [label="acc_age <= 0.95\ngini = 0.49\nsamples = 11\nvalue = [7, 9]", fillcolor="#d3e9f9"] ;
301 -> 327 ;
328 [label="acc_age <= 0.04\ngini = 0.5\nsamples = 9\nvalue = [7, 6]", fillcolor="#fbede3"] ;
327 -> 328 ;
329 [label="gini = 0.44\nsamples = 3\nvalue = [4, 2]", fillcolor="#f2c09c"] ;
328 -> 329 ;
330 [label="transaction_adj_amt <= 0.08\ngini = 0.49\nsamples = 6\nvalue = [3, 4]", fillcolor="#cee6f8"] ;
328 -> 330 ;
331 [label="gini = 0.32\nsamples = 4\nvalue = [1, 4]", fillcolor="#6ab6ec"] ;
330 -> 331 ;
332 [label="gini = 0.0\nsamples = 2\nvalue = [2, 0]", fillcolor="#e58139"] ;
330 -> 332 ;
333 [label="gini = 0.0\nsamples = 2\nvalue = [0, 3]", fillcolor="#399de5"] ;
327 -> 333 ;
334 [label="month_Jan <= 0.5\ngini = 0.41\nsamples = 29\nvalue = [13, 33]", fillcolor="#87c4ef"] ;
300 -> 334 ;
335 [label="month_Sep <= 0.5\ngini = 0.36\nsamples = 27\nvalue = [10, 32]", fillcolor="#77bced"] ;
334 -> 335 ;
336 [label="os_Windows <= 0.5\ngini = 0.4\nsamples = 24\nvalue = [10, 26]", fillcolor="#85c3ef"] ;
335 -> 336 ;
337 [label="signature_image_S <= 0.5\ngini = 0.29\nsamples = 14\nvalue = [4, 19]", fillcolor="#63b2ea"] ;
336 -> 337 ;
338 [label="tranaction_initiate_P <= 0.5\ngini = 0.19\nsamples = 11\nvalue = [2, 17]", fillcolor="#50a9e8"] ;
337 -> 338 ;
339 [label="gini = 0.23\nsamples = 9\nvalue = [2, 13]", fillcolor="#57ace9"] ;
338 -> 339 ;
340 [label="gini = 0.0\nsamples = 2\nvalue = [0, 4]", fillcolor="#399de5"] ;
338 -> 340 ;
341 [label="gini = 0.5\nsamples = 3\nvalue = [2, 2]", fillcolor="#ffffff"] ;
337 -> 341 ;
342 [label="month_Feb <= 0.5\ngini = 0.5\nsamples = 10\nvalue = [6, 7]", fillcolor="#e3f1fb"] ;
336 -> 342 ;
343 [label="d_last_logon <= 0.37\ngini = 0.44\nsamples = 8\nvalue = [6, 3]", fillcolor="#f2c09c"] ;
342 -> 343 ;
344 [label="transaction_amt <= -0.32\ngini = 0.32\nsamples = 4\nvalue = [4, 1]", fillcolor="#eca06a"] ;
343 -> 344 ;
345 [label="gini = 0.0\nsamples = 2\nvalue = [2, 0]", fillcolor="#e58139"] ;
344 -> 345 ;
346 [label="gini = 0.44\nsamples = 2\nvalue = [2, 1]", fillcolor="#f2c09c"] ;
344 -> 346 ;
347 [label="transaction_amt <= -0.39\ngini = 0.5\nsamples = 4\nvalue = [2, 2]", fillcolor="#ffffff"] ;
343 -> 347 ;
348 [label="gini = 0.0\nsamples = 2\nvalue = [2, 0]", fillcolor="#e58139"] ;
347 -> 348 ;
349 [label="gini = 0.0\nsamples = 2\nvalue = [0, 2]", fillcolor="#399de5"] ;
347 -> 349 ;
350 [label="gini = 0.0\nsamples = 2\nvalue = [0, 4]", fillcolor="#399de5"] ;
342 -> 350 ;
351 [label="gini = 0.0\nsamples = 3\nvalue = [0, 6]", fillcolor="#399de5"] ;
335 -> 351 ;
352 [label="gini = 0.38\nsamples = 2\nvalue = [3, 1]", fillcolor="#eeab7b"] ;
334 -> 352 ;
353 [label="acc_age <= 0.04\ngini = 0.44\nsamples = 19\nvalue = [21, 10]", fillcolor="#f1bd97"] ;
279 -> 353 ;
354 [label="gini = 0.14\nsamples = 8\nvalue = [12, 1]", fillcolor="#e78c49"] ;
353 -> 354 ;
355 [label="day_Wed <= 0.5\ngini = 0.5\nsamples = 11\nvalue = [9, 9]", fillcolor="#ffffff"] ;
353 -> 355 ;
356 [label="day_Mon <= 0.5\ngini = 0.5\nsamples = 9\nvalue = [7, 6]", fillcolor="#fbede3"] ;
355 -> 356 ;
357 [label="month_Aug <= 0.5\ngini = 0.5\nsamples = 7\nvalue = [6, 5]", fillcolor="#fbeade"] ;
356 -> 357 ;
358 [label="gini = 0.38\nsamples = 5\nvalue = [6, 2]", fillcolor="#eeab7b"] ;
357 -> 358 ;
359 [label="gini = 0.0\nsamples = 2\nvalue = [0, 3]", fillcolor="#399de5"] ;
357 -> 359 ;
360 [label="gini = 0.5\nsamples = 2\nvalue = [1, 1]", fillcolor="#ffffff"] ;
356 -> 360 ;
361 [label="gini = 0.48\nsamples = 2\nvalue = [2, 3]", fillcolor="#bddef6"] ;
355 -> 361 ;
362 [label="gini = 0.0\nsamples = 3\nvalue = [5, 0]", fillcolor="#e58139"] ;
278 -> 362 ;
363 [label="transaction_type_G <= 0.5\ngini = 0.23\nsamples = 134\nvalue = [191, 30]", fillcolor="#e99558"] ;
3 -> 363 ;
364 [label="cvv_U <= 0.5\ngini = 0.2\nsamples = 128\nvalue = [188, 24]", fillcolor="#e89152"] ;
363 -> 364 ;
365 [label="transaction_type_D <= 0.5\ngini = 0.19\nsamples = 124\nvalue = [182, 21]", fillcolor="#e89050"] ;
364 -> 365 ;
366 [label="cvv_F <= 0.5\ngini = 0.17\nsamples = 120\nvalue = [180, 19]", fillcolor="#e88e4e"] ;
365 -> 366 ;
367 [label="transaction_env_X <= 0.5\ngini = 0.13\nsamples = 116\nvalue = [179, 14]", fillcolor="#e78b48"] ;
366 -> 367 ;
368 [label="tranaction_initiate_T <= 0.5\ngini = 0.08\nsamples = 98\nvalue = [156, 7]", fillcolor="#e68742"] ;
367 -> 368 ;
369 [label="transaction_type_S <= 0.5\ngini = 0.06\nsamples = 93\nvalue = [152, 5]", fillcolor="#e68540"] ;
368 -> 369 ;
370 [label="day_Sat <= 0.5\ngini = 0.07\nsamples = 84\nvalue = [138, 5]", fillcolor="#e68640"] ;
369 -> 370 ;
371 [label="tranaction_initiate_J <= 0.5\ngini = 0.03\nsamples = 74\nvalue = [126, 2]", fillcolor="#e5833c"] ;
370 -> 371 ;
372 [label="currency_eur <= 0.5\ngini = 0.03\nsamples = 69\nvalue = [118, 2]", fillcolor="#e5833c"] ;
371 -> 372 ;
373 [label="gini = 0.0\nsamples = 63\nvalue = [109, 0]", fillcolor="#e58139"] ;
372 -> 373 ;
374 [label="transaction_amt <= -1.6\ngini = 0.3\nsamples = 6\nvalue = [9, 2]", fillcolor="#eb9d65"] ;
372 -> 374 ;
375 [label="gini = 0.0\nsamples = 3\nvalue = [6, 0]", fillcolor="#e58139"] ;
374 -> 375 ;
376 [label="gini = 0.48\nsamples = 3\nvalue = [3, 2]", fillcolor="#f6d5bd"] ;
374 -> 376 ;
377 [label="gini = 0.0\nsamples = 5\nvalue = [8, 0]", fillcolor="#e58139"] ;
371 -> 377 ;
378 [label="inital_amount <= 0.95\ngini = 0.32\nsamples = 10\nvalue = [12, 3]", fillcolor="#eca06a"] ;
370 -> 378 ;
379 [label="os_Macintosh <= 0.5\ngini = 0.15\nsamples = 8\nvalue = [11, 1]", fillcolor="#e78c4b"] ;
378 -> 379 ;
380 [label="transaction_adj_amt <= 0.62\ngini = 0.18\nsamples = 6\nvalue = [9, 1]", fillcolor="#e88f4f"] ;
379 -> 380 ;
381 [label="gini = 0.5\nsamples = 2\nvalue = [1, 1]", fillcolor="#ffffff"] ;
380 -> 381 ;
382 [label="gini = 0.0\nsamples = 4\nvalue = [8, 0]", fillcolor="#e58139"] ;
380 -> 382 ;
383 [label="gini = 0.0\nsamples = 2\nvalue = [2, 0]", fillcolor="#e58139"] ;
379 -> 383 ;
384 [label="gini = 0.44\nsamples = 2\nvalue = [1, 2]", fillcolor="#9ccef2"] ;
378 -> 384 ;
385 [label="gini = 0.0\nsamples = 9\nvalue = [14, 0]", fillcolor="#e58139"] ;
369 -> 385 ;
386 [label="transaction_amt <= -0.44\ngini = 0.44\nsamples = 5\nvalue = [4, 2]", fillcolor="#f2c09c"] ;
368 -> 386 ;
387 [label="gini = 0.0\nsamples = 3\nvalue = [4, 0]", fillcolor="#e58139"] ;
386 -> 387 ;
388 [label="gini = 0.0\nsamples = 2\nvalue = [0, 2]", fillcolor="#399de5"] ;
386 -> 388 ;
389 [label="day_Thu <= 0.5\ngini = 0.36\nsamples = 18\nvalue = [23, 7]", fillcolor="#eda775"] ;
367 -> 389 ;
390 [label="transaction_type_H <= 0.5\ngini = 0.4\nsamples = 16\nvalue = [18, 7]", fillcolor="#efb286"] ;
389 -> 390 ;
391 [label="historic_velocity <= 0.9\ngini = 0.38\nsamples = 14\nvalue = [15, 5]", fillcolor="#eeab7b"] ;
390 -> 391 ;
392 [label="day_Wed <= 0.5\ngini = 0.12\nsamples = 12\nvalue = [14, 1]", fillcolor="#e78a47"] ;
391 -> 392 ;
393 [label="month_Jul <= 0.5\ngini = 0.14\nsamples = 10\nvalue = [12, 1]", fillcolor="#e78c49"] ;
392 -> 393 ;
394 [label="gini = 0.17\nsamples = 8\nvalue = [10, 1]", fillcolor="#e88e4d"] ;
393 -> 394 ;
395 [label="gini = 0.0\nsamples = 2\nvalue = [2, 0]", fillcolor="#e58139"] ;
393 -> 395 ;
396 [label="gini = 0.0\nsamples = 2\nvalue = [2, 0]", fillcolor="#e58139"] ;
392 -> 396 ;
397 [label="gini = 0.32\nsamples = 2\nvalue = [1, 4]", fillcolor="#6ab6ec"] ;
391 -> 397 ;
398 [label="gini = 0.48\nsamples = 2\nvalue = [3, 2]", fillcolor="#f6d5bd"] ;
390 -> 398 ;
399 [label="gini = 0.0\nsamples = 2\nvalue = [5, 0]", fillcolor="#e58139"] ;
389 -> 399 ;
400 [label="transaction_amt <= 0.69\ngini = 0.28\nsamples = 4\nvalue = [1, 5]", fillcolor="#61b1ea"] ;
366 -> 400 ;
401 [label="gini = 0.5\nsamples = 2\nvalue = [1, 1]", fillcolor="#ffffff"] ;
400 -> 401 ;
402 [label="gini = 0.0\nsamples = 2\nvalue = [0, 4]", fillcolor="#399de5"] ;
400 -> 402 ;
403 [label="gini = 0.5\nsamples = 4\nvalue = [2, 2]", fillcolor="#ffffff"] ;
365 -> 403 ;
404 [label="gini = 0.44\nsamples = 4\nvalue = [6, 3]", fillcolor="#f2c09c"] ;
364 -> 404 ;
405 [label="day_Tue <= 0.5\ngini = 0.44\nsamples = 6\nvalue = [3, 6]", fillcolor="#9ccef2"] ;
363 -> 405 ;
406 [label="gini = 0.0\nsamples = 4\nvalue = [0, 5]", fillcolor="#399de5"] ;
405 -> 406 ;
407 [label="gini = 0.38\nsamples = 2\nvalue = [3, 1]", fillcolor="#eeab7b"] ;
405 -> 407 ;
408 [label="tranaction_initiate_W <= 0.5\ngini = 0.13\nsamples = 164\nvalue = [19, 254]", fillcolor="#48a4e7"] ;
2 -> 408 ;
409 [label="acc_age <= -0.87\ngini = 0.1\nsamples = 160\nvalue = [14, 251]", fillcolor="#44a2e6"] ;
408 -> 409 ;
410 [label="os_Linux <= 0.5\ngini = 0.47\nsamples = 13\nvalue = [9, 15]", fillcolor="#b0d8f5"] ;
409 -> 410 ;
411 [label="gini = 0.28\nsamples = 9\nvalue = [3, 15]", fillcolor="#61b1ea"] ;
410 -> 411 ;
412 [label="gini = 0.0\nsamples = 4\nvalue = [6, 0]", fillcolor="#e58139"] ;
410 -> 412 ;
413 [label="cvv_C <= 0.5\ngini = 0.04\nsamples = 147\nvalue = [5, 236]", fillcolor="#3d9fe6"] ;
409 -> 413 ;
414 [label="cvv_D <= 0.5\ngini = 0.03\nsamples = 142\nvalue = [4, 228]", fillcolor="#3c9fe5"] ;
413 -> 414 ;
415 [label="day_Wed <= 0.5\ngini = 0.01\nsamples = 136\nvalue = [1, 216]", fillcolor="#3a9de5"] ;
414 -> 415 ;
416 [label="gini = 0.0\nsamples = 108\nvalue = [0, 175]", fillcolor="#399de5"] ;
415 -> 416 ;
417 [label="transaction_adj_amt <= 0.31\ngini = 0.05\nsamples = 28\nvalue = [1, 41]", fillcolor="#3e9fe6"] ;
415 -> 417 ;
418 [label="gini = 0.0\nsamples = 22\nvalue = [0, 35]", fillcolor="#399de5"] ;
417 -> 418 ;
419 [label="os_Macintosh <= 0.5\ngini = 0.24\nsamples = 6\nvalue = [1, 6]", fillcolor="#5aade9"] ;
417 -> 419 ;
420 [label="historic_velocity <= 0.09\ngini = 0.32\nsamples = 4\nvalue = [1, 4]", fillcolor="#6ab6ec"] ;
419 -> 420 ;
421 [label="gini = 0.44\nsamples = 2\nvalue = [1, 2]", fillcolor="#9ccef2"] ;
420 -> 421 ;
422 [label="gini = 0.0\nsamples = 2\nvalue = [0, 2]", fillcolor="#399de5"] ;
420 -> 422 ;
423 [label="gini = 0.0\nsamples = 2\nvalue = [0, 2]", fillcolor="#399de5"] ;
419 -> 423 ;
424 [label="d_last_logon <= -1.04\ngini = 0.32\nsamples = 6\nvalue = [3, 12]", fillcolor="#6ab6ec"] ;
414 -> 424 ;
425 [label="gini = 0.38\nsamples = 2\nvalue = [3, 1]", fillcolor="#eeab7b"] ;
424 -> 425 ;
426 [label="gini = 0.0\nsamples = 4\nvalue = [0, 11]", fillcolor="#399de5"] ;
424 -> 426 ;
427 [label="os_Windows <= 0.5\ngini = 0.2\nsamples = 5\nvalue = [1, 8]", fillcolor="#52a9e8"] ;
413 -> 427 ;
428 [label="gini = 0.44\nsamples = 2\nvalue = [1, 2]", fillcolor="#9ccef2"] ;
427 -> 428 ;
429 [label="gini = 0.0\nsamples = 3\nvalue = [0, 6]", fillcolor="#399de5"] ;
427 -> 429 ;
430 [label="day_Tue <= 0.5\ngini = 0.47\nsamples = 4\nvalue = [5, 3]", fillcolor="#f5cdb0"] ;
408 -> 430 ;
431 [label="gini = 0.0\nsamples = 2\nvalue = [0, 3]", fillcolor="#399de5"] ;
430 -> 431 ;
432 [label="gini = 0.0\nsamples = 2\nvalue = [5, 0]", fillcolor="#e58139"] ;
430 -> 432 ;
433 [label="transaction_env_S <= 0.5\ngini = 0.25\nsamples = 328\nvalue = [77, 438]", fillcolor="#5caeea"] ;
1 -> 433 ;
434 [label="transaction_env_O <= 0.5\ngini = 0.28\nsamples = 292\nvalue = [77, 379]", fillcolor="#61b1ea"] ;
433 -> 434 ;
435 [label="transaction_env_C <= 0.5\ngini = 0.27\nsamples = 289\nvalue = [74, 379]", fillcolor="#60b0ea"] ;
434 -> 435 ;
436 [label="transaction_env_Z <= 0.5\ngini = 0.25\nsamples = 272\nvalue = [61, 365]", fillcolor="#5aade9"] ;
435 -> 436 ;
437 [label="month_Nov <= 0.5\ngini = 0.21\nsamples = 257\nvalue = [48, 351]", fillcolor="#54aae9"] ;
436 -> 437 ;
438 [label="inital_amount <= 1.69\ngini = 0.23\nsamples = 239\nvalue = [48, 322]", fillcolor="#57ace9"] ;
437 -> 438 ;
439 [label="transaction_type_V <= 0.5\ngini = 0.22\nsamples = 237\nvalue = [46, 321]", fillcolor="#55abe9"] ;
438 -> 439 ;
440 [label="transaction_adj_amt <= 0.11\ngini = 0.23\nsamples = 223\nvalue = [46, 298]", fillcolor="#58ace9"] ;
439 -> 440 ;
441 [label="transaction_amt <= -0.84\ngini = 0.11\nsamples = 175\nvalue = [16, 262]", fillcolor="#45a3e7"] ;
440 -> 441 ;
442 [label="d_last_logon <= 0.73\ngini = 0.48\nsamples = 6\nvalue = [6, 4]", fillcolor="#f6d5bd"] ;
441 -> 442 ;
443 [label="gini = 0.32\nsamples = 3\nvalue = [1, 4]", fillcolor="#6ab6ec"] ;
442 -> 443 ;
444 [label="gini = 0.0\nsamples = 3\nvalue = [5, 0]", fillcolor="#e58139"] ;
442 -> 444 ;
445 [label="transaction_type_U <= 0.5\ngini = 0.07\nsamples = 169\nvalue = [10, 258]", fillcolor="#41a1e6"] ;
441 -> 445 ;
446 [label="acc_age <= -0.87\ngini = 0.08\nsamples = 134\nvalue = [9, 202]", fillcolor="#42a1e6"] ;
445 -> 446 ;
447 [label="gini = 0.44\nsamples = 8\nvalue = [4, 8]", fillcolor="#9ccef2"] ;
446 -> 447 ;
448 [label="signature_image_S <= 0.5\ngini = 0.05\nsamples = 126\nvalue = [5, 194]", fillcolor="#3ea0e6"] ;
446 -> 448 ;
449 [label="transaction_adj_amt <= 0.04\ngini = 0.03\nsamples = 111\nvalue = [3, 176]", fillcolor="#3c9fe5"] ;
448 -> 449 ;
450 [label="gini = 0.02\nsamples = 108\nvalue = [2, 174]", fillcolor="#3b9ee5"] ;
449 -> 450 ;
451 [label="gini = 0.44\nsamples = 3\nvalue = [1, 2]", fillcolor="#9ccef2"] ;
449 -> 451 ;
452 [label="historic_velocity <= 0.91\ngini = 0.18\nsamples = 15\nvalue = [2, 18]", fillcolor="#4fa8e8"] ;
448 -> 452 ;
453 [label="gini = 0.0\nsamples = 13\nvalue = [0, 17]", fillcolor="#399de5"] ;
452 -> 453 ;
454 [label="gini = 0.44\nsamples = 2\nvalue = [2, 1]", fillcolor="#f2c09c"] ;
452 -> 454 ;
455 [label="transaction_env_D <= 0.5\ngini = 0.03\nsamples = 35\nvalue = [1, 56]", fillcolor="#3d9fe5"] ;
445 -> 455 ;
456 [label="gini = 0.0\nsamples = 32\nvalue = [0, 51]", fillcolor="#399de5"] ;
455 -> 456 ;
457 [label="gini = 0.28\nsamples = 3\nvalue = [1, 5]", fillcolor="#61b1ea"] ;
455 -> 457 ;
458 [label="transaction_type_H <= 0.5\ngini = 0.5\nsamples = 48\nvalue = [30, 36]", fillcolor="#deeffb"] ;
440 -> 458 ;
459 [label="tranaction_initiate_X <= 0.5\ngini = 0.5\nsamples = 42\nvalue = [30, 28]", fillcolor="#fdf7f2"] ;
458 -> 459 ;
460 [label="month_Oct <= 0.5\ngini = 0.5\nsamples = 39\nvalue = [26, 28]", fillcolor="#f1f8fd"] ;
459 -> 460 ;
461 [label="tranaction_initiate_B <= 0.5\ngini = 0.5\nsamples = 36\nvalue = [25, 25]", fillcolor="#ffffff"] ;
460 -> 461 ;
462 [label="os_Linux <= 0.5\ngini = 0.5\nsamples = 33\nvalue = [22, 25]", fillcolor="#e7f3fc"] ;
461 -> 462 ;
463 [label="gini = 0.42\nsamples = 25\nvalue = [10, 24]", fillcolor="#8bc6f0"] ;
462 -> 463 ;
464 [label="gini = 0.14\nsamples = 8\nvalue = [12, 1]", fillcolor="#e78c49"] ;
462 -> 464 ;
465 [label="gini = 0.0\nsamples = 3\nvalue = [3, 0]", fillcolor="#e58139"] ;
461 -> 465 ;
466 [label="gini = 0.38\nsamples = 3\nvalue = [1, 3]", fillcolor="#7bbeee"] ;
460 -> 466 ;
467 [label="gini = 0.0\nsamples = 3\nvalue = [4, 0]", fillcolor="#e58139"] ;
459 -> 467 ;
468 [label="gini = 0.0\nsamples = 6\nvalue = [0, 8]", fillcolor="#399de5"] ;
458 -> 468 ;
469 [label="gini = 0.0\nsamples = 14\nvalue = [0, 23]", fillcolor="#399de5"] ;
439 -> 469 ;
470 [label="gini = 0.44\nsamples = 2\nvalue = [2, 1]", fillcolor="#f2c09c"] ;
438 -> 470 ;
471 [label="gini = 0.0\nsamples = 18\nvalue = [0, 29]", fillcolor="#399de5"] ;
437 -> 471 ;
472 [label="month_Jun <= 0.5\ngini = 0.5\nsamples = 15\nvalue = [13, 14]", fillcolor="#f1f8fd"] ;
436 -> 472 ;
473 [label="transaction_amt <= -0.05\ngini = 0.49\nsamples = 13\nvalue = [10, 14]", fillcolor="#c6e3f8"] ;
472 -> 473 ;
474 [label="os_Linux <= 0.5\ngini = 0.28\nsamples = 6\nvalue = [10, 2]", fillcolor="#ea9a61"] ;
473 -> 474 ;
475 [label="gini = 0.0\nsamples = 4\nvalue = [9, 0]", fillcolor="#e58139"] ;
474 -> 475 ;
476 [label="gini = 0.44\nsamples = 2\nvalue = [1, 2]", fillcolor="#9ccef2"] ;
474 -> 476 ;
477 [label="gini = 0.0\nsamples = 7\nvalue = [0, 12]", fillcolor="#399de5"] ;
473 -> 477 ;
478 [label="gini = 0.0\nsamples = 2\nvalue = [3, 0]", fillcolor="#e58139"] ;
472 -> 478 ;
479 [label="signature_image_G <= 0.5\ngini = 0.5\nsamples = 17\nvalue = [13, 14]", fillcolor="#f1f8fd"] ;
435 -> 479 ;
480 [label="historic_velocity <= 0.09\ngini = 0.5\nsamples = 14\nvalue = [12, 10]", fillcolor="#fbeade"] ;
479 -> 480 ;
481 [label="gini = 0.0\nsamples = 5\nvalue = [11, 0]", fillcolor="#e58139"] ;
480 -> 481 ;
482 [label="signature_image_N <= 0.5\ngini = 0.17\nsamples = 9\nvalue = [1, 10]", fillcolor="#4da7e8"] ;
480 -> 482 ;
483 [label="historic_velocity <= 1.12\ngini = 0.2\nsamples = 7\nvalue = [1, 8]", fillcolor="#52a9e8"] ;
482 -> 483 ;
484 [label="gini = 0.0\nsamples = 4\nvalue = [0, 4]", fillcolor="#399de5"] ;
483 -> 484 ;
485 [label="gini = 0.32\nsamples = 3\nvalue = [1, 4]", fillcolor="#6ab6ec"] ;
483 -> 485 ;
486 [label="gini = 0.0\nsamples = 2\nvalue = [0, 2]", fillcolor="#399de5"] ;
482 -> 486 ;
487 [label="gini = 0.32\nsamples = 3\nvalue = [1, 4]", fillcolor="#6ab6ec"] ;
479 -> 487 ;
488 [label="gini = 0.0\nsamples = 3\nvalue = [3, 0]", fillcolor="#e58139"] ;
434 -> 488 ;
489 [label="gini = 0.0\nsamples = 36\nvalue = [0, 59]", fillcolor="#399de5"] ;
433 -> 489 ;
490 [label="tranaction_initiate_D <= 0.5\ngini = 0.26\nsamples = 301\nvalue = [406, 72]", fillcolor="#ea975c"] ;
0 -> 490 [labeldistance=2.5, labelangle=-45, headlabel="False"] ;
491 [label="transaction_env_Q <= 0.5\ngini = 0.27\nsamples = 289\nvalue = [384, 72]", fillcolor="#ea995e"] ;
490 -> 491 ;
492 [label="cvv_G <= 0.5\ngini = 0.26\nsamples = 287\nvalue = [384, 70]", fillcolor="#ea985d"] ;
491 -> 492 ;
493 [label="cvv_R <= 0.5\ngini = 0.28\nsamples = 259\nvalue = [345, 69]", fillcolor="#ea9a61"] ;
492 -> 493 ;
494 [label="cvv_S <= 0.5\ngini = 0.29\nsamples = 245\nvalue = [325, 69]", fillcolor="#eb9c63"] ;
493 -> 494 ;
495 [label="cvv_W <= 0.5\ngini = 0.28\nsamples = 240\nvalue = [324, 64]", fillcolor="#ea9a60"] ;
494 -> 495 ;
496 [label="tranaction_initiate_G <= 0.5\ngini = 0.29\nsamples = 194\nvalue = [256, 54]", fillcolor="#ea9c63"] ;
495 -> 496 ;
497 [label="transaction_env_V <= 0.5\ngini = 0.27\nsamples = 183\nvalue = [245, 47]", fillcolor="#ea995f"] ;
496 -> 497 ;
498 [label="os_Macintosh <= 0.5\ngini = 0.25\nsamples = 181\nvalue = [245, 43]", fillcolor="#ea975c"] ;
497 -> 498 ;
499 [label="inital_amount <= 1.12\ngini = 0.29\nsamples = 145\nvalue = [191, 40]", fillcolor="#ea9b62"] ;
498 -> 499 ;
500 [label="signature_image_U <= 0.5\ngini = 0.33\nsamples = 115\nvalue = [144, 38]", fillcolor="#eca26d"] ;
499 -> 500 ;
501 [label="signature_image_S <= 0.5\ngini = 0.3\nsamples = 105\nvalue = [133, 30]", fillcolor="#eb9d66"] ;
500 -> 501 ;
502 [label="transaction_adj_amt <= -0.27\ngini = 0.27\nsamples = 87\nvalue = [116, 22]", fillcolor="#ea995f"] ;
501 -> 502 ;
503 [label="day_Sat <= 0.5\ngini = 0.49\nsamples = 17\nvalue = [10, 13]", fillcolor="#d1e8f9"] ;
502 -> 503 ;
504 [label="gini = 0.44\nsamples = 14\nvalue = [6, 12]", fillcolor="#9ccef2"] ;
503 -> 504 ;
505 [label="gini = 0.32\nsamples = 3\nvalue = [4, 1]", fillcolor="#eca06a"] ;
503 -> 505 ;
506 [label="day_Mon <= 0.5\ngini = 0.14\nsamples = 70\nvalue = [106, 9]", fillcolor="#e78c4a"] ;
502 -> 506 ;
507 [label="gini = 0.16\nsamples = 64\nvalue = [93, 9]", fillcolor="#e88d4c"] ;
506 -> 507 ;
508 [label="gini = 0.0\nsamples = 6\nvalue = [13, 0]", fillcolor="#e58139"] ;
506 -> 508 ;
509 [label="gini = 0.44\nsamples = 18\nvalue = [17, 8]", fillcolor="#f1bc96"] ;
501 -> 509 ;
510 [label="transaction_env_I <= 0.5\ngini = 0.49\nsamples = 10\nvalue = [11, 8]", fillcolor="#f8ddc9"] ;
500 -> 510 ;
511 [label="gini = 0.5\nsamples = 6\nvalue = [6, 5]", fillcolor="#fbeade"] ;
510 -> 511 ;
512 [label="gini = 0.47\nsamples = 4\nvalue = [5, 3]", fillcolor="#f5cdb0"] ;
510 -> 512 ;
513 [label="historic_velocity <= -1.26\ngini = 0.08\nsamples = 30\nvalue = [47, 2]", fillcolor="#e68641"] ;
499 -> 513 ;
514 [label="gini = 0.44\nsamples = 3\nvalue = [2, 1]", fillcolor="#f2c09c"] ;
513 -> 514 ;
515 [label="currency_cad <= 0.5\ngini = 0.04\nsamples = 27\nvalue = [45, 1]", fillcolor="#e6843d"] ;
513 -> 515 ;
516 [label="signature_image_V <= 0.5\ngini = 0.09\nsamples = 12\nvalue = [20, 1]", fillcolor="#e68743"] ;
515 -> 516 ;
517 [label="gini = 0.0\nsamples = 10\nvalue = [18, 0]", fillcolor="#e58139"] ;
516 -> 517 ;
518 [label="gini = 0.44\nsamples = 2\nvalue = [2, 1]", fillcolor="#f2c09c"] ;
516 -> 518 ;
519 [label="gini = 0.0\nsamples = 15\nvalue = [25, 0]", fillcolor="#e58139"] ;
515 -> 519 ;
520 [label="transaction_env_H <= 0.5\ngini = 0.1\nsamples = 36\nvalue = [54, 3]", fillcolor="#e68844"] ;
498 -> 520 ;
521 [label="tranaction_initiate_L <= 0.5\ngini = 0.07\nsamples = 34\nvalue = [51, 2]", fillcolor="#e68641"] ;
520 -> 521 ;
522 [label="inital_amount <= 1.37\ngini = 0.04\nsamples = 32\nvalue = [49, 1]", fillcolor="#e6843d"] ;
521 -> 522 ;
523 [label="gini = 0.0\nsamples = 30\nvalue = [46, 0]", fillcolor="#e58139"] ;
522 -> 523 ;
524 [label="gini = 0.38\nsamples = 2\nvalue = [3, 1]", fillcolor="#eeab7b"] ;
522 -> 524 ;
525 [label="gini = 0.44\nsamples = 2\nvalue = [2, 1]", fillcolor="#f2c09c"] ;
521 -> 525 ;
526 [label="gini = 0.38\nsamples = 2\nvalue = [3, 1]", fillcolor="#eeab7b"] ;
520 -> 526 ;
527 [label="gini = 0.0\nsamples = 2\nvalue = [0, 4]", fillcolor="#399de5"] ;
497 -> 527 ;
528 [label="gini = 0.48\nsamples = 11\nvalue = [11, 7]", fillcolor="#f6d1b7"] ;
496 -> 528 ;
529 [label="inital_amount <= -0.19\ngini = 0.22\nsamples = 46\nvalue = [68, 10]", fillcolor="#e99456"] ;
495 -> 529 ;
530 [label="tranaction_initiate_C <= 0.5\ngini = 0.09\nsamples = 24\nvalue = [39, 2]", fillcolor="#e68743"] ;
529 -> 530 ;
531 [label="day_Mon <= 0.5\ngini = 0.05\nsamples = 22\nvalue = [38, 1]", fillcolor="#e6843e"] ;
530 -> 531 ;
532 [label="gini = 0.0\nsamples = 20\nvalue = [37, 0]", fillcolor="#e58139"] ;
531 -> 532 ;
533 [label="gini = 0.5\nsamples = 2\nvalue = [1, 1]", fillcolor="#ffffff"] ;
531 -> 533 ;
534 [label="gini = 0.5\nsamples = 2\nvalue = [1, 1]", fillcolor="#ffffff"] ;
530 -> 534 ;
535 [label="inital_amount <= -0.11\ngini = 0.34\nsamples = 22\nvalue = [29, 8]", fillcolor="#eca470"] ;
529 -> 535 ;
536 [label="gini = 0.0\nsamples = 3\nvalue = [0, 4]", fillcolor="#399de5"] ;
535 -> 536 ;
537 [label="day_Thu <= 0.5\ngini = 0.21\nsamples = 19\nvalue = [29, 4]", fillcolor="#e99254"] ;
535 -> 537 ;
538 [label="month_Mar <= 0.5\ngini = 0.14\nsamples = 15\nvalue = [25, 2]", fillcolor="#e78b49"] ;
537 -> 538 ;
539 [label="gini = 0.0\nsamples = 13\nvalue = [23, 0]", fillcolor="#e58139"] ;
538 -> 539 ;
540 [label="gini = 0.5\nsamples = 2\nvalue = [2, 2]", fillcolor="#ffffff"] ;
538 -> 540 ;
541 [label="gini = 0.44\nsamples = 4\nvalue = [4, 2]", fillcolor="#f2c09c"] ;
537 -> 541 ;
542 [label="acc_age <= 0.04\ngini = 0.28\nsamples = 5\nvalue = [1, 5]", fillcolor="#61b1ea"] ;
494 -> 542 ;
543 [label="gini = 0.44\nsamples = 3\nvalue = [1, 2]", fillcolor="#9ccef2"] ;
542 -> 543 ;
544 [label="gini = 0.0\nsamples = 2\nvalue = [0, 3]", fillcolor="#399de5"] ;
542 -> 544 ;
545 [label="gini = 0.0\nsamples = 14\nvalue = [20, 0]", fillcolor="#e58139"] ;
493 -> 545 ;
546 [label="signature_image_V <= 0.5\ngini = 0.05\nsamples = 28\nvalue = [39, 1]", fillcolor="#e6843e"] ;
492 -> 546 ;
547 [label="acc_age <= 0.04\ngini = 0.06\nsamples = 24\nvalue = [33, 1]", fillcolor="#e6853f"] ;
546 -> 547 ;
548 [label="gini = 0.0\nsamples = 14\nvalue = [24, 0]", fillcolor="#e58139"] ;
547 -> 548 ;
549 [label="currency_usd <= 0.5\ngini = 0.18\nsamples = 10\nvalue = [9, 1]", fillcolor="#e88f4f"] ;
547 -> 549 ;
550 [label="inital_amount <= 0.22\ngini = 0.28\nsamples = 6\nvalue = [5, 1]", fillcolor="#ea9a61"] ;
549 -> 550 ;
551 [label="gini = 0.44\nsamples = 3\nvalue = [2, 1]", fillcolor="#f2c09c"] ;
550 -> 551 ;
552 [label="gini = 0.0\nsamples = 3\nvalue = [3, 0]", fillcolor="#e58139"] ;
550 -> 552 ;
553 [label="gini = 0.0\nsamples = 4\nvalue = [4, 0]", fillcolor="#e58139"] ;
549 -> 553 ;
554 [label="gini = 0.0\nsamples = 4\nvalue = [6, 0]", fillcolor="#e58139"] ;
546 -> 554 ;
555 [label="gini = 0.0\nsamples = 2\nvalue = [0, 2]", fillcolor="#399de5"] ;
491 -> 555 ;
556 [label="gini = 0.0\nsamples = 12\nvalue = [22, 0]", fillcolor="#e58139"] ;
490 -> 556 ;
}