digraph Tree {
node [shape=box, style="filled, rounded", color="black", fontname="helvetica"] ;
edge [fontname="helvetica"] ;
0 [label="historic_velocity <= -2.07\ngini = 0.5\nsamples = 7141\nvalue = [5650, 5692]", fillcolor="#fefeff"] ;
1 [label="transaction_adj_amt <= -0.66\ngini = 0.44\nsamples = 112\nvalue = [118, 58]", fillcolor="#f2bf9a"] ;
0 -> 1 [labeldistance=2.5, labelangle=45, headlabel="True"] ;
2 [label="gini = 0.09\nsamples = 29\nvalue = [2, 40]", fillcolor="#43a2e6"] ;
1 -> 2 ;
3 [label="historic_velocity <= -2.32\ngini = 0.23\nsamples = 83\nvalue = [116, 18]", fillcolor="#e99558"] ;
1 -> 3 ;
4 [label="historic_velocity <= -2.41\ngini = 0.08\nsamples = 44\nvalue = [68, 3]", fillcolor="#e68742"] ;
3 -> 4 ;
5 [label="gini = 0.14\nsamples = 29\nvalue = [37, 3]", fillcolor="#e78b49"] ;
4 -> 5 ;
6 [label="gini = 0.0\nsamples = 15\nvalue = [31, 0]", fillcolor="#e58139"] ;
4 -> 6 ;
7 [label="transaction_amt <= -0.06\ngini = 0.36\nsamples = 39\nvalue = [48, 15]", fillcolor="#eda877"] ;
3 -> 7 ;
8 [label="gini = 0.14\nsamples = 24\nvalue = [38, 3]", fillcolor="#e78b49"] ;
7 -> 8 ;
9 [label="gini = 0.5\nsamples = 15\nvalue = [10, 12]", fillcolor="#deeffb"] ;
7 -> 9 ;
10 [label="transaction_adj_amt <= -0.12\ngini = 0.5\nsamples = 7029\nvalue = [5532, 5634]", fillcolor="#fbfdff"] ;
0 -> 10 [labeldistance=2.5, labelangle=-45, headlabel="False"] ;
11 [label="transaction_amt <= -0.57\ngini = 0.27\nsamples = 3153\nvalue = [825, 4207]", fillcolor="#60b0ea"] ;
10 -> 11 ;
12 [label="transaction_adj_amt <= -0.66\ngini = 0.45\nsamples = 492\nvalue = [264, 500]", fillcolor="#a2d1f3"] ;
11 -> 12 ;
13 [label="acc_age <= -1.75\ngini = 0.19\nsamples = 291\nvalue = [48, 402]", fillcolor="#51a9e8"] ;
12 -> 13 ;
14 [label="gini = 0.31\nsamples = 19\nvalue = [21, 5]", fillcolor="#eb9f68"] ;
13 -> 14 ;
15 [label="transaction_adj_amt <= -0.97\ngini = 0.12\nsamples = 272\nvalue = [27, 397]", fillcolor="#46a4e7"] ;
13 -> 15 ;
16 [label="inital_amount <= 0.28\ngini = 0.05\nsamples = 201\nvalue = [8, 309]", fillcolor="#3ea0e6"] ;
15 -> 16 ;
17 [label="transaction_adj_amt <= -1.6\ngini = 0.08\nsamples = 118\nvalue = [7, 170]", fillcolor="#41a1e6"] ;
16 -> 17 ;
18 [label="acc_age <= 0.05\ngini = 0.03\nsamples = 49\nvalue = [1, 73]", fillcolor="#3c9ee5"] ;
17 -> 18 ;
19 [label="gini = 0.0\nsamples = 29\nvalue = [0, 50]", fillcolor="#399de5"] ;
18 -> 19 ;
20 [label="gini = 0.08\nsamples = 20\nvalue = [1, 23]", fillcolor="#42a1e6"] ;
18 -> 20 ;
21 [label="acc_age <= 0.05\ngini = 0.11\nsamples = 69\nvalue = [6, 97]", fillcolor="#45a3e7"] ;
17 -> 21 ;
22 [label="transaction_amt <= -0.95\ngini = 0.19\nsamples = 37\nvalue = [5, 43]", fillcolor="#50a8e8"] ;
21 -> 22 ;
23 [label="gini = 0.08\nsamples = 18\nvalue = [1, 22]", fillcolor="#42a1e6"] ;
22 -> 23 ;
24 [label="gini = 0.27\nsamples = 19\nvalue = [4, 21]", fillcolor="#5fb0ea"] ;
22 -> 24 ;
25 [label="inital_amount <= -0.96\ngini = 0.04\nsamples = 32\nvalue = [1, 54]", fillcolor="#3d9fe5"] ;
21 -> 25 ;
26 [label="gini = 0.0\nsamples = 17\nvalue = [0, 34]", fillcolor="#399de5"] ;
25 -> 26 ;
27 [label="gini = 0.09\nsamples = 15\nvalue = [1, 20]", fillcolor="#43a2e6"] ;
25 -> 27 ;
28 [label="historic_velocity <= -0.63\ngini = 0.01\nsamples = 83\nvalue = [1, 139]", fillcolor="#3a9ee5"] ;
16 -> 28 ;
29 [label="gini = 0.07\nsamples = 15\nvalue = [1, 27]", fillcolor="#40a1e6"] ;
28 -> 29 ;
30 [label="gini = 0.0\nsamples = 68\nvalue = [0, 112]", fillcolor="#399de5"] ;
28 -> 30 ;
31 [label="historic_velocity <= 0.5\ngini = 0.29\nsamples = 71\nvalue = [19, 88]", fillcolor="#64b2eb"] ;
15 -> 31 ;
32 [label="acc_age <= 0.05\ngini = 0.36\nsamples = 45\nvalue = [16, 51]", fillcolor="#77bced"] ;
31 -> 32 ;
33 [label="gini = 0.43\nsamples = 26\nvalue = [11, 24]", fillcolor="#94caf1"] ;
32 -> 33 ;
34 [label="gini = 0.26\nsamples = 19\nvalue = [5, 27]", fillcolor="#5eafea"] ;
32 -> 34 ;
35 [label="gini = 0.14\nsamples = 26\nvalue = [3, 37]", fillcolor="#49a5e7"] ;
31 -> 35 ;
36 [label="historic_velocity <= -0.11\ngini = 0.43\nsamples = 201\nvalue = [216, 98]", fillcolor="#f1ba93"] ;
12 -> 36 ;
37 [label="inital_amount <= 0.68\ngini = 0.25\nsamples = 102\nvalue = [142, 25]", fillcolor="#ea975c"] ;
36 -> 37 ;
38 [label="acc_age <= -0.85\ngini = 0.29\nsamples = 74\nvalue = [101, 22]", fillcolor="#eb9c64"] ;
37 -> 38 ;
39 [label="historic_velocity <= -0.87\ngini = 0.18\nsamples = 44\nvalue = [63, 7]", fillcolor="#e88f4f"] ;
38 -> 39 ;
40 [label="gini = 0.27\nsamples = 23\nvalue = [32, 6]", fillcolor="#ea995e"] ;
39 -> 40 ;
41 [label="gini = 0.06\nsamples = 21\nvalue = [31, 1]", fillcolor="#e6853f"] ;
39 -> 41 ;
42 [label="inital_amount <= -0.39\ngini = 0.41\nsamples = 30\nvalue = [38, 15]", fillcolor="#efb387"] ;
38 -> 42 ;
43 [label="gini = 0.3\nsamples = 15\nvalue = [22, 5]", fillcolor="#eb9e66"] ;
42 -> 43 ;
44 [label="gini = 0.47\nsamples = 15\nvalue = [16, 10]", fillcolor="#f5d0b5"] ;
42 -> 44 ;
45 [label="gini = 0.13\nsamples = 28\nvalue = [41, 3]", fillcolor="#e78a47"] ;
37 -> 45 ;
46 [label="transaction_adj_amt <= -0.35\ngini = 0.5\nsamples = 99\nvalue = [74, 73]", fillcolor="#fffdfc"] ;
36 -> 46 ;
47 [label="transaction_amt <= -0.98\ngini = 0.48\nsamples = 58\nvalue = [37, 53]", fillcolor="#c3e1f7"] ;
46 -> 47 ;
48 [label="transaction_amt <= -1.26\ngini = 0.5\nsamples = 30\nvalue = [23, 21]", fillcolor="#fdf4ee"] ;
47 -> 48 ;
49 [label="gini = 0.5\nsamples = 15\nvalue = [12, 12]", fillcolor="#ffffff"] ;
48 -> 49 ;
50 [label="gini = 0.5\nsamples = 15\nvalue = [11, 9]", fillcolor="#fae8db"] ;
48 -> 50 ;
51 [label="gini = 0.42\nsamples = 28\nvalue = [14, 32]", fillcolor="#90c8f0"] ;
47 -> 51 ;
52 [label="historic_velocity <= 0.37\ngini = 0.46\nsamples = 41\nvalue = [37, 20]", fillcolor="#f3c5a4"] ;
46 -> 52 ;
53 [label="gini = 0.39\nsamples = 16\nvalue = [14, 5]", fillcolor="#eeae80"] ;
52 -> 53 ;
54 [label="gini = 0.48\nsamples = 25\nvalue = [23, 15]", fillcolor="#f6d3ba"] ;
52 -> 54 ;
55 [label="acc_age <= -0.85\ngini = 0.23\nsamples = 2661\nvalue = [561, 3707]", fillcolor="#57ace9"] ;
11 -> 55 ;
56 [label="acc_age <= -1.75\ngini = 0.49\nsamples = 208\nvalue = [198, 144]", fillcolor="#f8ddc9"] ;
55 -> 56 ;
57 [label="inital_amount <= -0.31\ngini = 0.13\nsamples = 49\nvalue = [78, 6]", fillcolor="#e78b48"] ;
56 -> 57 ;
58 [label="gini = 0.3\nsamples = 22\nvalue = [27, 6]", fillcolor="#eb9d65"] ;
57 -> 58 ;
59 [label="gini = 0.0\nsamples = 27\nvalue = [51, 0]", fillcolor="#e58139"] ;
57 -> 59 ;
60 [label="transaction_adj_amt <= -0.66\ngini = 0.5\nsamples = 159\nvalue = [120, 138]", fillcolor="#e5f2fc"] ;
56 -> 60 ;
61 [label="historic_velocity <= -0.7\ngini = 0.35\nsamples = 80\nvalue = [28, 97]", fillcolor="#72b9ed"] ;
60 -> 61 ;
62 [label="historic_velocity <= -1.48\ngini = 0.1\nsamples = 41\nvalue = [3, 55]", fillcolor="#44a2e6"] ;
61 -> 62 ;
63 [label="gini = 0.24\nsamples = 16\nvalue = [3, 19]", fillcolor="#58ace9"] ;
62 -> 63 ;
64 [label="gini = 0.0\nsamples = 25\nvalue = [0, 36]", fillcolor="#399de5"] ;
62 -> 64 ;
65 [label="inital_amount <= -0.62\ngini = 0.47\nsamples = 39\nvalue = [25, 42]", fillcolor="#afd7f4"] ;
61 -> 65 ;
66 [label="gini = 0.42\nsamples = 17\nvalue = [8, 19]", fillcolor="#8cc6f0"] ;
65 -> 66 ;
67 [label="gini = 0.49\nsamples = 22\nvalue = [17, 23]", fillcolor="#cbe5f8"] ;
65 -> 67 ;
68 [label="historic_velocity <= 0.16\ngini = 0.43\nsamples = 79\nvalue = [92, 41]", fillcolor="#f1b991"] ;
60 -> 68 ;
69 [label="historic_velocity <= -1.17\ngini = 0.37\nsamples = 60\nvalue = [76, 25]", fillcolor="#eeaa7a"] ;
68 -> 69 ;
70 [label="gini = 0.5\nsamples = 15\nvalue = [12, 13]", fillcolor="#f0f7fd"] ;
69 -> 70 ;
71 [label="historic_velocity <= -0.15\ngini = 0.27\nsamples = 45\nvalue = [64, 12]", fillcolor="#ea995e"] ;
69 -> 71 ;
72 [label="historic_velocity <= -0.81\ngini = 0.35\nsamples = 30\nvalue = [42, 12]", fillcolor="#eca572"] ;
71 -> 72 ;
73 [label="gini = 0.24\nsamples = 15\nvalue = [24, 4]", fillcolor="#e9965a"] ;
72 -> 73 ;
74 [label="gini = 0.43\nsamples = 15\nvalue = [18, 8]", fillcolor="#f1b991"] ;
72 -> 74 ;
75 [label="gini = 0.0\nsamples = 15\nvalue = [22, 0]", fillcolor="#e58139"] ;
71 -> 75 ;
76 [label="gini = 0.5\nsamples = 19\nvalue = [16, 16]", fillcolor="#ffffff"] ;
68 -> 76 ;
77 [label="transaction_adj_amt <= -0.66\ngini = 0.17\nsamples = 2453\nvalue = [363, 3563]", fillcolor="#4da7e8"] ;
55 -> 77 ;
78 [label="historic_velocity <= -0.98\ngini = 0.09\nsamples = 1496\nvalue = [114, 2293]", fillcolor="#43a2e6"] ;
77 -> 78 ;
79 [label="gini = 0.0\nsamples = 322\nvalue = [0, 513]", fillcolor="#399de5"] ;
78 -> 79 ;
80 [label="acc_age <= 0.05\ngini = 0.11\nsamples = 1174\nvalue = [114, 1780]", fillcolor="#46a3e7"] ;
78 -> 80 ;
81 [label="inital_amount <= -0.82\ngini = 0.17\nsamples = 409\nvalue = [63, 611]", fillcolor="#4da7e8"] ;
80 -> 81 ;
82 [label="transaction_amt <= 0.41\ngini = 0.07\nsamples = 115\nvalue = [7, 179]", fillcolor="#41a1e6"] ;
81 -> 82 ;
83 [label="historic_velocity <= -0.03\ngini = 0.03\nsamples = 74\nvalue = [2, 116]", fillcolor="#3c9fe5"] ;
82 -> 83 ;
84 [label="inital_amount <= -1.29\ngini = 0.09\nsamples = 30\nvalue = [2, 39]", fillcolor="#43a2e6"] ;
83 -> 84 ;
85 [label="gini = 0.08\nsamples = 15\nvalue = [1, 22]", fillcolor="#42a1e6"] ;
84 -> 85 ;
86 [label="gini = 0.1\nsamples = 15\nvalue = [1, 17]", fillcolor="#45a3e7"] ;
84 -> 86 ;
87 [label="gini = 0.0\nsamples = 44\nvalue = [0, 77]", fillcolor="#399de5"] ;
83 -> 87 ;
88 [label="transaction_amt <= 0.84\ngini = 0.14\nsamples = 41\nvalue = [5, 63]", fillcolor="#49a5e7"] ;
82 -> 88 ;
89 [label="gini = 0.24\nsamples = 21\nvalue = [5, 31]", fillcolor="#59ade9"] ;
88 -> 89 ;
90 [label="gini = 0.0\nsamples = 20\nvalue = [0, 32]", fillcolor="#399de5"] ;
88 -> 90 ;
91 [label="historic_velocity <= 1.17\ngini = 0.2\nsamples = 294\nvalue = [56, 432]", fillcolor="#53aae8"] ;
81 -> 91 ;
92 [label="historic_velocity <= 0.8\ngini = 0.24\nsamples = 223\nvalue = [52, 316]", fillcolor="#5aade9"] ;
91 -> 92 ;
93 [label="transaction_amt <= 0.96\ngini = 0.21\nsamples = 187\nvalue = [36, 274]", fillcolor="#53aae8"] ;
92 -> 93 ;
94 [label="historic_velocity <= 0.01\ngini = 0.18\nsamples = 172\nvalue = [28, 259]", fillcolor="#4ea8e8"] ;
93 -> 94 ;
95 [label="historic_velocity <= -0.29\ngini = 0.24\nsamples = 103\nvalue = [22, 139]", fillcolor="#58ade9"] ;
94 -> 95 ;
96 [label="historic_velocity <= -0.65\ngini = 0.17\nsamples = 68\nvalue = [10, 98]", fillcolor="#4da7e8"] ;
95 -> 96 ;
97 [label="transaction_adj_amt <= -1.21\ngini = 0.26\nsamples = 40\nvalue = [10, 55]", fillcolor="#5dafea"] ;
96 -> 97 ;
98 [label="gini = 0.0\nsamples = 16\nvalue = [0, 19]", fillcolor="#399de5"] ;
97 -> 98 ;
99 [label="gini = 0.34\nsamples = 24\nvalue = [10, 36]", fillcolor="#70b8ec"] ;
97 -> 99 ;
100 [label="gini = 0.0\nsamples = 28\nvalue = [0, 43]", fillcolor="#399de5"] ;
96 -> 100 ;
101 [label="inital_amount <= 0.01\ngini = 0.35\nsamples = 35\nvalue = [12, 41]", fillcolor="#73baed"] ;
95 -> 101 ;
102 [label="gini = 0.43\nsamples = 15\nvalue = [8, 18]", fillcolor="#91c9f1"] ;
101 -> 102 ;
103 [label="gini = 0.25\nsamples = 20\nvalue = [4, 23]", fillcolor="#5baeea"] ;
101 -> 103 ;
104 [label="inital_amount <= 1.19\ngini = 0.09\nsamples = 69\nvalue = [6, 120]", fillcolor="#43a2e6"] ;
94 -> 104 ;
105 [label="inital_amount <= -0.27\ngini = 0.04\nsamples = 54\nvalue = [2, 98]", fillcolor="#3d9fe6"] ;
104 -> 105 ;
106 [label="gini = 0.08\nsamples = 15\nvalue = [1, 22]", fillcolor="#42a1e6"] ;
105 -> 106 ;
107 [label="historic_velocity <= 0.54\ngini = 0.03\nsamples = 39\nvalue = [1, 76]", fillcolor="#3c9ee5"] ;
105 -> 107 ;
108 [label="gini = 0.0\nsamples = 24\nvalue = [0, 53]", fillcolor="#399de5"] ;
107 -> 108 ;
109 [label="gini = 0.08\nsamples = 15\nvalue = [1, 23]", fillcolor="#42a1e6"] ;
107 -> 109 ;
110 [label="gini = 0.26\nsamples = 15\nvalue = [4, 22]", fillcolor="#5dafea"] ;
104 -> 110 ;
111 [label="gini = 0.45\nsamples = 15\nvalue = [8, 15]", fillcolor="#a3d1f3"] ;
93 -> 111 ;
112 [label="historic_velocity <= 0.96\ngini = 0.4\nsamples = 36\nvalue = [16, 42]", fillcolor="#84c2ef"] ;
92 -> 112 ;
113 [label="gini = 0.5\nsamples = 15\nvalue = [11, 13]", fillcolor="#e1f0fb"] ;
112 -> 113 ;
114 [label="gini = 0.25\nsamples = 21\nvalue = [5, 29]", fillcolor="#5baee9"] ;
112 -> 114 ;
115 [label="transaction_adj_amt <= -0.9\ngini = 0.06\nsamples = 71\nvalue = [4, 116]", fillcolor="#40a0e6"] ;
91 -> 115 ;
116 [label="inital_amount <= -0.04\ngini = 0.02\nsamples = 54\nvalue = [1, 89]", fillcolor="#3b9ee5"] ;
115 -> 116 ;
117 [label="gini = 0.09\nsamples = 16\nvalue = [1, 19]", fillcolor="#43a2e6"] ;
116 -> 117 ;
118 [label="gini = 0.0\nsamples = 38\nvalue = [0, 70]", fillcolor="#399de5"] ;
116 -> 118 ;
119 [label="gini = 0.18\nsamples = 17\nvalue = [3, 27]", fillcolor="#4fa8e8"] ;
115 -> 119 ;
120 [label="transaction_amt <= 0.55\ngini = 0.08\nsamples = 765\nvalue = [51, 1169]", fillcolor="#42a1e6"] ;
80 -> 120 ;
121 [label="inital_amount <= -0.63\ngini = 0.06\nsamples = 471\nvalue = [21, 717]", fillcolor="#3fa0e6"] ;
120 -> 121 ;
122 [label="transaction_amt <= -0.41\ngini = 0.1\nsamples = 155\nvalue = [13, 231]", fillcolor="#44a3e6"] ;
121 -> 122 ;
123 [label="gini = 0.29\nsamples = 15\nvalue = [3, 14]", fillcolor="#63b2eb"] ;
122 -> 123 ;
124 [label="inital_amount <= -0.91\ngini = 0.08\nsamples = 140\nvalue = [10, 217]", fillcolor="#42a2e6"] ;
122 -> 124 ;
125 [label="transaction_amt <= 0.05\ngini = 0.04\nsamples = 99\nvalue = [3, 162]", fillcolor="#3d9fe5"] ;
124 -> 125 ;
126 [label="transaction_amt <= -0.14\ngini = 0.08\nsamples = 42\nvalue = [3, 66]", fillcolor="#42a1e6"] ;
125 -> 126 ;
127 [label="gini = 0.0\nsamples = 27\nvalue = [0, 46]", fillcolor="#399de5"] ;
126 -> 127 ;
128 [label="gini = 0.23\nsamples = 15\nvalue = [3, 20]", fillcolor="#57ace9"] ;
126 -> 128 ;
129 [label="gini = 0.0\nsamples = 57\nvalue = [0, 96]", fillcolor="#399de5"] ;
125 -> 129 ;
130 [label="acc_age <= 0.96\ngini = 0.2\nsamples = 41\nvalue = [7, 55]", fillcolor="#52a9e8"] ;
124 -> 130 ;
131 [label="gini = 0.29\nsamples = 26\nvalue = [7, 33]", fillcolor="#63b2eb"] ;
130 -> 131 ;
132 [label="gini = 0.0\nsamples = 15\nvalue = [0, 22]", fillcolor="#399de5"] ;
130 -> 132 ;
133 [label="inital_amount <= 0.84\ngini = 0.03\nsamples = 316\nvalue = [8, 486]", fillcolor="#3c9fe5"] ;
121 -> 133 ;
134 [label="gini = 0.0\nsamples = 198\nvalue = [0, 316]", fillcolor="#399de5"] ;
133 -> 134 ;
135 [label="transaction_adj_amt <= -0.9\ngini = 0.09\nsamples = 118\nvalue = [8, 170]", fillcolor="#42a2e6"] ;
133 -> 135 ;
136 [label="d_last_logon <= -0.34\ngini = 0.03\nsamples = 89\nvalue = [2, 132]", fillcolor="#3c9ee5"] ;
135 -> 136 ;
137 [label="transaction_amt <= 0.19\ngini = 0.08\nsamples = 32\nvalue = [2, 45]", fillcolor="#42a1e6"] ;
136 -> 137 ;
138 [label="gini = 0.07\nsamples = 17\nvalue = [1, 25]", fillcolor="#41a1e6"] ;
137 -> 138 ;
139 [label="gini = 0.09\nsamples = 15\nvalue = [1, 20]", fillcolor="#43a2e6"] ;
137 -> 139 ;
140 [label="gini = 0.0\nsamples = 57\nvalue = [0, 87]", fillcolor="#399de5"] ;
136 -> 140 ;
141 [label="gini = 0.24\nsamples = 29\nvalue = [6, 38]", fillcolor="#58ace9"] ;
135 -> 141 ;
142 [label="transaction_amt <= 0.89\ngini = 0.12\nsamples = 294\nvalue = [30, 452]", fillcolor="#46a4e7"] ;
120 -> 142 ;
143 [label="transaction_amt <= 0.84\ngini = 0.18\nsamples = 135\nvalue = [23, 201]", fillcolor="#50a8e8"] ;
142 -> 143 ;
144 [label="transaction_adj_amt <= -1.29\ngini = 0.13\nsamples = 118\nvalue = [14, 179]", fillcolor="#48a5e7"] ;
143 -> 144 ;
145 [label="gini = 0.0\nsamples = 37\nvalue = [0, 63]", fillcolor="#399de5"] ;
144 -> 145 ;
146 [label="historic_velocity <= 0.28\ngini = 0.19\nsamples = 81\nvalue = [14, 116]", fillcolor="#51a9e8"] ;
144 -> 146 ;
147 [label="transaction_amt <= 0.65\ngini = 0.05\nsamples = 45\nvalue = [2, 71]", fillcolor="#3fa0e6"] ;
146 -> 147 ;
148 [label="gini = 0.17\nsamples = 15\nvalue = [2, 20]", fillcolor="#4da7e8"] ;
147 -> 148 ;
149 [label="gini = 0.0\nsamples = 30\nvalue = [0, 51]", fillcolor="#399de5"] ;
147 -> 149 ;
150 [label="inital_amount <= 0.5\ngini = 0.33\nsamples = 36\nvalue = [12, 45]", fillcolor="#6eb7ec"] ;
146 -> 150 ;
151 [label="gini = 0.41\nsamples = 20\nvalue = [9, 22]", fillcolor="#8ac5f0"] ;
150 -> 151 ;
152 [label="gini = 0.2\nsamples = 16\nvalue = [3, 23]", fillcolor="#53aae8"] ;
150 -> 152 ;
153 [label="gini = 0.41\nsamples = 17\nvalue = [9, 22]", fillcolor="#8ac5f0"] ;
143 -> 153 ;
154 [label="historic_velocity <= 0.11\ngini = 0.05\nsamples = 159\nvalue = [7, 251]", fillcolor="#3fa0e6"] ;
142 -> 154 ;
155 [label="gini = 0.0\nsamples = 62\nvalue = [0, 100]", fillcolor="#399de5"] ;
154 -> 155 ;
156 [label="inital_amount <= 1.17\ngini = 0.08\nsamples = 97\nvalue = [7, 151]", fillcolor="#42a2e6"] ;
154 -> 156 ;
157 [label="transaction_amt <= 1.37\ngini = 0.04\nsamples = 82\nvalue = [3, 128]", fillcolor="#3e9fe6"] ;
156 -> 157 ;
158 [label="historic_velocity <= 1.18\ngini = 0.06\nsamples = 56\nvalue = [3, 88]", fillcolor="#40a0e6"] ;
157 -> 158 ;
159 [label="historic_velocity <= 0.4\ngini = 0.03\nsamples = 41\nvalue = [1, 68]", fillcolor="#3c9ee5"] ;
158 -> 159 ;
160 [label="gini = 0.1\nsamples = 15\nvalue = [1, 18]", fillcolor="#44a2e6"] ;
159 -> 160 ;
161 [label="gini = 0.0\nsamples = 26\nvalue = [0, 50]", fillcolor="#399de5"] ;
159 -> 161 ;
162 [label="gini = 0.17\nsamples = 15\nvalue = [2, 20]", fillcolor="#4da7e8"] ;
158 -> 162 ;
163 [label="gini = 0.0\nsamples = 26\nvalue = [0, 40]", fillcolor="#399de5"] ;
157 -> 163 ;
164 [label="gini = 0.25\nsamples = 15\nvalue = [4, 23]", fillcolor="#5baeea"] ;
156 -> 164 ;
165 [label="acc_age <= 0.05\ngini = 0.27\nsamples = 957\nvalue = [249, 1270]", fillcolor="#60b0ea"] ;
77 -> 165 ;
166 [label="historic_velocity <= 1.5\ngini = 0.43\nsamples = 240\nvalue = [116, 257]", fillcolor="#92c9f1"] ;
165 -> 166 ;
167 [label="transaction_amt <= 1.22\ngini = 0.45\nsamples = 221\nvalue = [116, 231]", fillcolor="#9ccef2"] ;
166 -> 167 ;
168 [label="transaction_amt <= 0.23\ngini = 0.42\nsamples = 201\nvalue = [96, 222]", fillcolor="#8fc7f0"] ;
167 -> 168 ;
169 [label="d_last_logon <= 0.37\ngini = 0.48\nsamples = 103\nvalue = [62, 97]", fillcolor="#b8dcf6"] ;
168 -> 169 ;
170 [label="transaction_adj_amt <= -0.27\ngini = 0.41\nsamples = 59\nvalue = [27, 67]", fillcolor="#89c4ef"] ;
169 -> 170 ;
171 [label="historic_velocity <= 0.17\ngini = 0.33\nsamples = 43\nvalue = [15, 56]", fillcolor="#6eb7ec"] ;
170 -> 171 ;
172 [label="gini = 0.23\nsamples = 28\nvalue = [6, 40]", fillcolor="#57ace9"] ;
171 -> 172 ;
173 [label="gini = 0.46\nsamples = 15\nvalue = [9, 16]", fillcolor="#a8d4f4"] ;
171 -> 173 ;
174 [label="gini = 0.5\nsamples = 16\nvalue = [12, 11]", fillcolor="#fdf5ef"] ;
170 -> 174 ;
175 [label="historic_velocity <= -0.31\ngini = 0.5\nsamples = 44\nvalue = [35, 30]", fillcolor="#fbede3"] ;
169 -> 175 ;
176 [label="gini = 0.43\nsamples = 16\nvalue = [18, 8]", fillcolor="#f1b991"] ;
175 -> 176 ;
177 [label="gini = 0.49\nsamples = 28\nvalue = [17, 22]", fillcolor="#d2e9f9"] ;
175 -> 177 ;
178 [label="transaction_adj_amt <= -0.51\ngini = 0.34\nsamples = 98\nvalue = [34, 125]", fillcolor="#6fb8ec"] ;
168 -> 178 ;
179 [label="gini = 0.08\nsamples = 29\nvalue = [2, 43]", fillcolor="#42a2e6"] ;
178 -> 179 ;
180 [label="historic_velocity <= -0.13\ngini = 0.4\nsamples = 69\nvalue = [32, 82]", fillcolor="#86c3ef"] ;
178 -> 180 ;
181 [label="transaction_amt <= 0.58\ngini = 0.29\nsamples = 39\nvalue = [12, 57]", fillcolor="#63b2ea"] ;
180 -> 181 ;
182 [label="gini = 0.44\nsamples = 22\nvalue = [12, 24]", fillcolor="#9ccef2"] ;
181 -> 182 ;
183 [label="gini = 0.0\nsamples = 17\nvalue = [0, 33]", fillcolor="#399de5"] ;
181 -> 183 ;
184 [label="transaction_amt <= 0.66\ngini = 0.49\nsamples = 30\nvalue = [20, 25]", fillcolor="#d7ebfa"] ;
180 -> 184 ;
185 [label="gini = 0.35\nsamples = 15\nvalue = [5, 17]", fillcolor="#73baed"] ;
184 -> 185 ;
186 [label="gini = 0.45\nsamples = 15\nvalue = [15, 8]", fillcolor="#f3c4a3"] ;
184 -> 186 ;
187 [label="gini = 0.43\nsamples = 20\nvalue = [20, 9]", fillcolor="#f1ba92"] ;
167 -> 187 ;
188 [label="gini = 0.0\nsamples = 19\nvalue = [0, 26]", fillcolor="#399de5"] ;
166 -> 188 ;
189 [label="inital_amount <= 1.43\ngini = 0.21\nsamples = 717\nvalue = [133, 1013]", fillcolor="#53aae8"] ;
165 -> 189 ;
190 [label="historic_velocity <= 0.21\ngini = 0.22\nsamples = 650\nvalue = [130, 916]", fillcolor="#55abe9"] ;
189 -> 190 ;
191 [label="transaction_amt <= 0.02\ngini = 0.06\nsamples = 352\nvalue = [19, 558]", fillcolor="#40a0e6"] ;
190 -> 191 ;
192 [label="historic_velocity <= -0.4\ngini = 0.23\nsamples = 52\nvalue = [11, 74]", fillcolor="#56ace9"] ;
191 -> 192 ;
193 [label="gini = 0.06\nsamples = 24\nvalue = [1, 33]", fillcolor="#3fa0e6"] ;
192 -> 193 ;
194 [label="gini = 0.32\nsamples = 28\nvalue = [10, 41]", fillcolor="#69b5eb"] ;
192 -> 194 ;
195 [label="transaction_amt <= 1.59\ngini = 0.03\nsamples = 300\nvalue = [8, 484]", fillcolor="#3c9fe5"] ;
191 -> 195 ;
196 [label="historic_velocity <= -0.25\ngini = 0.02\nsamples = 276\nvalue = [4, 449]", fillcolor="#3b9ee5"] ;
195 -> 196 ;
197 [label="gini = 0.0\nsamples = 179\nvalue = [0, 284]", fillcolor="#399de5"] ;
196 -> 197 ;
198 [label="historic_velocity <= -0.2\ngini = 0.05\nsamples = 97\nvalue = [4, 165]", fillcolor="#3e9fe6"] ;
196 -> 198 ;
199 [label="gini = 0.13\nsamples = 16\nvalue = [2, 26]", fillcolor="#48a5e7"] ;
198 -> 199 ;
200 [label="d_last_logon <= 0.37\ngini = 0.03\nsamples = 81\nvalue = [2, 139]", fillcolor="#3c9ee5"] ;
198 -> 200 ;
201 [label="gini = 0.0\nsamples = 51\nvalue = [0, 84]", fillcolor="#399de5"] ;
200 -> 201 ;
202 [label="inital_amount <= -0.13\ngini = 0.07\nsamples = 30\nvalue = [2, 55]", fillcolor="#40a1e6"] ;
200 -> 202 ;
203 [label="gini = 0.14\nsamples = 15\nvalue = [2, 25]", fillcolor="#49a5e7"] ;
202 -> 203 ;
204 [label="gini = 0.0\nsamples = 15\nvalue = [0, 30]", fillcolor="#399de5"] ;
202 -> 204 ;
205 [label="gini = 0.18\nsamples = 24\nvalue = [4, 35]", fillcolor="#50a8e8"] ;
195 -> 205 ;
206 [label="transaction_amt <= 0.44\ngini = 0.36\nsamples = 298\nvalue = [111, 358]", fillcolor="#76bbed"] ;
190 -> 206 ;
207 [label="transaction_amt <= 0.15\ngini = 0.43\nsamples = 124\nvalue = [64, 139]", fillcolor="#94caf1"] ;
206 -> 207 ;
208 [label="historic_velocity <= 0.47\ngini = 0.33\nsamples = 76\nvalue = [26, 100]", fillcolor="#6cb6ec"] ;
207 -> 208 ;
209 [label="gini = 0.49\nsamples = 17\nvalue = [11, 15]", fillcolor="#cae5f8"] ;
208 -> 209 ;
210 [label="d_last_logon <= 0.37\ngini = 0.26\nsamples = 59\nvalue = [15, 85]", fillcolor="#5caeea"] ;
208 -> 210 ;
211 [label="d_last_logon <= -1.05\ngini = 0.32\nsamples = 39\nvalue = [14, 57]", fillcolor="#6ab5eb"] ;
210 -> 211 ;
212 [label="gini = 0.2\nsamples = 16\nvalue = [3, 24]", fillcolor="#52a9e8"] ;
211 -> 212 ;
213 [label="gini = 0.38\nsamples = 23\nvalue = [11, 33]", fillcolor="#7bbeee"] ;
211 -> 213 ;
214 [label="gini = 0.07\nsamples = 20\nvalue = [1, 28]", fillcolor="#40a0e6"] ;
210 -> 214 ;
215 [label="transaction_amt <= 0.33\ngini = 0.5\nsamples = 48\nvalue = [38, 39]", fillcolor="#fafcfe"] ;
207 -> 215 ;
216 [label="gini = 0.48\nsamples = 25\nvalue = [16, 25]", fillcolor="#b8dcf6"] ;
215 -> 216 ;
217 [label="gini = 0.48\nsamples = 23\nvalue = [22, 14]", fillcolor="#f6d1b7"] ;
215 -> 217 ;
218 [label="historic_velocity <= 1.76\ngini = 0.29\nsamples = 174\nvalue = [47, 219]", fillcolor="#63b2eb"] ;
206 -> 218 ;
219 [label="inital_amount <= 0.08\ngini = 0.25\nsamples = 153\nvalue = [35, 200]", fillcolor="#5caeea"] ;
218 -> 219 ;
220 [label="historic_velocity <= 0.93\ngini = 0.18\nsamples = 87\nvalue = [13, 114]", fillcolor="#50a8e8"] ;
219 -> 220 ;
221 [label="transaction_amt <= 0.76\ngini = 0.27\nsamples = 49\nvalue = [11, 58]", fillcolor="#5fb0ea"] ;
220 -> 221 ;
222 [label="gini = 0.0\nsamples = 17\nvalue = [0, 23]", fillcolor="#399de5"] ;
221 -> 222 ;
223 [label="transaction_amt <= 1.26\ngini = 0.36\nsamples = 32\nvalue = [11, 35]", fillcolor="#77bced"] ;
221 -> 223 ;
224 [label="gini = 0.42\nsamples = 16\nvalue = [7, 16]", fillcolor="#90c8f0"] ;
223 -> 224 ;
225 [label="gini = 0.29\nsamples = 16\nvalue = [4, 19]", fillcolor="#63b2ea"] ;
223 -> 225 ;
226 [label="historic_velocity <= 1.22\ngini = 0.07\nsamples = 38\nvalue = [2, 56]", fillcolor="#40a0e6"] ;
220 -> 226 ;
227 [label="gini = 0.0\nsamples = 23\nvalue = [0, 37]", fillcolor="#399de5"] ;
226 -> 227 ;
228 [label="gini = 0.17\nsamples = 15\nvalue = [2, 19]", fillcolor="#4ea7e8"] ;
226 -> 228 ;
229 [label="historic_velocity <= 1.24\ngini = 0.32\nsamples = 66\nvalue = [22, 86]", fillcolor="#6cb6ec"] ;
219 -> 229 ;
230 [label="inital_amount <= 0.69\ngini = 0.38\nsamples = 51\nvalue = [20, 60]", fillcolor="#7bbeee"] ;
229 -> 230 ;
231 [label="gini = 0.46\nsamples = 26\nvalue = [16, 29]", fillcolor="#a6d3f3"] ;
230 -> 231 ;
232 [label="gini = 0.2\nsamples = 25\nvalue = [4, 31]", fillcolor="#53aae8"] ;
230 -> 232 ;
233 [label="gini = 0.13\nsamples = 15\nvalue = [2, 26]", fillcolor="#48a5e7"] ;
229 -> 233 ;
234 [label="gini = 0.47\nsamples = 21\nvalue = [12, 19]", fillcolor="#b6dbf5"] ;
218 -> 234 ;
235 [label="historic_velocity <= -0.23\ngini = 0.06\nsamples = 67\nvalue = [3, 97]", fillcolor="#3fa0e6"] ;
189 -> 235 ;
236 [label="gini = 0.0\nsamples = 33\nvalue = [0, 49]", fillcolor="#399de5"] ;
235 -> 236 ;
237 [label="d_last_logon <= -0.34\ngini = 0.11\nsamples = 34\nvalue = [3, 48]", fillcolor="#45a3e7"] ;
235 -> 237 ;
238 [label="gini = 0.07\nsamples = 17\nvalue = [1, 25]", fillcolor="#41a1e6"] ;
237 -> 238 ;
239 [label="gini = 0.15\nsamples = 17\nvalue = [2, 23]", fillcolor="#4aa6e7"] ;
237 -> 239 ;
240 [label="transaction_amt <= -0.09\ngini = 0.36\nsamples = 3876\nvalue = [4707, 1427]", fillcolor="#eda775"] ;
10 -> 240 ;
241 [label="transaction_amt <= -0.74\ngini = 0.21\nsamples = 1916\nvalue = [2653, 350]", fillcolor="#e89253"] ;
240 -> 241 ;
242 [label="transaction_adj_amt <= 0.35\ngini = 0.15\nsamples = 1166\nvalue = [1685, 153]", fillcolor="#e78c4b"] ;
241 -> 242 ;
243 [label="historic_velocity <= -0.23\ngini = 0.22\nsamples = 279\nvalue = [378, 55]", fillcolor="#e99356"] ;
242 -> 243 ;
244 [label="transaction_adj_amt <= 0.27\ngini = 0.13\nsamples = 148\nvalue = [222, 17]", fillcolor="#e78b48"] ;
243 -> 244 ;
245 [label="transaction_adj_amt <= 0.04\ngini = 0.06\nsamples = 113\nvalue = [176, 6]", fillcolor="#e68540"] ;
244 -> 245 ;
246 [label="historic_velocity <= -0.68\ngini = 0.11\nsamples = 43\nvalue = [67, 4]", fillcolor="#e78945"] ;
245 -> 246 ;
247 [label="gini = 0.0\nsamples = 23\nvalue = [35, 0]", fillcolor="#e58139"] ;
246 -> 247 ;
248 [label="gini = 0.2\nsamples = 20\nvalue = [32, 4]", fillcolor="#e89152"] ;
246 -> 248 ;
249 [label="acc_age <= -0.85\ngini = 0.04\nsamples = 70\nvalue = [109, 2]", fillcolor="#e5833d"] ;
245 -> 249 ;
250 [label="gini = 0.0\nsamples = 45\nvalue = [75, 0]", fillcolor="#e58139"] ;
249 -> 250 ;
251 [label="gini = 0.1\nsamples = 25\nvalue = [34, 2]", fillcolor="#e78845"] ;
249 -> 251 ;
252 [label="inital_amount <= 0.11\ngini = 0.31\nsamples = 35\nvalue = [46, 11]", fillcolor="#eb9f68"] ;
244 -> 252 ;
253 [label="gini = 0.12\nsamples = 19\nvalue = [28, 2]", fillcolor="#e78a47"] ;
252 -> 253 ;
254 [label="gini = 0.44\nsamples = 16\nvalue = [18, 9]", fillcolor="#f2c09c"] ;
252 -> 254 ;
255 [label="inital_amount <= 1.04\ngini = 0.32\nsamples = 131\nvalue = [156, 38]", fillcolor="#eba069"] ;
243 -> 255 ;
256 [label="inital_amount <= 0.61\ngini = 0.36\nsamples = 105\nvalue = [114, 36]", fillcolor="#eda978"] ;
255 -> 256 ;
257 [label="inital_amount <= -0.57\ngini = 0.31\nsamples = 90\nvalue = [101, 24]", fillcolor="#eb9f68"] ;
256 -> 257 ;
258 [label="acc_age <= -0.85\ngini = 0.41\nsamples = 44\nvalue = [45, 18]", fillcolor="#efb388"] ;
257 -> 258 ;
259 [label="gini = 0.24\nsamples = 18\nvalue = [24, 4]", fillcolor="#e9965a"] ;
258 -> 259 ;
260 [label="gini = 0.48\nsamples = 26\nvalue = [21, 14]", fillcolor="#f6d5bd"] ;
258 -> 260 ;
261 [label="d_last_logon <= -0.34\ngini = 0.17\nsamples = 46\nvalue = [56, 6]", fillcolor="#e88e4e"] ;
257 -> 261 ;
262 [label="gini = 0.06\nsamples = 24\nvalue = [34, 1]", fillcolor="#e6853f"] ;
261 -> 262 ;
263 [label="gini = 0.3\nsamples = 22\nvalue = [22, 5]", fillcolor="#eb9e66"] ;
261 -> 263 ;
264 [label="gini = 0.5\nsamples = 15\nvalue = [13, 12]", fillcolor="#fdf5f0"] ;
256 -> 264 ;
265 [label="gini = 0.09\nsamples = 26\nvalue = [42, 2]", fillcolor="#e68742"] ;
255 -> 265 ;
266 [label="historic_velocity <= 1.47\ngini = 0.13\nsamples = 887\nvalue = [1307, 98]", fillcolor="#e78a48"] ;
242 -> 266 ;
267 [label="transaction_amt <= -1.4\ngini = 0.12\nsamples = 870\nvalue = [1287, 89]", fillcolor="#e78a47"] ;
266 -> 267 ;
268 [label="inital_amount <= 1.2\ngini = 0.16\nsamples = 426\nvalue = [635, 61]", fillcolor="#e78d4c"] ;
267 -> 268 ;
269 [label="inital_amount <= 0.54\ngini = 0.13\nsamples = 354\nvalue = [538, 41]", fillcolor="#e78b48"] ;
268 -> 269 ;
270 [label="historic_velocity <= -0.99\ngini = 0.16\nsamples = 276\nvalue = [403, 40]", fillcolor="#e88e4d"] ;
269 -> 270 ;
271 [label="transaction_amt <= -1.65\ngini = 0.29\nsamples = 66\nvalue = [80, 17]", fillcolor="#eb9c63"] ;
270 -> 271 ;
272 [label="acc_age <= -0.85\ngini = 0.12\nsamples = 43\nvalue = [59, 4]", fillcolor="#e78a46"] ;
271 -> 272 ;
273 [label="gini = 0.19\nsamples = 21\nvalue = [26, 3]", fillcolor="#e89050"] ;
272 -> 273 ;
274 [label="gini = 0.06\nsamples = 22\nvalue = [33, 1]", fillcolor="#e6853f"] ;
272 -> 274 ;
275 [label="gini = 0.47\nsamples = 23\nvalue = [21, 13]", fillcolor="#f5cfb4"] ;
271 -> 275 ;
276 [label="transaction_adj_amt <= 0.74\ngini = 0.12\nsamples = 210\nvalue = [323, 23]", fillcolor="#e78a47"] ;
270 -> 276 ;
277 [label="transaction_amt <= -1.97\ngini = 0.18\nsamples = 69\nvalue = [100, 11]", fillcolor="#e88f4f"] ;
276 -> 277 ;
278 [label="gini = 0.05\nsamples = 23\nvalue = [36, 1]", fillcolor="#e6843e"] ;
277 -> 278 ;
279 [label="historic_velocity <= -0.62\ngini = 0.23\nsamples = 46\nvalue = [64, 10]", fillcolor="#e99558"] ;
277 -> 279 ;
280 [label="gini = 0.07\nsamples = 16\nvalue = [28, 1]", fillcolor="#e68640"] ;
279 -> 280 ;
281 [label="inital_amount <= -0.49\ngini = 0.32\nsamples = 30\nvalue = [36, 9]", fillcolor="#eca06a"] ;
279 -> 281 ;
282 [label="gini = 0.24\nsamples = 15\nvalue = [19, 3]", fillcolor="#e99558"] ;
281 -> 282 ;
283 [label="gini = 0.39\nsamples = 15\nvalue = [17, 6]", fillcolor="#eead7f"] ;
281 -> 283 ;
284 [label="historic_velocity <= 0.49\ngini = 0.1\nsamples = 141\nvalue = [223, 12]", fillcolor="#e68844"] ;
276 -> 284 ;
285 [label="transaction_adj_amt <= 1.13\ngini = 0.06\nsamples = 126\nvalue = [201, 6]", fillcolor="#e6853f"] ;
284 -> 285 ;
286 [label="d_last_logon <= -0.34\ngini = 0.1\nsamples = 57\nvalue = [88, 5]", fillcolor="#e68844"] ;
285 -> 286 ;
287 [label="gini = 0.17\nsamples = 26\nvalue = [38, 4]", fillcolor="#e88e4e"] ;
286 -> 287 ;
288 [label="transaction_amt <= -2.03\ngini = 0.04\nsamples = 31\nvalue = [50, 1]", fillcolor="#e6843d"] ;
286 -> 288 ;
289 [label="gini = 0.1\nsamples = 15\nvalue = [18, 1]", fillcolor="#e68844"] ;
288 -> 289 ;
290 [label="gini = 0.0\nsamples = 16\nvalue = [32, 0]", fillcolor="#e58139"] ;
288 -> 290 ;
291 [label="transaction_adj_amt <= 1.36\ngini = 0.02\nsamples = 69\nvalue = [113, 1]", fillcolor="#e5823b"] ;
285 -> 291 ;
292 [label="gini = 0.05\nsamples = 23\nvalue = [38, 1]", fillcolor="#e6843e"] ;
291 -> 292 ;
293 [label="gini = 0.0\nsamples = 46\nvalue = [75, 0]", fillcolor="#e58139"] ;
291 -> 293 ;
294 [label="gini = 0.34\nsamples = 15\nvalue = [22, 6]", fillcolor="#eca36f"] ;
284 -> 294 ;
295 [label="historic_velocity <= -0.99\ngini = 0.01\nsamples = 78\nvalue = [135, 1]", fillcolor="#e5823a"] ;
269 -> 295 ;
296 [label="gini = 0.06\nsamples = 17\nvalue = [30, 1]", fillcolor="#e68540"] ;
295 -> 296 ;
297 [label="gini = 0.0\nsamples = 61\nvalue = [105, 0]", fillcolor="#e58139"] ;
295 -> 297 ;
298 [label="acc_age <= -0.85\ngini = 0.28\nsamples = 72\nvalue = [97, 20]", fillcolor="#ea9b62"] ;
268 -> 298 ;
299 [label="historic_velocity <= -0.52\ngini = 0.19\nsamples = 38\nvalue = [59, 7]", fillcolor="#e89050"] ;
298 -> 299 ;
300 [label="gini = 0.35\nsamples = 20\nvalue = [24, 7]", fillcolor="#eda673"] ;
299 -> 300 ;
301 [label="gini = 0.0\nsamples = 18\nvalue = [35, 0]", fillcolor="#e58139"] ;
299 -> 301 ;
302 [label="transaction_amt <= -1.9\ngini = 0.38\nsamples = 34\nvalue = [38, 13]", fillcolor="#eeac7d"] ;
298 -> 302 ;
303 [label="gini = 0.47\nsamples = 15\nvalue = [15, 9]", fillcolor="#f5cdb0"] ;
302 -> 303 ;
304 [label="gini = 0.25\nsamples = 19\nvalue = [23, 4]", fillcolor="#ea975b"] ;
302 -> 304 ;
305 [label="historic_velocity <= 0.55\ngini = 0.08\nsamples = 444\nvalue = [652, 28]", fillcolor="#e68642"] ;
267 -> 305 ;
306 [label="historic_velocity <= -1.01\ngini = 0.07\nsamples = 395\nvalue = [571, 20]", fillcolor="#e68540"] ;
305 -> 306 ;
307 [label="transaction_amt <= -1.11\ngini = 0.13\nsamples = 90\nvalue = [118, 9]", fillcolor="#e78b48"] ;
306 -> 307 ;
308 [label="gini = 0.0\nsamples = 34\nvalue = [51, 0]", fillcolor="#e58139"] ;
307 -> 308 ;
309 [label="inital_amount <= 0.52\ngini = 0.21\nsamples = 56\nvalue = [67, 9]", fillcolor="#e89254"] ;
307 -> 309 ;
310 [label="historic_velocity <= -1.25\ngini = 0.29\nsamples = 36\nvalue = [43, 9]", fillcolor="#ea9b62"] ;
309 -> 310 ;
311 [label="gini = 0.13\nsamples = 21\nvalue = [27, 2]", fillcolor="#e78a48"] ;
310 -> 311 ;
312 [label="gini = 0.42\nsamples = 15\nvalue = [16, 7]", fillcolor="#f0b890"] ;
310 -> 312 ;
313 [label="gini = 0.0\nsamples = 20\nvalue = [24, 0]", fillcolor="#e58139"] ;
309 -> 313 ;
314 [label="historic_velocity <= 0.0\ngini = 0.05\nsamples = 305\nvalue = [453, 11]", fillcolor="#e6843e"] ;
306 -> 314 ;
315 [label="transaction_amt <= -0.99\ngini = 0.06\nsamples = 237\nvalue = [354, 11]", fillcolor="#e6853f"] ;
314 -> 315 ;
316 [label="inital_amount <= 0.64\ngini = 0.09\nsamples = 141\nvalue = [199, 10]", fillcolor="#e68743"] ;
315 -> 316 ;
317 [label="transaction_amt <= -1.04\ngini = 0.12\nsamples = 88\nvalue = [126, 9]", fillcolor="#e78a47"] ;
316 -> 317 ;
318 [label="historic_velocity <= -0.2\ngini = 0.1\nsamples = 72\nvalue = [105, 6]", fillcolor="#e68844"] ;
317 -> 318 ;
319 [label="inital_amount <= -0.27\ngini = 0.04\nsamples = 57\nvalue = [87, 2]", fillcolor="#e6843e"] ;
318 -> 319 ;
320 [label="gini = 0.0\nsamples = 34\nvalue = [52, 0]", fillcolor="#e58139"] ;
319 -> 320 ;
321 [label="gini = 0.1\nsamples = 23\nvalue = [35, 2]", fillcolor="#e68844"] ;
319 -> 321 ;
322 [label="gini = 0.3\nsamples = 15\nvalue = [18, 4]", fillcolor="#eb9d65"] ;
318 -> 322 ;
323 [label="gini = 0.22\nsamples = 16\nvalue = [21, 3]", fillcolor="#e99355"] ;
317 -> 323 ;
324 [label="d_last_logon <= 0.37\ngini = 0.03\nsamples = 53\nvalue = [73, 1]", fillcolor="#e5833c"] ;
316 -> 324 ;
325 [label="gini = 0.0\nsamples = 29\nvalue = [44, 0]", fillcolor="#e58139"] ;
324 -> 325 ;
326 [label="gini = 0.06\nsamples = 24\nvalue = [29, 1]", fillcolor="#e68540"] ;
324 -> 326 ;
327 [label="historic_velocity <= -0.18\ngini = 0.01\nsamples = 96\nvalue = [155, 1]", fillcolor="#e5823a"] ;
315 -> 327 ;
328 [label="gini = 0.0\nsamples = 81\nvalue = [134, 0]", fillcolor="#e58139"] ;
327 -> 328 ;
329 [label="gini = 0.09\nsamples = 15\nvalue = [21, 1]", fillcolor="#e68742"] ;
327 -> 329 ;
330 [label="gini = 0.0\nsamples = 68\nvalue = [99, 0]", fillcolor="#e58139"] ;
314 -> 330 ;
331 [label="historic_velocity <= 0.69\ngini = 0.16\nsamples = 49\nvalue = [81, 8]", fillcolor="#e88d4d"] ;
305 -> 331 ;
332 [label="gini = 0.33\nsamples = 15\nvalue = [23, 6]", fillcolor="#eca26d"] ;
331 -> 332 ;
333 [label="inital_amount <= -0.18\ngini = 0.06\nsamples = 34\nvalue = [58, 2]", fillcolor="#e68540"] ;
331 -> 333 ;
334 [label="gini = 0.15\nsamples = 15\nvalue = [23, 2]", fillcolor="#e78c4a"] ;
333 -> 334 ;
335 [label="gini = 0.0\nsamples = 19\nvalue = [35, 0]", fillcolor="#e58139"] ;
333 -> 335 ;
336 [label="gini = 0.43\nsamples = 17\nvalue = [20, 9]", fillcolor="#f1ba92"] ;
266 -> 336 ;
337 [label="historic_velocity <= 1.59\ngini = 0.28\nsamples = 750\nvalue = [968, 197]", fillcolor="#ea9b61"] ;
241 -> 337 ;
338 [label="historic_velocity <= -1.26\ngini = 0.27\nsamples = 734\nvalue = [955, 185]", fillcolor="#ea995f"] ;
337 -> 338 ;
339 [label="inital_amount <= 0.62\ngini = 0.11\nsamples = 97\nvalue = [152, 9]", fillcolor="#e78845"] ;
338 -> 339 ;
340 [label="transaction_adj_amt <= 0.51\ngini = 0.05\nsamples = 70\nvalue = [115, 3]", fillcolor="#e6843e"] ;
339 -> 340 ;
341 [label="gini = 0.11\nsamples = 27\nvalue = [47, 3]", fillcolor="#e78946"] ;
340 -> 341 ;
342 [label="gini = 0.0\nsamples = 43\nvalue = [68, 0]", fillcolor="#e58139"] ;
340 -> 342 ;
343 [label="gini = 0.24\nsamples = 27\nvalue = [37, 6]", fillcolor="#e99559"] ;
339 -> 343 ;
344 [label="d_last_logon <= -0.34\ngini = 0.29\nsamples = 637\nvalue = [803, 176]", fillcolor="#eb9d64"] ;
338 -> 344 ;
345 [label="transaction_adj_amt <= 0.27\ngini = 0.33\nsamples = 249\nvalue = [311, 84]", fillcolor="#eca36e"] ;
344 -> 345 ;
346 [label="inital_amount <= -0.24\ngini = 0.44\nsamples = 67\nvalue = [80, 39]", fillcolor="#f2be9a"] ;
345 -> 346 ;
347 [label="gini = 0.48\nsamples = 23\nvalue = [16, 24]", fillcolor="#bddef6"] ;
346 -> 347 ;
348 [label="acc_age <= -0.85\ngini = 0.31\nsamples = 44\nvalue = [64, 15]", fillcolor="#eb9f67"] ;
346 -> 348 ;
349 [label="gini = 0.15\nsamples = 15\nvalue = [23, 2]", fillcolor="#e78c4a"] ;
348 -> 349 ;
350 [label="gini = 0.37\nsamples = 29\nvalue = [41, 13]", fillcolor="#eda978"] ;
348 -> 350 ;
351 [label="acc_age <= 0.96\ngini = 0.27\nsamples = 182\nvalue = [231, 45]", fillcolor="#ea9a60"] ;
345 -> 351 ;
352 [label="historic_velocity <= 0.28\ngini = 0.24\nsamples = 162\nvalue = [213, 34]", fillcolor="#e99559"] ;
351 -> 352 ;
353 [label="historic_velocity <= -0.29\ngini = 0.29\nsamples = 112\nvalue = [141, 30]", fillcolor="#eb9c63"] ;
352 -> 353 ;
354 [label="historic_velocity <= -0.62\ngini = 0.2\nsamples = 76\nvalue = [97, 12]", fillcolor="#e89151"] ;
353 -> 354 ;
355 [label="inital_amount <= -0.5\ngini = 0.3\nsamples = 44\nvalue = [54, 12]", fillcolor="#eb9d65"] ;
354 -> 355 ;
356 [label="gini = 0.07\nsamples = 18\nvalue = [28, 1]", fillcolor="#e68640"] ;
355 -> 356 ;
357 [label="gini = 0.42\nsamples = 26\nvalue = [26, 11]", fillcolor="#f0b68d"] ;
355 -> 357 ;
358 [label="gini = 0.0\nsamples = 32\nvalue = [43, 0]", fillcolor="#e58139"] ;
354 -> 358 ;
359 [label="inital_amount <= -0.45\ngini = 0.41\nsamples = 36\nvalue = [44, 18]", fillcolor="#f0b58a"] ;
353 -> 359 ;
360 [label="gini = 0.27\nsamples = 16\nvalue = [26, 5]", fillcolor="#ea995f"] ;
359 -> 360 ;
361 [label="gini = 0.49\nsamples = 20\nvalue = [18, 13]", fillcolor="#f8dcc8"] ;
359 -> 361 ;
362 [label="inital_amount <= -1.05\ngini = 0.1\nsamples = 50\nvalue = [72, 4]", fillcolor="#e68844"] ;
352 -> 362 ;
363 [label="gini = 0.26\nsamples = 15\nvalue = [17, 3]", fillcolor="#ea975c"] ;
362 -> 363 ;
364 [label="acc_age <= 0.05\ngini = 0.04\nsamples = 35\nvalue = [55, 1]", fillcolor="#e5833d"] ;
362 -> 364 ;
365 [label="gini = 0.08\nsamples = 16\nvalue = [23, 1]", fillcolor="#e68642"] ;
364 -> 365 ;
366 [label="gini = 0.0\nsamples = 19\nvalue = [32, 0]", fillcolor="#e58139"] ;
364 -> 366 ;
367 [label="gini = 0.47\nsamples = 20\nvalue = [18, 11]", fillcolor="#f5ceb2"] ;
351 -> 367 ;
368 [label="inital_amount <= 1.06\ngini = 0.27\nsamples = 388\nvalue = [492, 92]", fillcolor="#ea995e"] ;
344 -> 368 ;
369 [label="transaction_adj_amt <= 0.43\ngini = 0.3\nsamples = 310\nvalue = [382, 84]", fillcolor="#eb9d65"] ;
368 -> 369 ;
370 [label="d_last_logon <= 0.37\ngini = 0.47\nsamples = 100\nvalue = [94, 57]", fillcolor="#f5cdb1"] ;
369 -> 370 ;
371 [label="inital_amount <= -0.2\ngini = 0.37\nsamples = 31\nvalue = [34, 11]", fillcolor="#edaa79"] ;
370 -> 371 ;
372 [label="gini = 0.18\nsamples = 15\nvalue = [18, 2]", fillcolor="#e88f4f"] ;
371 -> 372 ;
373 [label="gini = 0.46\nsamples = 16\nvalue = [16, 9]", fillcolor="#f4c8a8"] ;
371 -> 373 ;
374 [label="inital_amount <= 0.41\ngini = 0.49\nsamples = 69\nvalue = [60, 46]", fillcolor="#f9e2d1"] ;
370 -> 374 ;
375 [label="inital_amount <= -0.6\ngini = 0.5\nsamples = 45\nvalue = [35, 38]", fillcolor="#eff7fd"] ;
374 -> 375 ;
376 [label="gini = 0.45\nsamples = 29\nvalue = [28, 15]", fillcolor="#f3c4a3"] ;
375 -> 376 ;
377 [label="gini = 0.36\nsamples = 16\nvalue = [7, 23]", fillcolor="#75bbed"] ;
375 -> 377 ;
378 [label="gini = 0.37\nsamples = 24\nvalue = [25, 8]", fillcolor="#eda978"] ;
374 -> 378 ;
379 [label="transaction_adj_amt <= 0.98\ngini = 0.16\nsamples = 210\nvalue = [288, 27]", fillcolor="#e78d4c"] ;
369 -> 379 ;
380 [label="inital_amount <= 0.57\ngini = 0.22\nsamples = 127\nvalue = [171, 24]", fillcolor="#e99355"] ;
379 -> 380 ;
381 [label="transaction_amt <= -0.53\ngini = 0.17\nsamples = 104\nvalue = [150, 15]", fillcolor="#e88e4d"] ;
380 -> 381 ;
382 [label="transaction_adj_amt <= 0.66\ngini = 0.29\nsamples = 32\nvalue = [46, 10]", fillcolor="#eb9c64"] ;
381 -> 382 ;
383 [label="gini = 0.17\nsamples = 15\nvalue = [20, 2]", fillcolor="#e88e4d"] ;
382 -> 383 ;
384 [label="gini = 0.36\nsamples = 17\nvalue = [26, 8]", fillcolor="#eda876"] ;
382 -> 384 ;
385 [label="transaction_amt <= -0.2\ngini = 0.09\nsamples = 72\nvalue = [104, 5]", fillcolor="#e68743"] ;
381 -> 385 ;
386 [label="inital_amount <= -0.8\ngini = 0.11\nsamples = 56\nvalue = [79, 5]", fillcolor="#e78946"] ;
385 -> 386 ;
387 [label="gini = 0.05\nsamples = 25\nvalue = [35, 1]", fillcolor="#e6853f"] ;
386 -> 387 ;
388 [label="historic_velocity <= 0.08\ngini = 0.15\nsamples = 31\nvalue = [44, 4]", fillcolor="#e78c4b"] ;
386 -> 388 ;
389 [label="gini = 0.07\nsamples = 15\nvalue = [25, 1]", fillcolor="#e68641"] ;
388 -> 389 ;
390 [label="gini = 0.24\nsamples = 16\nvalue = [19, 3]", fillcolor="#e99558"] ;
388 -> 390 ;
391 [label="gini = 0.0\nsamples = 16\nvalue = [25, 0]", fillcolor="#e58139"] ;
385 -> 391 ;
392 [label="gini = 0.42\nsamples = 23\nvalue = [21, 9]", fillcolor="#f0b78e"] ;
380 -> 392 ;
393 [label="historic_velocity <= 0.28\ngini = 0.05\nsamples = 83\nvalue = [117, 3]", fillcolor="#e6843e"] ;
379 -> 393 ;
394 [label="inital_amount <= 0.19\ngini = 0.02\nsamples = 59\nvalue = [85, 1]", fillcolor="#e5823b"] ;
393 -> 394 ;
395 [label="gini = 0.0\nsamples = 44\nvalue = [58, 0]", fillcolor="#e58139"] ;
394 -> 395 ;
396 [label="gini = 0.07\nsamples = 15\nvalue = [27, 1]", fillcolor="#e68640"] ;
394 -> 396 ;
397 [label="gini = 0.11\nsamples = 24\nvalue = [32, 2]", fillcolor="#e78945"] ;
393 -> 397 ;
398 [label="transaction_adj_amt <= 0.82\ngini = 0.13\nsamples = 78\nvalue = [110, 8]", fillcolor="#e78a47"] ;
368 -> 398 ;
399 [label="transaction_amt <= -0.33\ngini = 0.2\nsamples = 50\nvalue = [64, 8]", fillcolor="#e89152"] ;
398 -> 399 ;
400 [label="historic_velocity <= -0.13\ngini = 0.31\nsamples = 30\nvalue = [33, 8]", fillcolor="#eba069"] ;
399 -> 400 ;
401 [label="gini = 0.33\nsamples = 15\nvalue = [15, 4]", fillcolor="#eca36e"] ;
400 -> 401 ;
402 [label="gini = 0.3\nsamples = 15\nvalue = [18, 4]", fillcolor="#eb9d65"] ;
400 -> 402 ;
403 [label="gini = 0.0\nsamples = 20\nvalue = [31, 0]", fillcolor="#e58139"] ;
399 -> 403 ;
404 [label="gini = 0.0\nsamples = 28\nvalue = [46, 0]", fillcolor="#e58139"] ;
398 -> 404 ;
405 [label="gini = 0.5\nsamples = 16\nvalue = [13, 12]", fillcolor="#fdf5f0"] ;
337 -> 405 ;
406 [label="transaction_adj_amt <= 0.43\ngini = 0.45\nsamples = 1960\nvalue = [2054, 1077]", fillcolor="#f3c3a1"] ;
240 -> 406 ;
407 [label="transaction_adj_amt <= 0.04\ngini = 0.49\nsamples = 746\nvalue = [542, 671]", fillcolor="#d9ecfa"] ;
406 -> 407 ;
408 [label="historic_velocity <= 0.33\ngini = 0.44\nsamples = 240\nvalue = [125, 261]", fillcolor="#98ccf1"] ;
407 -> 408 ;
409 [label="historic_velocity <= -1.23\ngini = 0.34\nsamples = 129\nvalue = [46, 162]", fillcolor="#71b9ec"] ;
408 -> 409 ;
410 [label="gini = 0.41\nsamples = 15\nvalue = [15, 6]", fillcolor="#efb388"] ;
409 -> 410 ;
411 [label="acc_age <= 0.05\ngini = 0.28\nsamples = 114\nvalue = [31, 156]", fillcolor="#60b0ea"] ;
409 -> 411 ;
412 [label="transaction_adj_amt <= -0.04\ngini = 0.41\nsamples = 37\nvalue = [19, 48]", fillcolor="#87c4ef"] ;
411 -> 412 ;
413 [label="gini = 0.46\nsamples = 21\nvalue = [15, 27]", fillcolor="#a7d3f3"] ;
412 -> 413 ;
414 [label="gini = 0.27\nsamples = 16\nvalue = [4, 21]", fillcolor="#5fb0ea"] ;
412 -> 414 ;
415 [label="transaction_amt <= 0.23\ngini = 0.18\nsamples = 77\nvalue = [12, 108]", fillcolor="#4fa8e8"] ;
411 -> 415 ;
416 [label="gini = 0.4\nsamples = 15\nvalue = [6, 16]", fillcolor="#83c2ef"] ;
415 -> 416 ;
417 [label="transaction_amt <= 0.88\ngini = 0.11\nsamples = 62\nvalue = [6, 92]", fillcolor="#46a3e7"] ;
415 -> 417 ;
418 [label="acc_age <= 0.96\ngini = 0.2\nsamples = 36\nvalue = [6, 48]", fillcolor="#52a9e8"] ;
417 -> 418 ;
419 [label="gini = 0.06\nsamples = 21\nvalue = [1, 31]", fillcolor="#3fa0e6"] ;
418 -> 419 ;
420 [label="gini = 0.35\nsamples = 15\nvalue = [5, 17]", fillcolor="#73baed"] ;
418 -> 420 ;
421 [label="gini = 0.0\nsamples = 26\nvalue = [0, 44]", fillcolor="#399de5"] ;
417 -> 421 ;
422 [label="inital_amount <= -0.42\ngini = 0.49\nsamples = 111\nvalue = [79, 99]", fillcolor="#d7ebfa"] ;
408 -> 422 ;
423 [label="inital_amount <= -0.82\ngini = 0.48\nsamples = 39\nvalue = [39, 25]", fillcolor="#f6d2b8"] ;
422 -> 423 ;
424 [label="gini = 0.5\nsamples = 24\nvalue = [22, 19]", fillcolor="#fbeee4"] ;
423 -> 424 ;
425 [label="gini = 0.39\nsamples = 15\nvalue = [17, 6]", fillcolor="#eead7f"] ;
423 -> 425 ;
426 [label="transaction_adj_amt <= -0.04\ngini = 0.46\nsamples = 72\nvalue = [40, 74]", fillcolor="#a4d2f3"] ;
422 -> 426 ;
427 [label="inital_amount <= 0.47\ngini = 0.27\nsamples = 30\nvalue = [8, 42]", fillcolor="#5fb0ea"] ;
426 -> 427 ;
428 [label="gini = 0.21\nsamples = 15\nvalue = [3, 22]", fillcolor="#54aae9"] ;
427 -> 428 ;
429 [label="gini = 0.32\nsamples = 15\nvalue = [5, 20]", fillcolor="#6ab6ec"] ;
427 -> 429 ;
430 [label="d_last_logon <= -0.34\ngini = 0.5\nsamples = 42\nvalue = [32, 32]", fillcolor="#ffffff"] ;
426 -> 430 ;
431 [label="gini = 0.46\nsamples = 19\nvalue = [10, 18]", fillcolor="#a7d3f3"] ;
430 -> 431 ;
432 [label="gini = 0.48\nsamples = 23\nvalue = [22, 14]", fillcolor="#f6d1b7"] ;
430 -> 432 ;
433 [label="transaction_amt <= 1.84\ngini = 0.5\nsamples = 506\nvalue = [417, 410]", fillcolor="#fffdfc"] ;
407 -> 433 ;
434 [label="historic_velocity <= 0.57\ngini = 0.5\nsamples = 472\nvalue = [408, 364]", fillcolor="#fcf1ea"] ;
433 -> 434 ;
435 [label="transaction_amt <= 0.36\ngini = 0.5\nsamples = 279\nvalue = [212, 257]", fillcolor="#dceefa"] ;
434 -> 435 ;
436 [label="d_last_logon <= -0.34\ngini = 0.48\nsamples = 95\nvalue = [91, 64]", fillcolor="#f7dac4"] ;
435 -> 436 ;
437 [label="transaction_amt <= 0.18\ngini = 0.49\nsamples = 38\nvalue = [25, 35]", fillcolor="#c6e3f8"] ;
436 -> 437 ;
438 [label="gini = 0.49\nsamples = 23\nvalue = [21, 15]", fillcolor="#f8dbc6"] ;
437 -> 438 ;
439 [label="gini = 0.28\nsamples = 15\nvalue = [4, 20]", fillcolor="#61b1ea"] ;
437 -> 439 ;
440 [label="acc_age <= -0.85\ngini = 0.42\nsamples = 57\nvalue = [66, 29]", fillcolor="#f0b890"] ;
436 -> 440 ;
441 [label="gini = 0.08\nsamples = 18\nvalue = [24, 1]", fillcolor="#e68641"] ;
440 -> 441 ;
442 [label="inital_amount <= 0.33\ngini = 0.48\nsamples = 39\nvalue = [42, 28]", fillcolor="#f6d5bd"] ;
440 -> 442 ;
443 [label="gini = 0.41\nsamples = 18\nvalue = [25, 10]", fillcolor="#efb388"] ;
442 -> 443 ;
444 [label="gini = 0.5\nsamples = 21\nvalue = [17, 18]", fillcolor="#f4fafe"] ;
442 -> 444 ;
445 [label="d_last_logon <= 1.07\ngini = 0.47\nsamples = 184\nvalue = [121, 193]", fillcolor="#b5daf5"] ;
435 -> 445 ;
446 [label="d_last_logon <= 0.37\ngini = 0.49\nsamples = 152\nvalue = [106, 147]", fillcolor="#c8e4f8"] ;
445 -> 446 ;
447 [label="acc_age <= 0.05\ngini = 0.46\nsamples = 109\nvalue = [66, 117]", fillcolor="#a9d4f4"] ;
446 -> 447 ;
448 [label="historic_velocity <= -0.09\ngini = 0.45\nsamples = 41\nvalue = [50, 26]", fillcolor="#f3c3a0"] ;
447 -> 448 ;
449 [label="gini = 0.48\nsamples = 24\nvalue = [29, 19]", fillcolor="#f6d4bb"] ;
448 -> 449 ;
450 [label="gini = 0.38\nsamples = 17\nvalue = [21, 7]", fillcolor="#eeab7b"] ;
448 -> 450 ;
451 [label="acc_age <= 0.96\ngini = 0.25\nsamples = 68\nvalue = [16, 91]", fillcolor="#5caeea"] ;
447 -> 451 ;
452 [label="historic_velocity <= -0.22\ngini = 0.33\nsamples = 45\nvalue = [14, 52]", fillcolor="#6eb7ec"] ;
451 -> 452 ;
453 [label="gini = 0.06\nsamples = 24\nvalue = [1, 33]", fillcolor="#3fa0e6"] ;
452 -> 453 ;
454 [label="gini = 0.48\nsamples = 21\nvalue = [13, 19]", fillcolor="#c0e0f7"] ;
452 -> 454 ;
455 [label="gini = 0.09\nsamples = 23\nvalue = [2, 39]", fillcolor="#43a2e6"] ;
451 -> 455 ;
456 [label="acc_age <= 0.05\ngini = 0.49\nsamples = 43\nvalue = [40, 30]", fillcolor="#f8e0ce"] ;
446 -> 456 ;
457 [label="gini = 0.14\nsamples = 15\nvalue = [25, 2]", fillcolor="#e78b49"] ;
456 -> 457 ;
458 [label="gini = 0.45\nsamples = 28\nvalue = [15, 28]", fillcolor="#a3d2f3"] ;
456 -> 458 ;
459 [label="transaction_amt <= 0.67\ngini = 0.37\nsamples = 32\nvalue = [15, 46]", fillcolor="#7abded"] ;
445 -> 459 ;
460 [label="gini = 0.46\nsamples = 16\nvalue = [12, 21]", fillcolor="#aad5f4"] ;
459 -> 460 ;
461 [label="gini = 0.19\nsamples = 16\nvalue = [3, 25]", fillcolor="#51a9e8"] ;
459 -> 461 ;
462 [label="d_last_logon <= 1.07\ngini = 0.46\nsamples = 193\nvalue = [196, 107]", fillcolor="#f3c6a5"] ;
434 -> 462 ;
463 [label="d_last_logon <= -0.34\ngini = 0.43\nsamples = 152\nvalue = [164, 76]", fillcolor="#f1bb95"] ;
462 -> 463 ;
464 [label="inital_amount <= -0.56\ngini = 0.49\nsamples = 76\nvalue = [69, 50]", fillcolor="#f8dcc8"] ;
463 -> 464 ;
465 [label="historic_velocity <= 1.07\ngini = 0.45\nsamples = 31\nvalue = [29, 15]", fillcolor="#f2c29f"] ;
464 -> 465 ;
466 [label="gini = 0.39\nsamples = 16\nvalue = [17, 6]", fillcolor="#eead7f"] ;
465 -> 466 ;
467 [label="gini = 0.49\nsamples = 15\nvalue = [12, 9]", fillcolor="#f8e0ce"] ;
465 -> 467 ;
468 [label="transaction_amt <= 1.15\ngini = 0.5\nsamples = 45\nvalue = [40, 35]", fillcolor="#fcefe6"] ;
464 -> 468 ;
469 [label="transaction_amt <= 0.37\ngini = 0.46\nsamples = 30\nvalue = [33, 19]", fillcolor="#f4caab"] ;
468 -> 469 ;
470 [label="gini = 0.47\nsamples = 15\nvalue = [16, 10]", fillcolor="#f5d0b5"] ;
469 -> 470 ;
471 [label="gini = 0.45\nsamples = 15\nvalue = [17, 9]", fillcolor="#f3c4a2"] ;
469 -> 471 ;
472 [label="gini = 0.42\nsamples = 15\nvalue = [7, 16]", fillcolor="#90c8f0"] ;
468 -> 472 ;
473 [label="historic_velocity <= 1.29\ngini = 0.34\nsamples = 76\nvalue = [95, 26]", fillcolor="#eca36f"] ;
463 -> 473 ;
474 [label="transaction_amt <= 0.77\ngini = 0.26\nsamples = 58\nvalue = [81, 15]", fillcolor="#ea985e"] ;
473 -> 474 ;
475 [label="inital_amount <= -0.13\ngini = 0.38\nsamples = 35\nvalue = [38, 13]", fillcolor="#eeac7d"] ;
474 -> 475 ;
476 [label="gini = 0.45\nsamples = 18\nvalue = [15, 8]", fillcolor="#f3c4a3"] ;
475 -> 476 ;
477 [label="gini = 0.29\nsamples = 17\nvalue = [23, 5]", fillcolor="#eb9c64"] ;
475 -> 477 ;
478 [label="gini = 0.08\nsamples = 23\nvalue = [43, 2]", fillcolor="#e68742"] ;
474 -> 478 ;
479 [label="gini = 0.49\nsamples = 18\nvalue = [14, 11]", fillcolor="#f9e4d5"] ;
473 -> 479 ;
480 [label="historic_velocity <= 0.74\ngini = 0.5\nsamples = 41\nvalue = [32, 31]", fillcolor="#fefbf9"] ;
462 -> 480 ;
481 [label="gini = 0.42\nsamples = 15\nvalue = [14, 6]", fillcolor="#f0b78e"] ;
480 -> 481 ;
482 [label="gini = 0.49\nsamples = 26\nvalue = [18, 25]", fillcolor="#c8e4f8"] ;
480 -> 482 ;
483 [label="d_last_logon <= -0.34\ngini = 0.27\nsamples = 34\nvalue = [9, 46]", fillcolor="#60b0ea"] ;
433 -> 483 ;
484 [label="gini = 0.26\nsamples = 18\nvalue = [5, 28]", fillcolor="#5caeea"] ;
483 -> 484 ;
485 [label="gini = 0.3\nsamples = 16\nvalue = [4, 18]", fillcolor="#65b3eb"] ;
483 -> 485 ;
486 [label="transaction_amt <= 0.85\ngini = 0.33\nsamples = 1214\nvalue = [1512, 406]", fillcolor="#eca36e"] ;
406 -> 486 ;
487 [label="transaction_amt <= 0.08\ngini = 0.3\nsamples = 757\nvalue = [980, 220]", fillcolor="#eb9d65"] ;
486 -> 487 ;
488 [label="d_last_logon <= 0.37\ngini = 0.4\nsamples = 130\nvalue = [145, 54]", fillcolor="#efb083"] ;
487 -> 488 ;
489 [label="transaction_adj_amt <= 0.98\ngini = 0.45\nsamples = 78\nvalue = [84, 43]", fillcolor="#f2c29e"] ;
488 -> 489 ;
490 [label="inital_amount <= -0.65\ngini = 0.5\nsamples = 36\nvalue = [28, 28]", fillcolor="#ffffff"] ;
489 -> 490 ;
491 [label="gini = 0.43\nsamples = 17\nvalue = [15, 7]", fillcolor="#f1bc95"] ;
490 -> 491 ;
492 [label="gini = 0.47\nsamples = 19\nvalue = [13, 21]", fillcolor="#b4daf5"] ;
490 -> 492 ;
493 [label="transaction_amt <= -0.02\ngini = 0.33\nsamples = 42\nvalue = [56, 15]", fillcolor="#eca36e"] ;
489 -> 493 ;
494 [label="gini = 0.13\nsamples = 18\nvalue = [27, 2]", fillcolor="#e78a48"] ;
493 -> 494 ;
495 [label="gini = 0.43\nsamples = 24\nvalue = [29, 13]", fillcolor="#f1b992"] ;
493 -> 495 ;
496 [label="transaction_amt <= -0.06\ngini = 0.26\nsamples = 52\nvalue = [61, 11]", fillcolor="#ea985d"] ;
488 -> 496 ;
497 [label="gini = 0.15\nsamples = 17\nvalue = [22, 2]", fillcolor="#e78c4b"] ;
496 -> 497 ;
498 [label="transaction_amt <= -0.01\ngini = 0.3\nsamples = 35\nvalue = [39, 9]", fillcolor="#eb9e67"] ;
496 -> 498 ;
499 [label="gini = 0.41\nsamples = 15\nvalue = [15, 6]", fillcolor="#efb388"] ;
498 -> 499 ;
500 [label="gini = 0.2\nsamples = 20\nvalue = [24, 3]", fillcolor="#e89152"] ;
498 -> 500 ;
501 [label="transaction_adj_amt <= 0.82\ngini = 0.28\nsamples = 627\nvalue = [835, 166]", fillcolor="#ea9a60"] ;
487 -> 501 ;
502 [label="historic_velocity <= -0.88\ngini = 0.4\nsamples = 224\nvalue = [266, 99]", fillcolor="#efb083"] ;
501 -> 502 ;
503 [label="gini = 0.1\nsamples = 25\nvalue = [34, 2]", fillcolor="#e78845"] ;
502 -> 503 ;
504 [label="d_last_logon <= -0.34\ngini = 0.42\nsamples = 199\nvalue = [232, 97]", fillcolor="#f0b68c"] ;
502 -> 504 ;
505 [label="inital_amount <= 1.14\ngini = 0.48\nsamples = 82\nvalue = [79, 52]", fillcolor="#f6d4bb"] ;
504 -> 505 ;
506 [label="acc_age <= 0.96\ngini = 0.49\nsamples = 66\nvalue = [60, 48]", fillcolor="#fae6d7"] ;
505 -> 506 ;
507 [label="inital_amount <= -0.41\ngini = 0.47\nsamples = 51\nvalue = [53, 33]", fillcolor="#f5cfb4"] ;
506 -> 507 ;
508 [label="inital_amount <= -0.98\ngini = 0.3\nsamples = 31\nvalue = [40, 9]", fillcolor="#eb9d66"] ;
507 -> 508 ;
509 [label="gini = 0.44\nsamples = 15\nvalue = [16, 8]", fillcolor="#f2c09c"] ;
508 -> 509 ;
510 [label="gini = 0.08\nsamples = 16\nvalue = [24, 1]", fillcolor="#e68641"] ;
508 -> 510 ;
511 [label="gini = 0.46\nsamples = 20\nvalue = [13, 24]", fillcolor="#a4d2f3"] ;
507 -> 511 ;
512 [label="gini = 0.43\nsamples = 15\nvalue = [7, 15]", fillcolor="#95cbf1"] ;
506 -> 512 ;
513 [label="gini = 0.29\nsamples = 16\nvalue = [19, 4]", fillcolor="#ea9c63"] ;
505 -> 513 ;
514 [label="transaction_adj_amt <= 0.59\ngini = 0.35\nsamples = 117\nvalue = [153, 45]", fillcolor="#eda673"] ;
504 -> 514 ;
515 [label="transaction_adj_amt <= 0.51\ngini = 0.42\nsamples = 51\nvalue = [59, 26]", fillcolor="#f0b990"] ;
514 -> 515 ;
516 [label="gini = 0.34\nsamples = 25\nvalue = [39, 11]", fillcolor="#eca571"] ;
515 -> 516 ;
517 [label="gini = 0.49\nsamples = 26\nvalue = [20, 15]", fillcolor="#f8e0ce"] ;
515 -> 517 ;
518 [label="transaction_amt <= 0.43\ngini = 0.28\nsamples = 66\nvalue = [94, 19]", fillcolor="#ea9a61"] ;
514 -> 518 ;
519 [label="historic_velocity <= 0.52\ngini = 0.06\nsamples = 37\nvalue = [64, 2]", fillcolor="#e6853f"] ;
518 -> 519 ;
520 [label="gini = 0.14\nsamples = 15\nvalue = [24, 2]", fillcolor="#e78c49"] ;
519 -> 520 ;
521 [label="gini = 0.0\nsamples = 22\nvalue = [40, 0]", fillcolor="#e58139"] ;
519 -> 521 ;
522 [label="gini = 0.46\nsamples = 29\nvalue = [30, 17]", fillcolor="#f4c8a9"] ;
518 -> 522 ;
523 [label="historic_velocity <= 1.43\ngini = 0.19\nsamples = 403\nvalue = [569, 67]", fillcolor="#e89050"] ;
501 -> 523 ;
524 [label="transaction_adj_amt <= 1.21\ngini = 0.22\nsamples = 348\nvalue = [476, 67]", fillcolor="#e99355"] ;
523 -> 524 ;
525 [label="inital_amount <= -0.53\ngini = 0.27\nsamples = 164\nvalue = [214, 41]", fillcolor="#ea995f"] ;
524 -> 525 ;
526 [label="inital_amount <= -1.35\ngini = 0.11\nsamples = 53\nvalue = [79, 5]", fillcolor="#e78946"] ;
525 -> 526 ;
527 [label="gini = 0.29\nsamples = 19\nvalue = [24, 5]", fillcolor="#ea9b62"] ;
526 -> 527 ;
528 [label="gini = 0.0\nsamples = 34\nvalue = [55, 0]", fillcolor="#e58139"] ;
526 -> 528 ;
529 [label="transaction_amt <= 0.39\ngini = 0.33\nsamples = 111\nvalue = [135, 36]", fillcolor="#eca36e"] ;
525 -> 529 ;
530 [label="d_last_logon <= -0.34\ngini = 0.43\nsamples = 33\nvalue = [38, 17]", fillcolor="#f1b992"] ;
529 -> 530 ;
531 [label="gini = 0.2\nsamples = 15\nvalue = [24, 3]", fillcolor="#e89152"] ;
530 -> 531 ;
532 [label="gini = 0.5\nsamples = 18\nvalue = [14, 14]", fillcolor="#ffffff"] ;
530 -> 532 ;
533 [label="inital_amount <= 0.04\ngini = 0.27\nsamples = 78\nvalue = [97, 19]", fillcolor="#ea9a60"] ;
529 -> 533 ;
534 [label="gini = 0.44\nsamples = 22\nvalue = [24, 12]", fillcolor="#f2c09c"] ;
533 -> 534 ;
535 [label="transaction_amt <= 0.7\ngini = 0.16\nsamples = 56\nvalue = [73, 7]", fillcolor="#e78d4c"] ;
533 -> 535 ;
536 [label="transaction_adj_amt <= 0.98\ngini = 0.1\nsamples = 41\nvalue = [54, 3]", fillcolor="#e68844"] ;
535 -> 536 ;
537 [label="gini = 0.24\nsamples = 17\nvalue = [19, 3]", fillcolor="#e99558"] ;
536 -> 537 ;
538 [label="gini = 0.0\nsamples = 24\nvalue = [35, 0]", fillcolor="#e58139"] ;
536 -> 538 ;
539 [label="gini = 0.29\nsamples = 15\nvalue = [19, 4]", fillcolor="#ea9c63"] ;
535 -> 539 ;
540 [label="d_last_logon <= -0.34\ngini = 0.16\nsamples = 184\nvalue = [262, 26]", fillcolor="#e88e4d"] ;
524 -> 540 ;
541 [label="inital_amount <= 0.43\ngini = 0.08\nsamples = 76\nvalue = [116, 5]", fillcolor="#e68642"] ;
540 -> 541 ;
542 [label="gini = 0.0\nsamples = 40\nvalue = [72, 0]", fillcolor="#e58139"] ;
541 -> 542 ;
543 [label="historic_velocity <= 0.43\ngini = 0.18\nsamples = 36\nvalue = [44, 5]", fillcolor="#e88f50"] ;
541 -> 543 ;
544 [label="gini = 0.33\nsamples = 15\nvalue = [15, 4]", fillcolor="#eca36e"] ;
543 -> 544 ;
545 [label="gini = 0.06\nsamples = 21\nvalue = [29, 1]", fillcolor="#e68540"] ;
543 -> 545 ;
546 [label="transaction_amt <= 0.17\ngini = 0.22\nsamples = 108\nvalue = [146, 21]", fillcolor="#e99355"] ;
540 -> 546 ;
547 [label="gini = 0.44\nsamples = 17\nvalue = [18, 9]", fillcolor="#f2c09c"] ;
546 -> 547 ;
548 [label="transaction_adj_amt <= 1.36\ngini = 0.16\nsamples = 91\nvalue = [128, 12]", fillcolor="#e78d4c"] ;
546 -> 548 ;
549 [label="gini = 0.29\nsamples = 25\nvalue = [33, 7]", fillcolor="#eb9c63"] ;
548 -> 549 ;
550 [label="historic_velocity <= 0.68\ngini = 0.09\nsamples = 66\nvalue = [95, 5]", fillcolor="#e68843"] ;
548 -> 550 ;
551 [label="gini = 0.0\nsamples = 39\nvalue = [56, 0]", fillcolor="#e58139"] ;
550 -> 551 ;
552 [label="gini = 0.2\nsamples = 27\nvalue = [39, 5]", fillcolor="#e89152"] ;
550 -> 552 ;
553 [label="gini = 0.0\nsamples = 55\nvalue = [93, 0]", fillcolor="#e58139"] ;
523 -> 553 ;
554 [label="historic_velocity <= 0.22\ngini = 0.38\nsamples = 457\nvalue = [532, 186]", fillcolor="#eead7e"] ;
486 -> 554 ;
555 [label="acc_age <= 0.96\ngini = 0.5\nsamples = 118\nvalue = [88, 81]", fillcolor="#fdf5ef"] ;
554 -> 555 ;
556 [label="transaction_amt <= 0.95\ngini = 0.44\nsamples = 80\nvalue = [77, 37]", fillcolor="#f1be98"] ;
555 -> 556 ;
557 [label="gini = 0.48\nsamples = 15\nvalue = [9, 13]", fillcolor="#c2e1f7"] ;
556 -> 557 ;
558 [label="inital_amount <= 0.43\ngini = 0.39\nsamples = 65\nvalue = [68, 24]", fillcolor="#eead7f"] ;
556 -> 558 ;
559 [label="historic_velocity <= -0.46\ngini = 0.25\nsamples = 39\nvalue = [46, 8]", fillcolor="#ea975b"] ;
558 -> 559 ;
560 [label="gini = 0.42\nsamples = 15\nvalue = [14, 6]", fillcolor="#f0b78e"] ;
559 -> 560 ;
561 [label="gini = 0.11\nsamples = 24\nvalue = [32, 2]", fillcolor="#e78945"] ;
559 -> 561 ;
562 [label="gini = 0.49\nsamples = 26\nvalue = [22, 16]", fillcolor="#f8ddc9"] ;
558 -> 562 ;
563 [label="historic_velocity <= -0.11\ngini = 0.32\nsamples = 38\nvalue = [11, 44]", fillcolor="#6ab6ec"] ;
555 -> 563 ;
564 [label="gini = 0.17\nsamples = 22\nvalue = [3, 28]", fillcolor="#4ea8e8"] ;
563 -> 564 ;
565 [label="gini = 0.44\nsamples = 16\nvalue = [8, 16]", fillcolor="#9ccef2"] ;
563 -> 565 ;
566 [label="d_last_logon <= -0.34\ngini = 0.31\nsamples = 339\nvalue = [444, 105]", fillcolor="#eb9f68"] ;
554 -> 566 ;
567 [label="historic_velocity <= 0.91\ngini = 0.23\nsamples = 144\nvalue = [211, 33]", fillcolor="#e99558"] ;
566 -> 567 ;
568 [label="transaction_amt <= 1.23\ngini = 0.36\nsamples = 51\nvalue = [76, 23]", fillcolor="#eda775"] ;
567 -> 568 ;
569 [label="gini = 0.45\nsamples = 23\nvalue = [28, 15]", fillcolor="#f3c4a3"] ;
568 -> 569 ;
570 [label="gini = 0.24\nsamples = 28\nvalue = [48, 8]", fillcolor="#e9965a"] ;
568 -> 570 ;
571 [label="acc_age <= 0.96\ngini = 0.13\nsamples = 93\nvalue = [135, 10]", fillcolor="#e78a48"] ;
567 -> 571 ;
572 [label="historic_velocity <= 1.24\ngini = 0.22\nsamples = 47\nvalue = [61, 9]", fillcolor="#e99456"] ;
571 -> 572 ;
573 [label="gini = 0.0\nsamples = 16\nvalue = [23, 0]", fillcolor="#e58139"] ;
572 -> 573 ;
574 [label="transaction_adj_amt <= 1.09\ngini = 0.31\nsamples = 31\nvalue = [38, 9]", fillcolor="#eb9f68"] ;
572 -> 574 ;
575 [label="gini = 0.42\nsamples = 15\nvalue = [16, 7]", fillcolor="#f0b890"] ;
574 -> 575 ;
576 [label="gini = 0.15\nsamples = 16\nvalue = [22, 2]", fillcolor="#e78c4b"] ;
574 -> 576 ;
577 [label="transaction_adj_amt <= 0.98\ngini = 0.03\nsamples = 46\nvalue = [74, 1]", fillcolor="#e5833c"] ;
571 -> 577 ;
578 [label="gini = 0.07\nsamples = 15\nvalue = [26, 1]", fillcolor="#e68641"] ;
577 -> 578 ;
579 [label="gini = 0.0\nsamples = 31\nvalue = [48, 0]", fillcolor="#e58139"] ;
577 -> 579 ;
580 [label="transaction_adj_amt <= 1.05\ngini = 0.36\nsamples = 195\nvalue = [233, 72]", fillcolor="#eda876"] ;
566 -> 580 ;
581 [label="inital_amount <= -0.73\ngini = 0.46\nsamples = 98\nvalue = [100, 56]", fillcolor="#f4c8a8"] ;
580 -> 581 ;
582 [label="transaction_amt <= 1.19\ngini = 0.33\nsamples = 30\nvalue = [41, 11]", fillcolor="#eca36e"] ;
581 -> 582 ;
583 [label="gini = 0.21\nsamples = 15\nvalue = [22, 3]", fillcolor="#e99254"] ;
582 -> 583 ;
584 [label="gini = 0.42\nsamples = 15\nvalue = [19, 8]", fillcolor="#f0b68c"] ;
582 -> 584 ;
585 [label="transaction_adj_amt <= 0.82\ngini = 0.49\nsamples = 68\nvalue = [59, 45]", fillcolor="#f9e1d0"] ;
581 -> 585 ;
586 [label="historic_velocity <= 0.87\ngini = 0.5\nsamples = 42\nvalue = [30, 34]", fillcolor="#e8f3fc"] ;
585 -> 586 ;
587 [label="gini = 0.39\nsamples = 17\nvalue = [7, 19]", fillcolor="#82c1ef"] ;
586 -> 587 ;
588 [label="gini = 0.48\nsamples = 25\nvalue = [23, 15]", fillcolor="#f6d3ba"] ;
586 -> 588 ;
589 [label="gini = 0.4\nsamples = 26\nvalue = [29, 11]", fillcolor="#efb184"] ;
585 -> 589 ;
590 [label="transaction_adj_amt <= 1.75\ngini = 0.19\nsamples = 97\nvalue = [133, 16]", fillcolor="#e89051"] ;
580 -> 590 ;
591 [label="transaction_adj_amt <= 1.52\ngini = 0.25\nsamples = 71\nvalue = [95, 16]", fillcolor="#e9965a"] ;
590 -> 591 ;
592 [label="transaction_amt <= 1.41\ngini = 0.17\nsamples = 49\nvalue = [69, 7]", fillcolor="#e88e4d"] ;
591 -> 592 ;
593 [label="historic_velocity <= 1.16\ngini = 0.08\nsamples = 34\nvalue = [45, 2]", fillcolor="#e68742"] ;
592 -> 593 ;
594 [label="gini = 0.0\nsamples = 19\nvalue = [25, 0]", fillcolor="#e58139"] ;
593 -> 594 ;
595 [label="gini = 0.17\nsamples = 15\nvalue = [20, 2]", fillcolor="#e88e4d"] ;
593 -> 595 ;
596 [label="gini = 0.29\nsamples = 15\nvalue = [24, 5]", fillcolor="#ea9b62"] ;
592 -> 596 ;
597 [label="gini = 0.38\nsamples = 22\nvalue = [26, 9]", fillcolor="#eead7e"] ;
591 -> 597 ;
598 [label="gini = 0.0\nsamples = 26\nvalue = [38, 0]", fillcolor="#e58139"] ;
590 -> 598 ;
}