digraph Tree {
node [shape=box, style="filled, rounded", color="black", fontname="helvetica"] ;
edge [fontname="helvetica"] ;
0 [label="transaction_type_X <= 0.5\ngini = 0.5\nsamples = 7141\nvalue = [5650, 5692]", fillcolor="#fefeff"] ;
1 [label="transaction_amt <= -0.57\ngini = 0.5\nsamples = 6756\nvalue = [5185, 5536]", fillcolor="#f2f9fd"] ;
0 -> 1 [labeldistance=2.5, labelangle=45, headlabel="True"] ;
2 [label="transaction_amt <= -1.0\ngini = 0.36\nsamples = 1817\nvalue = [2187, 683]", fillcolor="#eda877"] ;
1 -> 2 ;
3 [label="signature_image_Q <= 0.5\ngini = 0.29\nsamples = 1138\nvalue = [1470, 318]", fillcolor="#eb9c64"] ;
2 -> 3 ;
4 [label="acc_age <= -0.86\ngini = 0.28\nsamples = 1127\nvalue = [1466, 303]", fillcolor="#ea9b62"] ;
3 -> 4 ;
5 [label="cvv_U <= 0.5\ngini = 0.15\nsamples = 572\nvalue = [825, 75]", fillcolor="#e78c4b"] ;
4 -> 5 ;
6 [label="tranaction_initiate_B <= 0.5\ngini = 0.14\nsamples = 557\nvalue = [806, 68]", fillcolor="#e78c4a"] ;
5 -> 6 ;
7 [label="signature_image_S <= 0.5\ngini = 0.13\nsamples = 534\nvalue = [780, 61]", fillcolor="#e78b48"] ;
6 -> 7 ;
8 [label="transaction_env_S <= 0.5\ngini = 0.13\nsamples = 525\nvalue = [771, 56]", fillcolor="#e78a47"] ;
7 -> 8 ;
9 [label="gini = 0.12\nsamples = 520\nvalue = [768, 53]", fillcolor="#e78a47"] ;
8 -> 9 ;
10 [label="gini = 0.5\nsamples = 5\nvalue = [3, 3]", fillcolor="#ffffff"] ;
8 -> 10 ;
11 [label="transaction_type_F <= 0.5\ngini = 0.46\nsamples = 9\nvalue = [9, 5]", fillcolor="#f3c7a7"] ;
7 -> 11 ;
12 [label="gini = 0.22\nsamples = 6\nvalue = [7, 1]", fillcolor="#e99355"] ;
11 -> 12 ;
13 [label="gini = 0.44\nsamples = 3\nvalue = [2, 4]", fillcolor="#9ccef2"] ;
11 -> 13 ;
14 [label="transaction_type_I <= 0.5\ngini = 0.33\nsamples = 23\nvalue = [26, 7]", fillcolor="#eca36e"] ;
6 -> 14 ;
15 [label="transaction_type_V <= 0.5\ngini = 0.3\nsamples = 22\nvalue = [26, 6]", fillcolor="#eb9e67"] ;
14 -> 15 ;
16 [label="gini = 0.24\nsamples = 20\nvalue = [25, 4]", fillcolor="#e99559"] ;
15 -> 16 ;
17 [label="gini = 0.44\nsamples = 2\nvalue = [1, 2]", fillcolor="#9ccef2"] ;
15 -> 17 ;
18 [label="gini = 0.0\nsamples = 1\nvalue = [0, 1]", fillcolor="#399de5"] ;
14 -> 18 ;
19 [label="os_iPhone <= 0.5\ngini = 0.39\nsamples = 15\nvalue = [19, 7]", fillcolor="#efaf82"] ;
5 -> 19 ;
20 [label="signature_image_S <= 0.5\ngini = 0.29\nsamples = 13\nvalue = [19, 4]", fillcolor="#ea9c63"] ;
19 -> 20 ;
21 [label="month_Jul <= 0.5\ngini = 0.17\nsamples = 12\nvalue = [19, 2]", fillcolor="#e88e4e"] ;
20 -> 21 ;
22 [label="gini = 0.24\nsamples = 8\nvalue = [12, 2]", fillcolor="#e9965a"] ;
21 -> 22 ;
23 [label="gini = 0.0\nsamples = 4\nvalue = [7, 0]", fillcolor="#e58139"] ;
21 -> 23 ;
24 [label="gini = 0.0\nsamples = 1\nvalue = [0, 2]", fillcolor="#399de5"] ;
20 -> 24 ;
25 [label="gini = 0.0\nsamples = 2\nvalue = [0, 3]", fillcolor="#399de5"] ;
19 -> 25 ;
26 [label="cvv_O <= 0.5\ngini = 0.39\nsamples = 555\nvalue = [641, 228]", fillcolor="#eeae7f"] ;
4 -> 26 ;
27 [label="currency_eur <= 0.5\ngini = 0.38\nsamples = 530\nvalue = [624, 208]", fillcolor="#eeab7b"] ;
26 -> 27 ;
28 [label="transaction_type_Q <= 0.5\ngini = 0.36\nsamples = 512\nvalue = [618, 187]", fillcolor="#eda775"] ;
27 -> 28 ;
29 [label="transaction_env_U <= 0.5\ngini = 0.34\nsamples = 505\nvalue = [616, 175]", fillcolor="#eca571"] ;
28 -> 29 ;
30 [label="gini = 0.33\nsamples = 478\nvalue = [592, 157]", fillcolor="#eca26e"] ;
29 -> 30 ;
31 [label="gini = 0.49\nsamples = 27\nvalue = [24, 18]", fillcolor="#f8e0ce"] ;
29 -> 31 ;
32 [label="day_Tue <= 0.5\ngini = 0.24\nsamples = 7\nvalue = [2, 12]", fillcolor="#5aade9"] ;
28 -> 32 ;
33 [label="gini = 0.0\nsamples = 6\nvalue = [0, 12]", fillcolor="#399de5"] ;
32 -> 33 ;
34 [label="gini = 0.0\nsamples = 1\nvalue = [2, 0]", fillcolor="#e58139"] ;
32 -> 34 ;
35 [label="tranaction_initiate_T <= 0.5\ngini = 0.35\nsamples = 18\nvalue = [6, 21]", fillcolor="#72b9ec"] ;
27 -> 35 ;
36 [label="transaction_adj_amt <= 0.19\ngini = 0.4\nsamples = 14\nvalue = [6, 16]", fillcolor="#83c2ef"] ;
35 -> 36 ;
37 [label="gini = 0.0\nsamples = 12\nvalue = [0, 16]", fillcolor="#399de5"] ;
36 -> 37 ;
38 [label="gini = 0.0\nsamples = 2\nvalue = [6, 0]", fillcolor="#e58139"] ;
36 -> 38 ;
39 [label="gini = 0.0\nsamples = 4\nvalue = [0, 5]", fillcolor="#399de5"] ;
35 -> 39 ;
40 [label="signature_image_H <= 0.5\ngini = 0.5\nsamples = 25\nvalue = [17, 20]", fillcolor="#e1f0fb"] ;
26 -> 40 ;
41 [label="transaction_adj_amt <= -0.16\ngini = 0.5\nsamples = 20\nvalue = [16, 14]", fillcolor="#fcefe6"] ;
40 -> 41 ;
42 [label="gini = 0.0\nsamples = 8\nvalue = [0, 12]", fillcolor="#399de5"] ;
41 -> 42 ;
43 [label="signature_image_X <= 0.5\ngini = 0.2\nsamples = 12\nvalue = [16, 2]", fillcolor="#e89152"] ;
41 -> 43 ;
44 [label="gini = 0.0\nsamples = 11\nvalue = [16, 0]", fillcolor="#e58139"] ;
43 -> 44 ;
45 [label="gini = 0.0\nsamples = 1\nvalue = [0, 2]", fillcolor="#399de5"] ;
43 -> 45 ;
46 [label="gini = 0.24\nsamples = 5\nvalue = [1, 6]", fillcolor="#5aade9"] ;
40 -> 46 ;
47 [label="os_Linux <= 0.5\ngini = 0.33\nsamples = 11\nvalue = [4, 15]", fillcolor="#6eb7ec"] ;
3 -> 47 ;
48 [label="day_Wed <= 0.5\ngini = 0.13\nsamples = 7\nvalue = [1, 13]", fillcolor="#48a5e7"] ;
47 -> 48 ;
49 [label="gini = 0.18\nsamples = 5\nvalue = [1, 9]", fillcolor="#4fa8e8"] ;
48 -> 49 ;
50 [label="gini = 0.0\nsamples = 2\nvalue = [0, 4]", fillcolor="#399de5"] ;
48 -> 50 ;
51 [label="gini = 0.48\nsamples = 4\nvalue = [3, 2]", fillcolor="#f6d5bd"] ;
47 -> 51 ;
52 [label="signature_image_S <= 0.5\ngini = 0.45\nsamples = 679\nvalue = [717, 365]", fillcolor="#f2c19e"] ;
2 -> 52 ;
53 [label="transaction_type_J <= 0.5\ngini = 0.43\nsamples = 621\nvalue = [677, 312]", fillcolor="#f1bb94"] ;
52 -> 53 ;
54 [label="acc_age <= 0.05\ngini = 0.43\nsamples = 618\nvalue = [677, 305]", fillcolor="#f1ba92"] ;
53 -> 54 ;
55 [label="signature_image_N <= 0.5\ngini = 0.35\nsamples = 471\nvalue = [579, 166]", fillcolor="#eca572"] ;
54 -> 55 ;
56 [label="transaction_env_X <= 0.5\ngini = 0.34\nsamples = 462\nvalue = [577, 157]", fillcolor="#eca36f"] ;
55 -> 56 ;
57 [label="transaction_type_I <= 0.5\ngini = 0.35\nsamples = 415\nvalue = [504, 150]", fillcolor="#eda674"] ;
56 -> 57 ;
58 [label="gini = 0.34\nsamples = 368\nvalue = [460, 129]", fillcolor="#eca471"] ;
57 -> 58 ;
59 [label="gini = 0.44\nsamples = 47\nvalue = [44, 21]", fillcolor="#f1bd98"] ;
57 -> 59 ;
60 [label="day_Thu <= 0.5\ngini = 0.16\nsamples = 47\nvalue = [73, 7]", fillcolor="#e78d4c"] ;
56 -> 60 ;
61 [label="gini = 0.18\nsamples = 41\nvalue = [61, 7]", fillcolor="#e88f50"] ;
60 -> 61 ;
62 [label="gini = 0.0\nsamples = 6\nvalue = [12, 0]", fillcolor="#e58139"] ;
60 -> 62 ;
63 [label="transaction_type_U <= 0.5\ngini = 0.3\nsamples = 9\nvalue = [2, 9]", fillcolor="#65b3eb"] ;
55 -> 63 ;
64 [label="transaction_amt <= -0.81\ngini = 0.44\nsamples = 6\nvalue = [2, 4]", fillcolor="#9ccef2"] ;
63 -> 64 ;
65 [label="gini = 0.44\nsamples = 3\nvalue = [2, 1]", fillcolor="#f2c09c"] ;
64 -> 65 ;
66 [label="gini = 0.0\nsamples = 3\nvalue = [0, 3]", fillcolor="#399de5"] ;
64 -> 66 ;
67 [label="gini = 0.0\nsamples = 3\nvalue = [0, 5]", fillcolor="#399de5"] ;
63 -> 67 ;
68 [label="historic_velocity <= -0.42\ngini = 0.49\nsamples = 147\nvalue = [98, 139]", fillcolor="#c5e2f7"] ;
54 -> 68 ;
69 [label="cvv_U <= 0.5\ngini = 0.49\nsamples = 43\nvalue = [35, 25]", fillcolor="#f8dbc6"] ;
68 -> 69 ;
70 [label="transaction_adj_amt <= -0.0\ngini = 0.47\nsamples = 40\nvalue = [35, 21]", fillcolor="#f5cdb0"] ;
69 -> 70 ;
71 [label="gini = 0.18\nsamples = 15\nvalue = [2, 18]", fillcolor="#4fa8e8"] ;
70 -> 71 ;
72 [label="gini = 0.15\nsamples = 25\nvalue = [33, 3]", fillcolor="#e78c4b"] ;
70 -> 72 ;
73 [label="gini = 0.0\nsamples = 3\nvalue = [0, 4]", fillcolor="#399de5"] ;
69 -> 73 ;
74 [label="historic_velocity <= -0.06\ngini = 0.46\nsamples = 104\nvalue = [63, 114]", fillcolor="#a6d3f3"] ;
68 -> 74 ;
75 [label="transaction_type_G <= 0.5\ngini = 0.18\nsamples = 19\nvalue = [4, 35]", fillcolor="#50a8e8"] ;
74 -> 75 ;
76 [label="gini = 0.05\nsamples = 18\nvalue = [1, 35]", fillcolor="#3fa0e6"] ;
75 -> 76 ;
77 [label="gini = 0.0\nsamples = 1\nvalue = [3, 0]", fillcolor="#e58139"] ;
75 -> 77 ;
78 [label="currency_cad <= 0.5\ngini = 0.49\nsamples = 85\nvalue = [59, 79]", fillcolor="#cde6f8"] ;
74 -> 78 ;
79 [label="gini = 0.42\nsamples = 35\nvalue = [37, 16]", fillcolor="#f0b78f"] ;
78 -> 79 ;
80 [label="gini = 0.38\nsamples = 50\nvalue = [22, 63]", fillcolor="#7ebfee"] ;
78 -> 80 ;
81 [label="gini = 0.0\nsamples = 3\nvalue = [0, 7]", fillcolor="#399de5"] ;
53 -> 81 ;
82 [label="transaction_type_H <= 0.5\ngini = 0.49\nsamples = 58\nvalue = [40, 53]", fillcolor="#cee7f9"] ;
52 -> 82 ;
83 [label="inital_amount <= -1.51\ngini = 0.5\nsamples = 47\nvalue = [37, 37]", fillcolor="#ffffff"] ;
82 -> 83 ;
84 [label="gini = 0.0\nsamples = 4\nvalue = [7, 0]", fillcolor="#e58139"] ;
83 -> 84 ;
85 [label="transaction_type_S <= 0.5\ngini = 0.49\nsamples = 43\nvalue = [30, 37]", fillcolor="#daecfa"] ;
83 -> 85 ;
86 [label="transaction_amt <= -0.7\ngini = 0.5\nsamples = 39\nvalue = [30, 31]", fillcolor="#f9fcfe"] ;
85 -> 86 ;
87 [label="inital_amount <= 0.74\ngini = 0.46\nsamples = 23\nvalue = [21, 12]", fillcolor="#f4c9aa"] ;
86 -> 87 ;
88 [label="gini = 0.5\nsamples = 16\nvalue = [11, 11]", fillcolor="#ffffff"] ;
87 -> 88 ;
89 [label="gini = 0.17\nsamples = 7\nvalue = [10, 1]", fillcolor="#e88e4d"] ;
87 -> 89 ;
90 [label="tranaction_initiate_I <= 0.5\ngini = 0.44\nsamples = 16\nvalue = [9, 19]", fillcolor="#97cbf1"] ;
86 -> 90 ;
91 [label="gini = 0.47\nsamples = 15\nvalue = [9, 15]", fillcolor="#b0d8f5"] ;
90 -> 91 ;
92 [label="gini = 0.0\nsamples = 1\nvalue = [0, 4]", fillcolor="#399de5"] ;
90 -> 92 ;
93 [label="gini = 0.0\nsamples = 4\nvalue = [0, 6]", fillcolor="#399de5"] ;
85 -> 93 ;
94 [label="month_Feb <= 0.5\ngini = 0.27\nsamples = 11\nvalue = [3, 16]", fillcolor="#5eafea"] ;
82 -> 94 ;
95 [label="inital_amount <= 0.77\ngini = 0.3\nsamples = 9\nvalue = [3, 13]", fillcolor="#67b4eb"] ;
94 -> 95 ;
96 [label="gini = 0.0\nsamples = 6\nvalue = [0, 10]", fillcolor="#399de5"] ;
95 -> 96 ;
97 [label="gini = 0.5\nsamples = 3\nvalue = [3, 3]", fillcolor="#ffffff"] ;
95 -> 97 ;
98 [label="gini = 0.0\nsamples = 2\nvalue = [0, 3]", fillcolor="#399de5"] ;
94 -> 98 ;
99 [label="cvv_H <= 0.5\ngini = 0.47\nsamples = 4939\nvalue = [2998, 4853]", fillcolor="#b3daf5"] ;
1 -> 99 ;
100 [label="transaction_adj_amt <= -0.04\ngini = 0.48\nsamples = 4638\nvalue = [2938, 4438]", fillcolor="#bcdef6"] ;
99 -> 100 ;
101 [label="historic_velocity <= -0.59\ngini = 0.25\nsamples = 2521\nvalue = [583, 3472]", fillcolor="#5aade9"] ;
100 -> 101 ;
102 [label="transaction_amt <= -0.43\ngini = 0.19\nsamples = 784\nvalue = [134, 1104]", fillcolor="#51a9e8"] ;
101 -> 102 ;
103 [label="signature_image_X <= 0.5\ngini = 0.44\nsamples = 49\nvalue = [24, 51]", fillcolor="#96cbf1"] ;
102 -> 103 ;
104 [label="signature_image_N <= 0.5\ngini = 0.4\nsamples = 48\nvalue = [20, 51]", fillcolor="#87c3ef"] ;
103 -> 104 ;
105 [label="month_Jun <= 0.5\ngini = 0.44\nsamples = 44\nvalue = [20, 42]", fillcolor="#97ccf1"] ;
104 -> 105 ;
106 [label="gini = 0.46\nsamples = 39\nvalue = [20, 37]", fillcolor="#a4d2f3"] ;
105 -> 106 ;
107 [label="gini = 0.0\nsamples = 5\nvalue = [0, 5]", fillcolor="#399de5"] ;
105 -> 107 ;
108 [label="gini = 0.0\nsamples = 4\nvalue = [0, 9]", fillcolor="#399de5"] ;
104 -> 108 ;
109 [label="gini = 0.0\nsamples = 1\nvalue = [4, 0]", fillcolor="#e58139"] ;
103 -> 109 ;
110 [label="currency_cad <= 0.5\ngini = 0.17\nsamples = 735\nvalue = [110, 1053]", fillcolor="#4ea7e8"] ;
102 -> 110 ;
111 [label="cvv_G <= 0.5\ngini = 0.07\nsamples = 309\nvalue = [18, 473]", fillcolor="#41a1e6"] ;
110 -> 111 ;
112 [label="transaction_adj_amt <= -0.19\ngini = 0.06\nsamples = 258\nvalue = [12, 405]", fillcolor="#3fa0e6"] ;
111 -> 112 ;
113 [label="gini = 0.03\nsamples = 240\nvalue = [5, 385]", fillcolor="#3c9ee5"] ;
112 -> 113 ;
114 [label="gini = 0.38\nsamples = 18\nvalue = [7, 20]", fillcolor="#7ebfee"] ;
112 -> 114 ;
115 [label="transaction_amt <= -0.31\ngini = 0.15\nsamples = 51\nvalue = [6, 68]", fillcolor="#4aa6e7"] ;
111 -> 115 ;
116 [label="gini = 0.48\nsamples = 3\nvalue = [2, 3]", fillcolor="#bddef6"] ;
115 -> 116 ;
117 [label="gini = 0.11\nsamples = 48\nvalue = [4, 65]", fillcolor="#45a3e7"] ;
115 -> 117 ;
118 [label="tranaction_initiate_O <= 0.5\ngini = 0.24\nsamples = 426\nvalue = [92, 580]", fillcolor="#58ade9"] ;
110 -> 118 ;
119 [label="acc_age <= -1.77\ngini = 0.22\nsamples = 407\nvalue = [82, 563]", fillcolor="#56abe9"] ;
118 -> 119 ;
120 [label="gini = 0.0\nsamples = 18\nvalue = [28, 0]", fillcolor="#e58139"] ;
119 -> 120 ;
121 [label="gini = 0.16\nsamples = 389\nvalue = [54, 563]", fillcolor="#4ca6e7"] ;
119 -> 121 ;
122 [label="signature_image_I <= 0.5\ngini = 0.47\nsamples = 19\nvalue = [10, 17]", fillcolor="#add7f4"] ;
118 -> 122 ;
123 [label="gini = 0.35\nsamples = 17\nvalue = [5, 17]", fillcolor="#73baed"] ;
122 -> 123 ;
124 [label="gini = 0.0\nsamples = 2\nvalue = [5, 0]", fillcolor="#e58139"] ;
122 -> 124 ;
125 [label="cvv_C <= 0.5\ngini = 0.27\nsamples = 1737\nvalue = [449, 2368]", fillcolor="#5fb0ea"] ;
101 -> 125 ;
126 [label="transaction_type_S <= 0.5\ngini = 0.25\nsamples = 1611\nvalue = [385, 2230]", fillcolor="#5baee9"] ;
125 -> 126 ;
127 [label="signature_image_F <= 0.5\ngini = 0.27\nsamples = 1461\nvalue = [372, 1991]", fillcolor="#5eafea"] ;
126 -> 127 ;
128 [label="transaction_type_U <= 0.5\ngini = 0.25\nsamples = 1285\nvalue = [305, 1756]", fillcolor="#5baeea"] ;
127 -> 128 ;
129 [label="gini = 0.28\nsamples = 1095\nvalue = [295, 1476]", fillcolor="#61b1ea"] ;
128 -> 129 ;
130 [label="gini = 0.07\nsamples = 190\nvalue = [10, 280]", fillcolor="#40a0e6"] ;
128 -> 130 ;
131 [label="inital_amount <= -1.04\ngini = 0.35\nsamples = 176\nvalue = [67, 235]", fillcolor="#71b9ec"] ;
127 -> 131 ;
132 [label="gini = 0.18\nsamples = 40\nvalue = [8, 72]", fillcolor="#4fa8e8"] ;
131 -> 132 ;
133 [label="gini = 0.39\nsamples = 136\nvalue = [59, 163]", fillcolor="#81c0ee"] ;
131 -> 133 ;
134 [label="signature_image_U <= 0.5\ngini = 0.1\nsamples = 150\nvalue = [13, 239]", fillcolor="#44a2e6"] ;
126 -> 134 ;
135 [label="inital_amount <= -1.58\ngini = 0.11\nsamples = 133\nvalue = [13, 209]", fillcolor="#45a3e7"] ;
134 -> 135 ;
136 [label="gini = 0.41\nsamples = 9\nvalue = [4, 10]", fillcolor="#88c4ef"] ;
135 -> 136 ;
137 [label="gini = 0.08\nsamples = 124\nvalue = [9, 199]", fillcolor="#42a1e6"] ;
135 -> 137 ;
138 [label="gini = 0.0\nsamples = 17\nvalue = [0, 30]", fillcolor="#399de5"] ;
134 -> 138 ;
139 [label="signature_image_Z <= 0.5\ngini = 0.43\nsamples = 126\nvalue = [64, 138]", fillcolor="#95caf1"] ;
125 -> 139 ;
140 [label="transaction_adj_amt <= -0.9\ngini = 0.43\nsamples = 125\nvalue = [62, 138]", fillcolor="#92c9f1"] ;
139 -> 140 ;
141 [label="gini = 0.0\nsamples = 50\nvalue = [0, 87]", fillcolor="#399de5"] ;
140 -> 141 ;
142 [label="transaction_amt <= 0.03\ngini = 0.5\nsamples = 75\nvalue = [62, 51]", fillcolor="#fae9dc"] ;
140 -> 142 ;
143 [label="gini = 0.43\nsamples = 25\nvalue = [27, 12]", fillcolor="#f1b991"] ;
142 -> 143 ;
144 [label="gini = 0.5\nsamples = 50\nvalue = [35, 39]", fillcolor="#ebf5fc"] ;
142 -> 144 ;
145 [label="gini = 0.0\nsamples = 1\nvalue = [2, 0]", fillcolor="#e58139"] ;
139 -> 145 ;
146 [label="cvv_N <= 0.5\ngini = 0.41\nsamples = 2117\nvalue = [2355, 966]", fillcolor="#f0b58a"] ;
100 -> 146 ;
147 [label="transaction_type_W <= 0.5\ngini = 0.4\nsamples = 2076\nvalue = [2355, 907]", fillcolor="#efb285"] ;
146 -> 147 ;
148 [label="transaction_env_W <= 0.5\ngini = 0.41\nsamples = 1845\nvalue = [2046, 850]", fillcolor="#f0b58b"] ;
147 -> 148 ;
149 [label="transaction_type_C <= 0.5\ngini = 0.43\nsamples = 1601\nvalue = [1715, 796]", fillcolor="#f1bb95"] ;
148 -> 149 ;
150 [label="transaction_amt <= 0.31\ngini = 0.45\nsamples = 1458\nvalue = [1517, 769]", fillcolor="#f2c19d"] ;
149 -> 150 ;
151 [label="gini = 0.37\nsamples = 669\nvalue = [794, 256]", fillcolor="#edaa79"] ;
150 -> 151 ;
152 [label="gini = 0.49\nsamples = 789\nvalue = [723, 513]", fillcolor="#f7dac5"] ;
150 -> 152 ;
153 [label="acc_age <= 1.88\ngini = 0.21\nsamples = 143\nvalue = [198, 27]", fillcolor="#e99254"] ;
149 -> 153 ;
154 [label="gini = 0.17\nsamples = 135\nvalue = [193, 20]", fillcolor="#e88e4e"] ;
153 -> 154 ;
155 [label="gini = 0.49\nsamples = 8\nvalue = [5, 7]", fillcolor="#c6e3f8"] ;
153 -> 155 ;
156 [label="signature_image_S <= 0.5\ngini = 0.24\nsamples = 244\nvalue = [331, 54]", fillcolor="#e99659"] ;
148 -> 156 ;
157 [label="transaction_type_F <= 0.5\ngini = 0.22\nsamples = 214\nvalue = [299, 42]", fillcolor="#e99355"] ;
156 -> 157 ;
158 [label="gini = 0.23\nsamples = 195\nvalue = [259, 40]", fillcolor="#e99458"] ;
157 -> 158 ;
159 [label="gini = 0.09\nsamples = 19\nvalue = [40, 2]", fillcolor="#e68743"] ;
157 -> 159 ;
160 [label="transaction_adj_amt <= 0.16\ngini = 0.4\nsamples = 30\nvalue = [32, 12]", fillcolor="#efb083"] ;
156 -> 160 ;
161 [label="gini = 0.0\nsamples = 2\nvalue = [0, 5]", fillcolor="#399de5"] ;
160 -> 161 ;
162 [label="gini = 0.29\nsamples = 28\nvalue = [32, 7]", fillcolor="#eb9d64"] ;
160 -> 162 ;
163 [label="transaction_env_N <= 0.5\ngini = 0.26\nsamples = 231\nvalue = [309, 57]", fillcolor="#ea985e"] ;
147 -> 163 ;
164 [label="tranaction_initiate_P <= 0.5\ngini = 0.25\nsamples = 230\nvalue = [309, 54]", fillcolor="#ea975c"] ;
163 -> 164 ;
165 [label="transaction_env_D <= 0.5\ngini = 0.24\nsamples = 221\nvalue = [302, 48]", fillcolor="#e99558"] ;
164 -> 165 ;
166 [label="gini = 0.26\nsamples = 183\nvalue = [242, 44]", fillcolor="#ea985d"] ;
165 -> 166 ;
167 [label="gini = 0.12\nsamples = 38\nvalue = [60, 4]", fillcolor="#e78946"] ;
165 -> 167 ;
168 [label="historic_velocity <= 0.51\ngini = 0.5\nsamples = 9\nvalue = [7, 6]", fillcolor="#fbede3"] ;
164 -> 168 ;
169 [label="gini = 0.0\nsamples = 3\nvalue = [5, 0]", fillcolor="#e58139"] ;
168 -> 169 ;
170 [label="gini = 0.38\nsamples = 6\nvalue = [2, 6]", fillcolor="#7bbeee"] ;
168 -> 170 ;
171 [label="gini = 0.0\nsamples = 1\nvalue = [0, 3]", fillcolor="#399de5"] ;
163 -> 171 ;
172 [label="gini = 0.0\nsamples = 41\nvalue = [0, 59]", fillcolor="#399de5"] ;
146 -> 172 ;
173 [label="transaction_env_Q <= 0.5\ngini = 0.22\nsamples = 301\nvalue = [60, 415]", fillcolor="#56abe9"] ;
99 -> 173 ;
174 [label="transaction_env_N <= 0.5\ngini = 0.23\nsamples = 291\nvalue = [60, 400]", fillcolor="#57ace9"] ;
173 -> 174 ;
175 [label="inital_amount <= -1.44\ngini = 0.24\nsamples = 277\nvalue = [60, 380]", fillcolor="#58ace9"] ;
174 -> 175 ;
176 [label="transaction_env_X <= 0.5\ngini = 0.42\nsamples = 34\nvalue = [18, 43]", fillcolor="#8cc6f0"] ;
175 -> 176 ;
177 [label="os_Windows <= 0.5\ngini = 0.4\nsamples = 33\nvalue = [16, 43]", fillcolor="#83c1ef"] ;
176 -> 177 ;
178 [label="tranaction_initiate_B <= 0.5\ngini = 0.29\nsamples = 19\nvalue = [6, 28]", fillcolor="#63b2eb"] ;
177 -> 178 ;
179 [label="gini = 0.22\nsamples = 18\nvalue = [4, 28]", fillcolor="#55abe9"] ;
178 -> 179 ;
180 [label="gini = 0.0\nsamples = 1\nvalue = [2, 0]", fillcolor="#e58139"] ;
178 -> 180 ;
181 [label="transaction_adj_amt <= -0.94\ngini = 0.48\nsamples = 14\nvalue = [10, 15]", fillcolor="#bddef6"] ;
177 -> 181 ;
182 [label="gini = 0.0\nsamples = 6\nvalue = [0, 12]", fillcolor="#399de5"] ;
181 -> 182 ;
183 [label="gini = 0.36\nsamples = 8\nvalue = [10, 3]", fillcolor="#eda774"] ;
181 -> 183 ;
184 [label="gini = 0.0\nsamples = 1\nvalue = [2, 0]", fillcolor="#e58139"] ;
176 -> 184 ;
185 [label="transaction_type_I <= 0.5\ngini = 0.2\nsamples = 243\nvalue = [42, 337]", fillcolor="#52a9e8"] ;
175 -> 185 ;
186 [label="day_Mon <= 0.5\ngini = 0.17\nsamples = 212\nvalue = [31, 298]", fillcolor="#4ea7e8"] ;
185 -> 186 ;
187 [label="tranaction_initiate_F <= 0.5\ngini = 0.15\nsamples = 183\nvalue = [23, 265]", fillcolor="#4aa6e7"] ;
186 -> 187 ;
188 [label="gini = 0.13\nsamples = 178\nvalue = [20, 262]", fillcolor="#48a4e7"] ;
187 -> 188 ;
189 [label="gini = 0.5\nsamples = 5\nvalue = [3, 3]", fillcolor="#ffffff"] ;
187 -> 189 ;
190 [label="inital_amount <= -1.34\ngini = 0.31\nsamples = 29\nvalue = [8, 33]", fillcolor="#69b5eb"] ;
186 -> 190 ;
191 [label="gini = 0.0\nsamples = 1\nvalue = [2, 0]", fillcolor="#e58139"] ;
190 -> 191 ;
192 [label="gini = 0.26\nsamples = 28\nvalue = [6, 33]", fillcolor="#5dafea"] ;
190 -> 192 ;
193 [label="transaction_adj_amt <= 0.55\ngini = 0.34\nsamples = 31\nvalue = [11, 39]", fillcolor="#71b9ec"] ;
185 -> 193 ;
194 [label="signature_image_V <= 0.5\ngini = 0.09\nsamples = 27\nvalue = [2, 38]", fillcolor="#43a2e6"] ;
193 -> 194 ;
195 [label="gini = 0.06\nsamples = 23\nvalue = [1, 34]", fillcolor="#3fa0e6"] ;
194 -> 195 ;
196 [label="gini = 0.32\nsamples = 4\nvalue = [1, 4]", fillcolor="#6ab6ec"] ;
194 -> 196 ;
197 [label="gini = 0.18\nsamples = 4\nvalue = [9, 1]", fillcolor="#e88f4f"] ;
193 -> 197 ;
198 [label="gini = 0.0\nsamples = 14\nvalue = [0, 20]", fillcolor="#399de5"] ;
174 -> 198 ;
199 [label="gini = 0.0\nsamples = 10\nvalue = [0, 15]", fillcolor="#399de5"] ;
173 -> 199 ;
200 [label="historic_velocity <= -0.65\ngini = 0.38\nsamples = 385\nvalue = [465, 156]", fillcolor="#eeab7b"] ;
0 -> 200 [labeldistance=2.5, labelangle=-45, headlabel="False"] ;
201 [label="inital_amount <= 0.49\ngini = 0.5\nsamples = 46\nvalue = [36, 39]", fillcolor="#f0f7fd"] ;
200 -> 201 ;
202 [label="currency_eur <= 0.5\ngini = 0.47\nsamples = 25\nvalue = [28, 17]", fillcolor="#f5ceb1"] ;
201 -> 202 ;
203 [label="transaction_adj_amt <= -0.51\ngini = 0.4\nsamples = 23\nvalue = [28, 11]", fillcolor="#efb287"] ;
202 -> 203 ;
204 [label="gini = 0.0\nsamples = 5\nvalue = [0, 9]", fillcolor="#399de5"] ;
203 -> 204 ;
205 [label="signature_image_F <= 0.5\ngini = 0.12\nsamples = 18\nvalue = [28, 2]", fillcolor="#e78a47"] ;
203 -> 205 ;
206 [label="transaction_adj_amt <= -0.35\ngini = 0.17\nsamples = 15\nvalue = [20, 2]", fillcolor="#e88e4d"] ;
205 -> 206 ;
207 [label="gini = 0.0\nsamples = 1\nvalue = [0, 1]", fillcolor="#399de5"] ;
206 -> 207 ;
208 [label="transaction_env_B <= 0.5\ngini = 0.09\nsamples = 14\nvalue = [20, 1]", fillcolor="#e68743"] ;
206 -> 208 ;
209 [label="gini = 0.0\nsamples = 13\nvalue = [20, 0]", fillcolor="#e58139"] ;
208 -> 209 ;
210 [label="gini = 0.0\nsamples = 1\nvalue = [0, 1]", fillcolor="#399de5"] ;
208 -> 210 ;
211 [label="gini = 0.0\nsamples = 3\nvalue = [8, 0]", fillcolor="#e58139"] ;
205 -> 211 ;
212 [label="gini = 0.0\nsamples = 2\nvalue = [0, 6]", fillcolor="#399de5"] ;
202 -> 212 ;
213 [label="browser_Opera <= 0.5\ngini = 0.39\nsamples = 21\nvalue = [8, 22]", fillcolor="#81c1ee"] ;
201 -> 213 ;
214 [label="tranaction_initiate_L <= 0.5\ngini = 0.21\nsamples = 17\nvalue = [3, 22]", fillcolor="#54aae9"] ;
213 -> 214 ;
215 [label="cvv_G <= 0.5\ngini = 0.23\nsamples = 16\nvalue = [3, 20]", fillcolor="#57ace9"] ;
214 -> 215 ;
216 [label="tranaction_initiate_F <= 0.5\ngini = 0.28\nsamples = 13\nvalue = [3, 15]", fillcolor="#61b1ea"] ;
215 -> 216 ;
217 [label="acc_age <= 0.05\ngini = 0.12\nsamples = 10\nvalue = [1, 14]", fillcolor="#47a4e7"] ;
216 -> 217 ;
218 [label="gini = 0.24\nsamples = 5\nvalue = [1, 6]", fillcolor="#5aade9"] ;
217 -> 218 ;
219 [label="gini = 0.0\nsamples = 5\nvalue = [0, 8]", fillcolor="#399de5"] ;
217 -> 219 ;
220 [label="gini = 0.44\nsamples = 3\nvalue = [2, 1]", fillcolor="#f2c09c"] ;
216 -> 220 ;
221 [label="gini = 0.0\nsamples = 3\nvalue = [0, 5]", fillcolor="#399de5"] ;
215 -> 221 ;
222 [label="gini = 0.0\nsamples = 1\nvalue = [0, 2]", fillcolor="#399de5"] ;
214 -> 222 ;
223 [label="gini = 0.0\nsamples = 4\nvalue = [5, 0]", fillcolor="#e58139"] ;
213 -> 223 ;
224 [label="cvv_E <= 0.5\ngini = 0.34\nsamples = 339\nvalue = [429, 117]", fillcolor="#eca36f"] ;
200 -> 224 ;
225 [label="transaction_adj_amt <= -0.19\ngini = 0.33\nsamples = 335\nvalue = [427, 113]", fillcolor="#eca26d"] ;
224 -> 225 ;
226 [label="transaction_amt <= -0.29\ngini = 0.5\nsamples = 84\nvalue = [64, 69]", fillcolor="#f1f8fd"] ;
225 -> 226 ;
227 [label="d_last_logon <= 0.37\ngini = 0.4\nsamples = 25\nvalue = [32, 12]", fillcolor="#efb083"] ;
226 -> 227 ;
228 [label="tranaction_initiate_O <= 0.5\ngini = 0.5\nsamples = 14\nvalue = [12, 10]", fillcolor="#fbeade"] ;
227 -> 228 ;
229 [label="month_Nov <= 0.5\ngini = 0.5\nsamples = 13\nvalue = [9, 10]", fillcolor="#ebf5fc"] ;
228 -> 229 ;
230 [label="historic_velocity <= 0.27\ngini = 0.44\nsamples = 11\nvalue = [5, 10]", fillcolor="#9ccef2"] ;
229 -> 230 ;
231 [label="gini = 0.49\nsamples = 4\nvalue = [4, 3]", fillcolor="#f8e0ce"] ;
230 -> 231 ;
232 [label="gini = 0.22\nsamples = 7\nvalue = [1, 7]", fillcolor="#55abe9"] ;
230 -> 232 ;
233 [label="gini = 0.0\nsamples = 2\nvalue = [4, 0]", fillcolor="#e58139"] ;
229 -> 233 ;
234 [label="gini = 0.0\nsamples = 1\nvalue = [3, 0]", fillcolor="#e58139"] ;
228 -> 234 ;
235 [label="inital_amount <= -1.4\ngini = 0.17\nsamples = 11\nvalue = [20, 2]", fillcolor="#e88e4d"] ;
227 -> 235 ;
236 [label="gini = 0.0\nsamples = 1\nvalue = [0, 1]", fillcolor="#399de5"] ;
235 -> 236 ;
237 [label="signature_image_W <= 0.5\ngini = 0.09\nsamples = 10\nvalue = [20, 1]", fillcolor="#e68743"] ;
235 -> 237 ;
238 [label="tranaction_initiate_N <= 0.5\ngini = 0.1\nsamples = 9\nvalue = [18, 1]", fillcolor="#e68844"] ;
237 -> 238 ;
239 [label="gini = 0.0\nsamples = 8\nvalue = [18, 0]", fillcolor="#e58139"] ;
238 -> 239 ;
240 [label="gini = 0.0\nsamples = 1\nvalue = [0, 1]", fillcolor="#399de5"] ;
238 -> 240 ;
241 [label="gini = 0.0\nsamples = 1\nvalue = [2, 0]", fillcolor="#e58139"] ;
237 -> 241 ;
242 [label="day_Mon <= 0.5\ngini = 0.46\nsamples = 59\nvalue = [32, 57]", fillcolor="#a8d4f4"] ;
226 -> 242 ;
243 [label="historic_velocity <= 0.71\ngini = 0.43\nsamples = 54\nvalue = [26, 56]", fillcolor="#95caf1"] ;
242 -> 243 ;
244 [label="tranaction_initiate_L <= 0.5\ngini = 0.48\nsamples = 33\nvalue = [21, 32]", fillcolor="#bbddf6"] ;
243 -> 244 ;
245 [label="historic_velocity <= 0.17\ngini = 0.46\nsamples = 30\nvalue = [18, 32]", fillcolor="#a8d4f4"] ;
244 -> 245 ;
246 [label="gini = 0.28\nsamples = 15\nvalue = [4, 20]", fillcolor="#61b1ea"] ;
245 -> 246 ;
247 [label="gini = 0.5\nsamples = 15\nvalue = [14, 12]", fillcolor="#fbede3"] ;
245 -> 247 ;
248 [label="gini = 0.0\nsamples = 3\nvalue = [3, 0]", fillcolor="#e58139"] ;
244 -> 248 ;
249 [label="day_Wed <= 0.5\ngini = 0.29\nsamples = 21\nvalue = [5, 24]", fillcolor="#62b1ea"] ;
243 -> 249 ;
250 [label="day_Sun <= 0.5\ngini = 0.38\nsamples = 16\nvalue = [5, 15]", fillcolor="#7bbeee"] ;
249 -> 250 ;
251 [label="gini = 0.23\nsamples = 12\nvalue = [2, 13]", fillcolor="#57ace9"] ;
250 -> 251 ;
252 [label="gini = 0.48\nsamples = 4\nvalue = [3, 2]", fillcolor="#f6d5bd"] ;
250 -> 252 ;
253 [label="gini = 0.0\nsamples = 5\nvalue = [0, 9]", fillcolor="#399de5"] ;
249 -> 253 ;
254 [label="gini = 0.24\nsamples = 5\nvalue = [6, 1]", fillcolor="#e9965a"] ;
242 -> 254 ;
255 [label="tranaction_initiate_I <= 0.5\ngini = 0.19\nsamples = 251\nvalue = [363, 44]", fillcolor="#e89051"] ;
225 -> 255 ;
256 [label="transaction_amt <= 1.35\ngini = 0.2\nsamples = 237\nvalue = [337, 43]", fillcolor="#e89152"] ;
255 -> 256 ;
257 [label="day_Tue <= 0.5\ngini = 0.18\nsamples = 219\nvalue = [316, 34]", fillcolor="#e88f4e"] ;
256 -> 257 ;
258 [label="historic_velocity <= 1.56\ngini = 0.16\nsamples = 188\nvalue = [272, 26]", fillcolor="#e78d4c"] ;
257 -> 258 ;
259 [label="transaction_env_D <= 0.5\ngini = 0.14\nsamples = 174\nvalue = [252, 20]", fillcolor="#e78b49"] ;
258 -> 259 ;
260 [label="gini = 0.15\nsamples = 144\nvalue = [206, 19]", fillcolor="#e78d4b"] ;
259 -> 260 ;
261 [label="gini = 0.04\nsamples = 30\nvalue = [46, 1]", fillcolor="#e6843d"] ;
259 -> 261 ;
262 [label="tranaction_initiate_K <= 0.5\ngini = 0.36\nsamples = 14\nvalue = [20, 6]", fillcolor="#eda774"] ;
258 -> 262 ;
263 [label="gini = 0.24\nsamples = 12\nvalue = [18, 3]", fillcolor="#e9965a"] ;
262 -> 263 ;
264 [label="gini = 0.48\nsamples = 2\nvalue = [2, 3]", fillcolor="#bddef6"] ;
262 -> 264 ;
265 [label="cvv_W <= 0.5\ngini = 0.26\nsamples = 31\nvalue = [44, 8]", fillcolor="#ea985d"] ;
257 -> 265 ;
266 [label="transaction_amt <= 0.43\ngini = 0.09\nsamples = 24\nvalue = [38, 2]", fillcolor="#e68843"] ;
265 -> 266 ;
267 [label="gini = 0.0\nsamples = 11\nvalue = [20, 0]", fillcolor="#e58139"] ;
266 -> 267 ;
268 [label="gini = 0.18\nsamples = 13\nvalue = [18, 2]", fillcolor="#e88f4f"] ;
266 -> 268 ;
269 [label="tranaction_initiate_K <= 0.5\ngini = 0.5\nsamples = 7\nvalue = [6, 6]", fillcolor="#ffffff"] ;
265 -> 269 ;
270 [label="gini = 0.48\nsamples = 6\nvalue = [6, 4]", fillcolor="#f6d5bd"] ;
269 -> 270 ;
271 [label="gini = 0.0\nsamples = 1\nvalue = [0, 2]", fillcolor="#399de5"] ;
269 -> 271 ;
272 [label="currency_usd <= 0.5\ngini = 0.42\nsamples = 18\nvalue = [21, 9]", fillcolor="#f0b78e"] ;
256 -> 272 ;
273 [label="transaction_amt <= 1.39\ngini = 0.28\nsamples = 15\nvalue = [20, 4]", fillcolor="#ea9a61"] ;
272 -> 273 ;
274 [label="gini = 0.0\nsamples = 1\nvalue = [0, 3]", fillcolor="#399de5"] ;
273 -> 274 ;
275 [label="inital_amount <= 1.41\ngini = 0.09\nsamples = 14\nvalue = [20, 1]", fillcolor="#e68743"] ;
273 -> 275 ;
276 [label="gini = 0.0\nsamples = 13\nvalue = [20, 0]", fillcolor="#e58139"] ;
275 -> 276 ;
277 [label="gini = 0.0\nsamples = 1\nvalue = [0, 1]", fillcolor="#399de5"] ;
275 -> 277 ;
278 [label="gini = 0.28\nsamples = 3\nvalue = [1, 5]", fillcolor="#61b1ea"] ;
272 -> 278 ;
279 [label="signature_image_U <= 0.5\ngini = 0.07\nsamples = 14\nvalue = [26, 1]", fillcolor="#e68641"] ;
255 -> 279 ;
280 [label="d_last_logon <= -1.04\ngini = 0.12\nsamples = 11\nvalue = [15, 1]", fillcolor="#e78946"] ;
279 -> 280 ;
281 [label="gini = 0.38\nsamples = 3\nvalue = [3, 1]", fillcolor="#eeab7b"] ;
280 -> 281 ;
282 [label="gini = 0.0\nsamples = 8\nvalue = [12, 0]", fillcolor="#e58139"] ;
280 -> 282 ;
283 [label="gini = 0.0\nsamples = 3\nvalue = [11, 0]", fillcolor="#e58139"] ;
279 -> 283 ;
284 [label="gini = 0.44\nsamples = 4\nvalue = [2, 4]", fillcolor="#9ccef2"] ;
224 -> 284 ;
}